fashion_model/dense/kernel:0
(784, 128)
[[-6.26293540e-01 -2.51388788e-01 -7.49677122e-01  2.62596011e-01
   6.71626449e-01  4.54997450e-01 -1.10253662e-01  7.24921450e-02
  -7.26896048e-01  3.13689597e-02 -2.27309257e-01  6.44793153e-01
  -9.18145180e-01  1.31411210e-01  8.85497868e-01 -2.15701199e+00
   7.07740366e-01  5.25461435e-01 -4.02456187e-02 -5.12549281e-01
  -1.83823720e-01 -6.68917358e-01  4.99947369e-01 -8.78900066e-02
   1.19803762e+00  1.65324181e-01  6.86610639e-01 -2.60207485e-02
  -2.05630112e+00 -2.99086571e-01 -4.45147371e+00 -7.54284859e-02
  -7.11297989e-01 -5.59880972e-01 -2.04157352e-01 -6.10178784e-02
   1.03764653e+00  4.00094450e-01 -2.32659549e-01  5.22614956e-01
   1.28074735e-01  2.47183949e-01 -1.93668032e+00  3.76236364e-02
  -6.53963149e-01  5.20565391e-01  2.60754079e-01 -3.63387823e-01
   1.31720662e+00 -5.20256519e-01 -6.13874018e-01 -1.71906203e-01
  -1.24052906e+00 -1.84976727e-01 -1.05585408e+00 -1.40057206e+00
  -1.44747496e-02 -2.33853497e-02 -1.98663759e+00  5.75566553e-02
  -8.19517747e-02  1.76104143e-01 -5.22345877e+00 -2.23239526e-01
  -2.79568471e-02 -1.40350282e-01 -2.10807785e-01 -1.13945508e+00
  -1.20630789e+00  6.84817135e-01 -4.53925014e-01 -9.40414488e-01
  -1.46735832e-01 -3.24377447e-01 -9.64865535e-02 -2.22981632e-01
   2.42366099e+00 -9.38081682e-01 -6.19355917e-01 -1.52568626e+00
  -7.22666562e-01 -4.13012236e-01 -7.20176160e-01 -4.78051871e-01
  -3.59930944e+00  8.31859648e-01  3.61406952e-02 -1.21583261e-01
  -9.46634784e-02 -3.02650404e+00 -1.10778892e+00  1.05401433e+00
  -4.84735258e-02 -1.49357724e+00 -3.55847657e-01  4.18617353e-02
   1.45522147e-01  1.53339565e-01  1.53951913e-01 -1.68114435e-02
   2.64420867e-01 -1.54809260e+00  4.13196415e-01 -5.91754029e-03
  -1.22930676e-01  1.73144396e-02 -7.42298365e-02  1.97566405e-01
  -3.66460606e-02  4.69909981e-02 -2.34526658e+00 -7.28980377e-02
  -5.01340367e-02 -3.96365207e-03 -2.74207282e+00 -9.72253978e-01
  -4.53833550e-01  2.27381792e-02 -4.85147595e-01 -2.50903893e+00
   1.10600060e-02 -1.20572078e+00  3.70041886e-03  3.97026807e-01
  -2.75685135e-02 -4.89339322e-01 -8.20462048e-01 -4.38502818e-01]
 [-3.34867328e-01 -1.38294548e-01 -3.27164918e-01  2.06511185e-01
   2.64363647e-01  2.35508129e-01  2.48801410e-01  2.27705091e-02
  -8.15994084e-01 -2.38881819e-02 -4.40540276e-02  6.10361934e-01
  -1.15433764e+00  3.08778346e-01  6.28248928e-03 -2.07588291e+00
   7.18741238e-01  4.49333966e-01 -4.78455834e-02 -3.18838626e-01
   5.85383289e-02 -8.63701165e-01  2.89685518e-01 -4.46734637e-01
   7.17835605e-01  1.57920986e-01  5.47517538e-01 -9.90850553e-02
  -1.32279027e+00 -8.08526203e-02 -1.96901965e+00 -1.52931049e-01
  -4.88574564e-01 -4.53242838e-01 -8.42762664e-02  4.39303741e-02
   4.87955481e-01 -6.39270395e-02 -2.72237897e-01  2.14538112e-01
   2.40422890e-01  1.20973282e-01 -1.00930345e+00 -2.58864439e-03
  -8.42519462e-01  1.76423013e-01  1.95871368e-02 -3.07161272e-01
   1.02752185e+00 -3.40801030e-01 -5.06569326e-01  1.35935411e-01
  -1.06838250e+00 -2.13163972e-01 -5.28894901e-01 -8.89749467e-01
  -6.74844980e-02  4.53979038e-02 -1.75276852e+00  2.85355806e-01
  -3.37776877e-02  2.96907499e-03 -4.04736996e+00 -1.33009508e-01
   4.86496389e-02 -5.18769801e-01  7.10312277e-02 -4.02747363e-01
  -1.12953901e+00  4.25278306e-01 -2.07729578e-01 -8.70206118e-01
  -7.46879697e-01 -7.90131763e-02 -1.91200376e-02 -3.17162365e-01
   1.60964108e+00 -3.26295882e-01 -5.29845595e-01 -7.99152195e-01
  -6.54947221e-01 -3.22645932e-01 -6.03637397e-01 -7.37747401e-02
  -3.60127258e+00  3.57582062e-01 -3.35404351e-02  6.93981051e-02
  -6.09331913e-02 -2.62917519e+00 -9.60072458e-01  6.23087406e-01
   8.45911428e-02 -4.80961114e-01 -3.97621572e-01 -2.72145383e-02
   3.81579399e-02 -1.05876423e-01  4.15448546e-01  2.61782676e-01
   1.24015315e-02 -7.66301394e-01  3.00145388e-01  5.18653058e-02
  -5.41375997e-03 -1.65727839e-03  2.57868282e-02  1.86574697e-01
   5.86843453e-02 -3.66659351e-02 -1.02473354e+00  1.44689847e-02
   6.41224608e-02  2.69049406e-01 -2.67105246e+00 -4.26190287e-01
  -1.87707856e-01  1.08316336e-02 -1.53659299e-01 -2.20424247e+00
  -1.43481553e-01 -1.31987572e+00  5.75539805e-02  8.21191892e-02
  -3.90690230e-02 -1.26170322e-01 -4.78438973e-01 -2.31461376e-01]
 [-3.84722233e-01 -2.10947677e-01 -2.57742494e-01  2.36931115e-01
   2.76821196e-01  1.20150514e-01  2.04364866e-01 -3.07249427e-02
  -5.23055434e-01  1.41294017e-01 -1.76308118e-02  5.90284586e-01
  -1.06147349e+00  1.45730361e-01 -8.88748705e-01 -2.03332043e+00
   5.23524880e-01  3.81660581e-01 -1.45893851e-02 -1.08320192e-01
  -8.74018893e-02 -8.94238591e-01  1.84806943e-01 -6.50302708e-01
   8.18107963e-01  2.22791448e-01  2.96749532e-01  1.16284583e-02
  -6.10635281e-01 -1.44859836e-01 -5.89324534e-01 -1.41245630e-02
  -2.55218923e-01 -5.26239514e-01  8.41142684e-02  6.01958074e-02
   4.44675028e-01 -4.41878885e-01 -2.76641577e-01  2.91138496e-02
   2.24510550e-01  1.89711004e-01 -4.82581645e-01 -6.22535646e-02
  -1.05477357e+00  1.51615769e-01  4.31628078e-02 -2.89452553e-01
   7.03649402e-01 -4.04553115e-01 -5.25796413e-01  9.17127952e-02
  -8.51542711e-01 -2.98061874e-02 -3.25657070e-01 -8.75554204e-01
  -1.01194024e-01  1.02122389e-01 -1.40691316e+00  1.50319427e-01
   3.81677784e-02  9.83050540e-02 -3.58062172e+00 -7.25810006e-02
   4.66467559e-01 -8.56814325e-01 -1.94243163e-01 -9.97716859e-02
  -1.05174553e+00  1.20320283e-01 -1.79403648e-01 -9.87497151e-01
  -1.81587934e+00  5.95783852e-02 -1.00333877e-01 -4.78636682e-01
   1.36072469e+00 -1.22058615e-01 -4.02609587e-01 -1.95057824e-01
  -6.40299797e-01 -1.55428275e-01 -6.04244053e-01 -1.90536022e-01
  -3.63825417e+00 -8.70905817e-02  4.23373431e-02  2.50157684e-01
   1.89743135e-02 -2.53944588e+00 -8.05425286e-01  5.31995296e-01
   9.61994845e-03  9.76821408e-02 -9.89181027e-02 -2.20320392e-02
  -6.99455217e-02 -1.58896316e-02  3.80288303e-01  3.44187796e-01
   2.67577380e-01 -5.17005622e-01  1.41411915e-01 -7.96515718e-02
   3.01335663e-01  1.19781750e-03  5.09608984e-02  3.13002020e-02
   3.42749171e-02 -4.07697745e-02 -3.14055741e-01  7.39629641e-02
  -6.97434917e-02  3.22411716e-01 -2.80984688e+00 -2.38570049e-01
  -9.48224515e-02  2.14849096e-02  1.26279473e-01 -1.65867937e+00
  -3.26458395e-01 -9.20418322e-01 -2.38744114e-02 -2.08481774e-02
   1.93336774e-02  1.84503093e-01 -1.88380852e-01 -5.21531940e-01]
 [-6.07242763e-01 -2.43989397e-02  5.00053465e-01  2.61132866e-01
   2.04504669e-01  5.42782806e-02  2.13530883e-01 -9.09724310e-02
  -4.74056184e-01 -8.11779574e-02 -9.69241187e-02  5.41136861e-01
  -7.41206944e-01  1.13321878e-01 -2.53690386e+00 -1.59895909e+00
   5.84169030e-01  5.05588412e-01  3.47072235e-03 -2.31624842e-01
   7.23678917e-02 -9.48819995e-01  1.39197379e-01 -6.02964163e-01
   1.00281632e+00  2.53082156e-01  3.90530825e-01 -8.66315290e-02
  -4.35713559e-01 -7.54544854e-01 -1.51636809e-01 -7.84731284e-02
  -1.81716353e-01 -3.38856339e-01 -2.77389705e-01 -4.63533178e-02
   4.21857566e-01 -6.71689391e-01 -3.04570794e-01 -1.58089709e+00
   3.63395125e-01  2.33090773e-01  1.05409715e-02 -3.70938443e-02
  -6.10803604e-01  1.96119919e-01  9.52209011e-02 -2.78995216e-01
   6.26237810e-01 -2.81266570e-01 -1.09266603e+00  2.59698685e-02
  -5.90118766e-01  6.06936775e-02  3.74618210e-02 -7.11202025e-01
  -5.29605597e-02  5.79083562e-02 -1.05912411e+00  9.10790339e-02
  -1.74975768e-02 -3.38613987e-02 -4.43979549e+00  1.45400047e-01
   2.77727216e-01 -7.95426130e-01 -6.44339696e-02 -2.47511521e-01
  -1.04952717e+00  2.71113981e-02 -1.45574525e-01 -1.16859818e+00
  -1.98491108e+00  3.53094265e-02  9.70758311e-03 -8.31537008e-01
   1.25919890e+00 -1.19238928e-01 -2.42838219e-01  2.76156887e-02
  -7.40599513e-01  2.18258165e-02 -5.67747056e-01 -5.30551791e-01
  -3.69566607e+00 -6.72349870e-01  3.09724718e-01  1.89759433e-01
  -5.17049395e-02 -2.46741629e+00 -7.70262778e-01  6.43654466e-01
  -6.49035051e-02  1.11858614e-01 -4.81837019e-02 -4.22560461e-02
  -1.56508684e-01  1.64413348e-01  3.53951335e-01  4.34760273e-01
   2.58630574e-01 -6.54874325e-01  1.76214829e-01 -1.11761689e-03
   2.65689343e-01 -2.27041230e-01 -6.75351173e-02 -3.86420358e-03
   6.28914591e-03 -8.89708549e-02  1.32615656e-01 -7.77413025e-02
  -9.43774283e-02  2.53048450e-01 -3.07888627e+00 -1.54300451e-01
  -2.15237439e-01 -5.48219942e-02  3.47156376e-01 -1.20504844e+00
  -2.30538636e-01 -8.44792128e-01 -9.72328894e-03  2.10469678e-01
  -6.89166188e-02  5.21897793e-01  8.72672126e-02 -9.47641492e-01]
 [-5.77082634e-01 -7.74880573e-02  8.85179996e-01  2.25704834e-01
   2.63865530e-01  9.18336306e-03  4.12083566e-01  2.22985074e-02
  -3.04208964e-01  1.87597364e-01 -1.41308114e-01  5.26478887e-01
  -2.46770769e-01  1.04846455e-01 -4.28155231e+00 -2.75849611e-01
   2.60820419e-01  2.64851481e-01 -7.50107542e-02 -2.35099122e-01
   2.40199298e-01 -1.12149394e+00  2.08159924e-01 -6.15849555e-01
   1.02875817e+00  3.15534413e-01  4.01125431e-01 -3.41865085e-02
  -2.42878735e-01 -1.59379971e+00 -1.88814387e-01 -2.04058662e-01
   1.32675730e-02  1.12061232e-01 -1.94534197e-01 -2.92995274e-02
   2.31780052e-01 -1.28559744e+00 -4.76527810e-01 -3.60085964e+00
   1.94885388e-01  4.68107052e-02  4.22426015e-01  3.45763075e-03
  -3.05559158e-01  2.50554770e-01  1.24998063e-01 -1.89428777e-01
   6.00521624e-01 -2.34886646e-01 -2.10176706e+00  1.60836890e-01
  -3.50208580e-01  1.83636263e-01 -8.05626363e-02 -3.77315402e-01
  -2.96764255e-01  2.87631452e-01 -6.59952641e-01  8.09408650e-02
   3.68999094e-02 -5.33649176e-02 -3.77200437e+00  2.43874773e-01
   1.66652620e-01 -4.84091550e-01 -2.20008716e-01 -3.19169164e-01
  -9.69797313e-01  1.62448585e-01 -1.59374207e-01 -7.96502650e-01
  -2.45656300e+00 -1.57987401e-01 -2.93327328e-02 -7.94176161e-01
   1.12439656e+00 -1.55886084e-01 -2.34395713e-02  1.29081801e-01
  -6.92138314e-01  4.17971984e-02 -4.35681909e-01 -5.62676072e-01
  -4.18010950e+00 -8.93973410e-01  4.33693826e-01  6.10574670e-02
   8.75828341e-02 -2.17028546e+00 -5.90849280e-01  7.70154059e-01
  -1.70676820e-02  4.02003884e-01 -1.21115163e-01  9.93226841e-03
  -4.41435039e-01 -9.85364392e-02  1.07196480e-01  4.45830226e-01
  -3.80033441e-02 -6.90858960e-01  1.31915852e-01  5.67279011e-03
   1.88947797e-01 -1.04882441e-01 -5.02042361e-02 -8.40664878e-02
  -9.94976144e-04 -5.68864234e-02  5.85563540e-01  2.03068256e-02
   1.03024868e-02  3.43437523e-01 -3.03132629e+00 -2.52333730e-01
  -1.10994272e-01  5.69329448e-02  1.18024871e-01 -1.14590633e+00
   3.30881737e-02 -1.04549611e+00  6.53809533e-02  2.88084567e-01
  -3.73548567e-02  7.43962169e-01  6.94900453e-02 -1.65230656e+00]
 [-7.70756006e-01 -2.11787090e-01  3.16081583e-01  1.98920384e-01
   3.21437836e-01  6.21036217e-02  1.12173781e-01 -2.35057343e-02
  -2.52336621e-01  2.45336846e-01 -3.64913076e-01  6.64396584e-01
  -1.70606181e-01  2.98418730e-01 -5.17446756e+00  1.75362319e-01
   1.05370916e-01  5.28901339e-01  3.68518308e-02 -3.20628844e-02
   1.84412703e-01 -1.41067111e+00  1.15888305e-01 -5.50312579e-01
   1.10256565e+00  3.18062723e-01  4.35089797e-01 -5.53613529e-02
   7.34727979e-02 -2.48980260e+00  9.23713855e-03 -7.74342045e-02
  -4.58300747e-02  1.94062188e-01 -7.56989196e-02  2.11304030e-03
   2.92683065e-01 -1.56555450e+00 -5.11954367e-01 -5.12857246e+00
   3.79788637e-01  5.95182441e-02  9.23397422e-01  3.40206985e-04
  -6.71753407e-01  4.21080619e-01  2.43874431e-01  1.95712987e-02
   4.96038884e-01 -1.87284470e-01 -2.88123465e+00  2.02547967e-01
  -1.18589282e-01  1.95799500e-01 -4.04614024e-02 -5.76054864e-02
  -1.37646511e-01  1.52506322e-01 -2.45207414e-01  3.86357270e-02
  -4.50359210e-02 -1.04911784e-02 -2.60084152e+00  3.32919180e-01
   3.04596305e-01 -4.02164280e-01 -3.78363281e-02 -3.87719750e-01
  -9.70495760e-01 -8.37607905e-02 -2.83083115e-02 -6.32189631e-01
  -2.48531032e+00 -1.55387400e-02  1.77410170e-02 -7.89393306e-01
   1.07498038e+00  8.54368284e-02  1.21899009e-01  3.78819555e-01
  -4.33977336e-01 -6.06595539e-03 -2.74760753e-01 -7.02417791e-01
  -4.46661806e+00 -1.50190639e+00  5.47374010e-01  8.89418051e-02
   5.02473079e-02 -2.28209090e+00 -7.71815240e-01  7.97024071e-01
  -2.40889434e-02  3.41071248e-01 -1.59175158e-01  1.63859949e-02
  -3.96341830e-01 -1.05406255e-01  5.28569333e-02  2.81099584e-02
  -7.88583793e-03 -6.22110546e-01  6.17827848e-02 -6.25409931e-02
   4.18670267e-01 -9.40653980e-02  6.92005977e-02 -3.20199013e-01
   1.19947435e-04 -2.96981372e-02  9.67990696e-01 -3.93778225e-03
  -6.64030835e-02  3.25268537e-01 -2.71431661e+00  6.88770739e-03
  -4.87345271e-02 -4.64820154e-02  1.07090339e-01 -8.46787393e-01
   4.91781905e-03 -9.68744993e-01  1.38636325e-02  4.25562143e-01
  -5.51899299e-02  7.52185524e-01  6.58741742e-02 -2.39115500e+00]
 [-9.06148374e-01 -7.13455901e-02  6.84491098e-02  4.75993901e-02
   4.16418284e-01  1.19559743e-01  2.83223279e-02  3.16279680e-02
  -6.38099238e-02  1.83985129e-01 -3.55440557e-01  5.71127534e-01
  -1.44932702e-01  2.22091883e-01 -5.21653128e+00  1.02896206e-01
   9.74178240e-02  6.10393822e-01  2.43104193e-02 -4.33071218e-02
   7.99607188e-02 -1.16228592e+00  1.12187095e-01 -3.30770552e-01
   8.48225176e-01  3.38183254e-01  1.59614041e-01  3.41759212e-02
   1.61705628e-01 -3.16035962e+00  3.10673028e-01 -7.61345997e-02
   8.90379623e-02  1.56786025e-01 -2.36721277e-01 -6.62469119e-02
   1.58244491e-01 -1.43731773e+00 -5.08068204e-01 -5.79869556e+00
   2.18232855e-01  1.05219446e-01  1.21260059e+00  2.00587958e-02
  -2.25923136e-01  2.98551291e-01  2.89421290e-01  9.61775258e-02
   3.18200260e-01 -2.59099633e-01 -3.38296103e+00  1.32850662e-01
   2.06946269e-01  2.37793103e-01 -1.18492007e-01  1.13634951e-01
  -2.64863856e-02  1.87897906e-01 -3.79349709e-01  6.35857135e-02
  -3.10142040e-02  3.95512953e-02 -1.36234808e+00  4.39866900e-01
   4.11002547e-01 -5.59310496e-01 -1.27500355e-01 -3.52120250e-01
  -9.84286666e-01 -4.63207029e-02 -1.37367964e-01 -6.28970742e-01
  -2.88368750e+00 -5.23888469e-02  4.95596305e-02 -9.68257546e-01
   1.03352916e+00  1.52500004e-01  2.57261116e-02  5.21870479e-02
  -4.15382296e-01 -4.33673337e-02 -4.30583566e-01 -8.93692970e-01
  -4.12274218e+00 -1.48721302e+00  5.81260204e-01  9.07589570e-02
   4.05821763e-02 -3.11805987e+00 -7.61732042e-01  3.77594113e-01
   2.60802859e-04  4.61310923e-01 -2.20518813e-01  2.18654685e-02
  -3.10350925e-01  8.61832649e-02  3.52606624e-02  2.41776600e-01
  -1.44303918e-01 -6.30975068e-01  3.07674468e-01  7.10124820e-02
   5.01175106e-01 -1.51008561e-01 -4.80527543e-02 -1.06434338e-01
  -5.55660203e-02  5.00416644e-02  1.40058947e+00 -5.93371689e-02
  -5.97273037e-02  2.59734482e-01 -2.08254457e+00  1.86705932e-01
   6.12412170e-02 -4.01167721e-02  2.10913658e-01 -9.77859944e-02
   1.23031348e-01 -9.02042270e-01 -8.90234020e-04  5.35254002e-01
   1.80056300e-02  7.31457293e-01  3.70546579e-02 -2.81734610e+00]
 [-1.19572294e+00 -2.02231064e-01 -2.92022288e-01 -1.21328168e-01
   4.81824428e-01  6.13296330e-02 -1.26375660e-01  6.97818911e-03
   2.18728572e-01  2.40931779e-01 -3.57194245e-01  6.44820929e-01
  -1.43258139e-01  3.19147468e-01 -4.96902084e+00  2.62993425e-01
   2.29672134e-01  7.05830097e-01 -8.89829770e-02 -4.64398190e-02
   1.00576133e-01 -3.16523343e-01  1.20630592e-01 -6.02044426e-02
   8.70836914e-01  3.50094885e-01 -7.90416002e-02 -6.00654036e-02
  -2.71066070e-01 -3.24458075e+00  3.27327818e-01 -9.53162983e-02
   2.49286406e-02  2.44811736e-03 -3.96950543e-01 -7.32583255e-02
   3.01723797e-02 -1.11529887e+00 -5.18756747e-01 -5.91971540e+00
   2.62276679e-01  1.35646343e-01  1.05363297e+00  3.46080661e-02
  -2.89742481e-02  2.22725928e-01  4.91353750e-01  8.58255923e-02
   2.93896526e-01 -8.02263767e-02 -3.25653386e+00  1.17174603e-01
   4.42239046e-01  1.52285710e-01 -1.07845806e-01  2.38765344e-01
  -7.31764734e-02  1.59959197e-01 -1.96551070e-01 -5.47106080e-02
  -2.90509611e-02  1.92944020e-01 -5.57247102e-01  2.25146562e-01
   2.11603582e-01 -5.11780202e-01  5.74798742e-03 -4.70442712e-01
  -8.75259340e-01 -1.34705991e-01 -1.08938627e-01 -7.50189900e-01
  -2.95834327e+00 -1.24321328e-02 -4.71244901e-02 -1.22462904e+00
   7.65881419e-01  4.54652607e-02  8.15114155e-02 -6.92875385e-02
  -2.42014810e-01 -5.15784100e-02 -6.05306923e-01 -8.90926600e-01
  -3.73574138e+00 -1.50646138e+00  3.89320076e-01 -2.57167052e-02
   7.27861598e-02 -3.76758361e+00 -1.30645657e+00  3.67458224e-01
  -5.33680283e-02  3.48169267e-01 -1.29484862e-01 -5.45997247e-02
  -1.43206835e-01 -1.23362862e-01  1.66517675e-01  6.06967688e-01
  -1.28478512e-01 -3.17588627e-01  2.32010946e-01 -1.40503384e-02
   5.90899527e-01 -1.82665467e-01 -7.55822361e-02 -1.13160618e-01
  -7.65717700e-02 -6.41709715e-02  1.84763336e+00 -3.81680913e-02
  -2.35992167e-02  1.65563300e-01 -1.65598977e+00  1.78070635e-01
  -1.51841313e-01  2.56322660e-02  9.71130207e-02 -1.76398214e-02
  -6.79327324e-02 -9.26518500e-01 -4.74425927e-02  5.17401397e-01
  -3.02475356e-02  6.89628184e-01  1.98106393e-01 -2.29047108e+00]
 [-1.21296442e+00 -1.21382467e-01 -2.57570088e-01  4.58472641e-05
   3.72259200e-01  1.07939005e-01  1.27291009e-01 -1.31033128e-02
   3.32913637e-01 -4.77553047e-02 -2.21529230e-01  5.60811222e-01
  -3.88788641e-03  3.42486382e-01 -4.65384579e+00  1.77507058e-01
  -1.41030818e-01  5.58375657e-01  2.51482241e-04  9.42905247e-02
  -9.58861597e-03  2.71568596e-01  5.54042682e-03  2.15974793e-01
   5.18693328e-01  1.98924422e-01 -3.61741215e-01  2.22380366e-02
  -4.16761339e-01 -3.26165414e+00  2.60685563e-01 -1.25635237e-01
   1.29380077e-01  2.09300593e-01 -1.59963235e-01  2.35697590e-02
   1.02618277e-01 -7.37034142e-01 -4.52113032e-01 -5.76283312e+00
   1.23576269e-01  1.72712073e-01  8.56721044e-01  8.35492834e-02
   8.97264481e-03  2.24148240e-02  5.79295337e-01 -3.80917974e-02
   5.35128057e-01  5.83215952e-02 -2.70266342e+00  3.20039868e-01
   3.76510359e-02  1.39678210e-01  7.08951205e-02 -3.67470160e-02
   5.15403710e-02  3.43668491e-01 -6.52780533e-02 -5.65575715e-03
  -3.22681591e-02  2.05808491e-01 -6.45921230e-02  3.27946544e-01
   1.92996025e-01 -3.19140464e-01 -3.27582002e-01 -4.88774270e-01
  -1.19987071e+00 -1.34848207e-01 -1.14183046e-01 -7.42141247e-01
  -2.90793610e+00 -1.14063181e-01  3.21195275e-02 -1.31515825e+00
   6.49679601e-01 -2.14013532e-02 -5.53905480e-02 -5.09771109e-01
  -1.03498459e-01 -4.67853323e-02 -3.70242447e-01 -1.12088680e+00
  -3.33620358e+00 -2.09641719e+00  3.33940238e-01  7.65834004e-02
  -6.17124178e-02 -4.59099197e+00 -2.21148157e+00  3.61490756e-01
  -1.63004287e-02  3.18287402e-01 -3.72273028e-01 -7.51680061e-02
   1.97572075e-02 -1.58928603e-01  1.68100223e-01  5.54388046e-01
  -9.89120677e-02 -2.05178797e-01  1.84520796e-01 -5.78163937e-02
   5.31205654e-01 -1.03139400e-01  3.65161151e-02 -5.50307930e-02
  -2.03066273e-03  1.62580502e-04  1.69479620e+00  4.18861322e-02
   3.17390151e-02  1.50736749e-01 -9.37422693e-01  2.47498482e-01
   1.39682859e-01  6.25038445e-02  6.29404411e-02  6.04510382e-02
  -1.78084835e-01 -4.43383574e-01  6.05897903e-02  3.66743118e-01
   4.86565754e-02  8.95577192e-01  2.44705141e-01 -1.38263226e+00]
 [-1.30180681e+00  3.30142528e-02 -3.37086231e-01  9.50191915e-02
   3.56683999e-01  7.32917488e-02  1.37371361e-01 -6.98408261e-02
   6.26778305e-01 -1.85000449e-01  5.00982115e-03  4.97240871e-01
   2.34287865e-02  4.08958882e-01 -4.93427181e+00  1.31801680e-01
  -7.88275182e-01  5.11893034e-01 -7.82264322e-02 -1.10237792e-01
  -1.46782994e-01  3.74501973e-01  1.72564611e-01  3.06030184e-01
  -2.26075784e-03  2.74919093e-01 -4.58987743e-01 -8.24084803e-02
  -2.88172066e-01 -3.12665677e+00  2.34295651e-01 -2.09217161e-01
   5.29142357e-02  8.05779099e-02 -1.35417327e-01 -1.52430660e-03
   6.96467757e-02 -1.43252954e-01 -5.48950970e-01 -5.66628838e+00
   8.92957449e-02  1.48306891e-01  6.71467066e-01  3.50739248e-02
   7.17493892e-02  1.01467788e-01  6.16661847e-01 -2.94772610e-02
   6.54157698e-01 -1.41756621e-03 -2.21675682e+00  1.43859565e-01
  -5.39059162e-01  3.75055261e-02 -3.25237634e-03  1.63392220e-02
   2.32864290e-01  5.57056427e-01 -1.83547318e-01 -3.09520382e-02
   4.97286543e-02  8.04978833e-02  2.60843575e-01  2.22116441e-01
   1.67025596e-01  3.17843556e-02 -4.83617634e-01 -6.73710525e-01
  -1.24795365e+00 -1.38753384e-01 -1.17559120e-01 -7.39687204e-01
  -3.25300527e+00 -1.38250574e-01 -2.99905706e-02 -1.16261733e+00
   3.80900532e-01 -1.44989071e-02  5.45648346e-03 -1.20337772e+00
  -1.23055644e-01  1.62849389e-02 -2.05948323e-01 -1.22889531e+00
  -2.11495757e+00 -2.27034187e+00  3.50591749e-01 -1.03264786e-01
  -6.31816569e-04 -5.19546843e+00 -3.62575579e+00  8.83715972e-02
  -6.93341196e-02  2.91799456e-01 -3.05698752e-01 -6.25680834e-02
  -3.82641464e-01 -9.22597870e-02  3.76619548e-01  3.83302689e-01
  -2.15661734e-01 -1.95351422e-01  3.61054122e-01 -2.67837234e-02
   5.38544834e-01 -9.76651311e-02 -2.27331538e-02 -3.04236002e-02
   1.27016995e-02 -3.11307665e-02  1.50628650e+00 -5.54373264e-02
  -1.73782427e-02  3.68249059e-01 -5.14721215e-01 -9.30474773e-02
   1.16830163e-01 -6.21577799e-02  1.68168783e-01  2.16669649e-01
  -2.45995060e-01 -4.93778437e-01  2.37329025e-02  3.21533203e-01
  -1.06652454e-01  7.85352826e-01  9.87058952e-02 -4.56782669e-01]
 [-1.47995090e+00 -1.79234654e-01 -1.33313984e-01  1.19974623e-02
   3.04895163e-01  5.00817522e-02 -1.13894984e-01 -6.45763800e-02
   6.98059916e-01  1.36396468e-01 -9.68607292e-02  3.47142667e-01
  -1.06065892e-01  5.02328455e-01 -5.38944340e+00 -1.87927678e-01
  -7.27081597e-01  1.47406563e-01 -1.36971974e-03  7.65769258e-02
  -2.38826469e-01  4.27177340e-01  1.36684224e-01  8.05695131e-02
  -3.30652326e-01  1.57906398e-01 -7.75632799e-01  6.05749339e-03
  -2.98649166e-02 -3.03480005e+00  2.21846268e-01 -1.79252565e-01
   1.50966480e-01  5.92027754e-02 -7.71401897e-02 -4.08186093e-02
   3.29929590e-02 -1.47862747e-01 -7.15147197e-01 -5.63391829e+00
   1.86869740e-01  1.01821713e-01  5.23685753e-01 -7.47492686e-02
   9.24076140e-02  1.82675138e-01  5.97873211e-01 -3.15543622e-01
   5.63915491e-01  2.09000669e-02 -1.80533826e+00  6.65507540e-02
  -1.25722706e+00  6.81926310e-02  2.51638386e-02  1.33387536e-01
   1.83962032e-01  4.78808641e-01 -1.84967875e-01  7.93750510e-02
   6.83203787e-02 -4.00985889e-02  4.88816023e-01  1.24030046e-01
   9.93139371e-02  3.35611194e-01 -7.50910461e-01 -7.44766533e-01
  -1.20100605e+00 -3.02717268e-01  2.54592329e-01 -7.62176514e-01
  -3.03710890e+00 -1.21468052e-01 -1.21571990e-02 -1.00291216e+00
   3.15920055e-01  2.51374412e-02 -9.28925574e-02 -1.02449524e+00
  -6.87271431e-02  7.62488286e-04 -2.76832227e-02 -1.23086739e+00
  -1.07126534e+00 -2.71117234e+00  1.61072016e-01 -9.64054614e-02
  -2.65812874e-02 -5.13138342e+00 -4.29880381e+00  5.85483387e-02
  -5.75438850e-02  2.80345023e-01 -1.52153671e-01 -3.50657711e-03
  -4.62971181e-01 -1.35907501e-01  1.34104162e-01 -6.58079684e-02
  -2.24671483e-01 -1.67484984e-01  3.56412172e-01  2.93534640e-02
   7.62357533e-01 -1.53883487e-01 -7.92628676e-02 -1.74476817e-01
  -6.80960640e-02 -4.61343601e-02  1.41980529e+00  5.88157028e-03
  -3.61961732e-03  2.25564465e-01 -4.61626440e-01 -1.17908776e-01
   1.74623773e-01  1.56762507e-02  2.34082580e-01  2.65197426e-01
  -1.92041025e-01 -4.65588450e-01  3.35022435e-02  1.69973314e-01
   1.39896767e-02  7.32720435e-01  1.14645669e-02 -1.77929491e-01]
 [-1.31356978e+00  4.25167829e-02  1.30990958e-02  1.98316271e-03
   2.72627652e-01  4.58731083e-05 -8.86608064e-02 -6.33091033e-02
   7.03157604e-01 -3.96388859e-01 -2.89482415e-01 -1.80762671e-02
  -1.49136722e-01  5.30390441e-01 -3.64488792e+00 -1.05196953e-01
  -7.66635537e-01 -2.16350436e-01  1.40108475e-02  1.37350738e-01
  -2.66297042e-01  5.05111456e-01  1.23764068e-01  5.14568761e-02
  -7.21923769e-01  3.17247748e-01 -1.18880332e+00 -1.60625484e-03
  -1.58003554e-01 -3.44870567e+00  7.48270750e-02 -1.22024886e-01
   1.41787708e-01  5.93702532e-02 -2.03589365e-01  3.83949615e-02
   8.29687193e-02  1.56465441e-01 -6.83559895e-01 -5.37939453e+00
   3.56621832e-01 -4.14172187e-02  2.81205654e-01 -7.68774897e-02
   1.71864718e-01  1.39020398e-01  9.03251469e-01 -4.87376034e-01
   5.35150826e-01 -8.55680183e-02 -1.61004496e+00  1.38963550e-01
  -2.23704624e+00 -2.05672756e-02 -9.27157328e-02  2.49512881e-01
   1.77255332e-01  5.85192502e-01  3.13542672e-02  6.91900700e-02
  -4.61842343e-02  3.56138125e-02  6.11407578e-01  2.63533145e-01
   9.15096477e-02  4.12365198e-01 -5.33197343e-01 -6.26034260e-01
  -1.23307717e+00 -1.77356318e-01  2.20488057e-01 -4.48102832e-01
  -3.16722608e+00 -1.68081567e-01  1.37979602e-02 -1.08708239e+00
   1.49677426e-01  1.16293840e-01 -1.39706671e-01 -7.59056926e-01
   3.53849865e-02  2.11279537e-03  3.29478271e-02 -1.14947820e+00
  -4.80665028e-01 -2.67047048e+00  2.37013787e-01  1.42425030e-01
   8.50149663e-05 -3.45801616e+00 -4.90337467e+00 -1.92410965e-02
   1.58313978e-02  1.46329492e-01 -6.11450709e-02  6.73934072e-02
  -5.99110901e-01 -7.35326335e-02  8.45684558e-02 -1.75212398e-01
  -2.56842345e-01  3.21801230e-02  4.73283201e-01  1.61608737e-02
   6.97298706e-01 -4.07226682e-02 -2.95641422e-02 -1.80658489e-01
  -7.86819980e-02 -7.85647258e-02  1.02845836e+00 -2.61836275e-02
   1.46629540e-02  8.12628344e-02 -2.82323122e-01 -1.44108489e-01
   2.21826330e-01 -1.52149033e-02  2.45320320e-01  1.93194076e-01
  -3.27188194e-01 -2.07303584e-01 -1.63947400e-02  1.99690789e-01
  -9.28083807e-02  5.27919710e-01  9.60515812e-02 -1.50561720e-01]
 [-1.48962533e+00 -1.76037893e-01  5.77200241e-02 -8.64373147e-02
   3.51163805e-01 -4.33487035e-02 -2.77807955e-02  5.08026630e-02
   8.36282790e-01 -3.37528408e-01 -3.51681978e-01 -2.14321896e-01
  -1.76131904e-01  4.83457297e-01 -1.76083004e+00 -3.38304907e-01
  -6.25321925e-01 -3.65338862e-01  8.01544935e-02  1.78195238e-01
  -3.52234542e-01  5.37211180e-01  6.01188764e-02 -2.13756151e-02
  -1.20320487e+00  2.45806098e-01 -1.56974709e+00  6.94166273e-02
  -6.37211502e-02 -2.98262858e+00  3.61903571e-02 -1.27753794e-01
  -5.92118055e-02  2.31573492e-01 -3.81456912e-01 -6.03384525e-02
   6.01759404e-02  1.93714932e-01 -6.49119854e-01 -3.86937118e+00
   4.58610445e-01 -1.22439772e-01  3.50463927e-01 -4.79883775e-02
   1.41071677e-01  2.23669350e-01  7.09186077e-01 -1.91499010e-01
   6.40755594e-01  9.77753624e-02 -1.51966786e+00  1.86905593e-01
  -3.41066146e+00 -1.46718666e-01 -6.44203871e-02  5.99038452e-02
   1.17790230e-01  5.48779249e-01  7.86643326e-02  3.74687612e-02
  -8.53908062e-03  1.59178441e-03  7.31254518e-01  2.52443969e-01
   1.61830381e-01  1.94533437e-01 -1.55657083e-01 -5.31549990e-01
  -1.23575270e+00 -1.52400360e-01 -1.95321627e-02 -2.14689881e-01
  -2.95648050e+00 -9.85141993e-02 -9.38398764e-02 -1.07482255e+00
   2.34327972e-01  2.24132627e-01 -6.60195202e-02 -6.68404758e-01
  -1.97665580e-02 -9.33863223e-02  1.36683881e-01 -1.19696212e+00
  -5.44257723e-02 -2.25999188e+00  4.64128971e-01  2.26260230e-01
   2.96427006e-05 -1.94709527e+00 -5.50048780e+00  4.27091010e-02
  -5.73714599e-02 -2.68031564e-02 -1.48304656e-01 -1.73748489e-02
  -5.14698446e-01  2.40834802e-02  1.45568149e-02 -7.04322815e-01
  -4.59470749e-01  1.70491770e-01  5.72585344e-01  4.19850722e-02
   8.19073319e-01 -1.52851120e-01 -1.64440051e-02 -1.27929732e-01
  -3.27679440e-02 -4.63694334e-02  7.52912343e-01 -6.06536120e-02
  -3.01363878e-02 -3.83331478e-02 -3.10657591e-01 -1.85316394e-03
   1.82459846e-01  1.61446203e-02  2.64650851e-01  3.56412232e-01
  -1.80044174e-01 -2.92342044e-02 -1.80615997e-03  8.00572857e-02
   4.92531918e-02  3.84129256e-01  2.46145830e-01 -2.24946469e-01]
 [-1.42218077e+00 -7.13360608e-02  1.54436424e-01  1.72679918e-03
   2.59125233e-01  3.02981324e-02  7.31076226e-02  3.35237719e-02
   8.08273017e-01 -8.86582792e-01 -5.05302608e-01 -3.49379212e-01
   8.33583251e-03  3.12009782e-01 -1.17925501e+00 -2.07174778e-01
  -4.96849507e-01 -3.27487797e-01 -2.09138654e-02  3.83841604e-01
  -7.41149709e-02  3.15083057e-01  2.23624364e-01  4.07349989e-02
  -1.79760432e+00  1.89144745e-01 -1.69267440e+00  5.87665103e-02
   2.34646454e-01 -2.32876921e+00  1.57293573e-01 -1.43436808e-02
  -8.67753029e-02  2.63997838e-02 -4.66182947e-01 -5.08597866e-02
   8.97106305e-02  7.99192488e-02 -6.51430011e-01 -2.68501234e+00
   4.51718181e-01 -8.81180018e-02  3.57906282e-01  2.47987546e-02
   1.46092668e-01  2.89431602e-01  5.83412766e-01 -9.47780758e-02
   5.01833558e-01  1.50937140e-01 -8.36195648e-01  1.66973069e-01
  -4.02458477e+00  7.93078542e-03  3.99870845e-03  3.98966521e-01
   3.13106805e-01  5.52414477e-01  1.73806369e-01  6.54560849e-02
   7.83793852e-02  1.06066629e-01  5.87657332e-01  4.08903122e-01
  -5.67333177e-02  1.99692864e-02  2.32243836e-01 -4.78781164e-01
  -1.35962749e+00 -7.40300938e-02  2.52874959e-02 -9.69534367e-02
  -3.25251460e+00  6.05675727e-02 -7.50614107e-02 -8.79723728e-01
   2.60264695e-01  1.90382794e-01 -1.15885481e-01 -7.61217892e-01
  -4.67565283e-02 -1.33918837e-01  6.21011220e-02 -1.17322230e+00
   1.39112681e-01 -2.42309427e+00  4.96936351e-01  1.47910178e-01
  -3.56413051e-02 -1.02311146e+00 -5.57533264e+00 -5.72756492e-02
  -7.32060522e-02 -7.07286447e-02 -1.16171204e-01 -2.25273427e-02
  -6.77483618e-01  2.42154643e-01 -2.03776002e-01 -1.00111604e+00
  -3.95892560e-01  2.09973883e-02  3.26634288e-01  2.24409234e-02
   8.27461481e-01 -1.50894389e-01 -8.04377720e-02 -1.46592036e-02
  -7.18711987e-02 -2.37308759e-02  6.39155328e-01 -9.19850096e-02
  -1.02176808e-01 -7.63670057e-02 -4.85311560e-02 -6.43106401e-02
   2.70071834e-01  4.16315906e-02  4.02858764e-01  5.39878905e-01
  -2.15276316e-01  1.39258697e-03 -3.92217338e-02 -1.73020121e-02
   3.95241752e-02  4.10429299e-01  3.16535383e-01 -2.94369715e-03]
 [-1.02472270e+00  2.56834090e-01  1.26047313e-01  5.27801597e-03
   2.92183280e-01  1.42263427e-01 -6.40834346e-02 -5.71578592e-02
   7.66830206e-01 -4.29060817e-01 -5.90296805e-01 -6.21129155e-01
   1.10871330e-01 -9.90157574e-03 -8.93565297e-01 -2.51726151e-01
  -1.09087214e-01 -1.73255742e-01  3.37989926e-02  3.51052105e-01
  -5.74721955e-02  3.20011884e-01  2.10365921e-01  4.27537709e-02
  -2.06858969e+00  9.72882360e-02 -1.63073957e+00 -4.42859344e-02
   1.68142974e-01 -1.79335201e+00 -6.67281449e-02 -2.95555796e-02
   5.96147729e-03 -4.51801829e-02 -3.26216519e-01  1.86858065e-02
   1.98336225e-02  1.89603329e-01 -7.50376225e-01 -1.68789530e+00
   4.10521299e-01 -1.27269357e-01  4.72905397e-01  4.77784052e-02
   7.52772465e-02  3.60329539e-01  4.26414400e-01 -1.61822900e-01
   3.42013001e-01 -4.29309992e-04 -1.39935538e-01  1.20926492e-01
  -4.18402624e+00 -5.65116666e-02 -4.28720526e-02  1.62906200e-01
   3.64424527e-01  4.76983428e-01  2.27148846e-01 -3.39509407e-03
  -1.51816085e-02  1.43456238e-03  3.72217089e-01  3.26826960e-01
  -1.57037780e-01  1.60303742e-01  1.77844130e-02 -4.01075333e-01
  -1.78459024e+00  2.58193500e-02 -2.93039507e-03 -1.83292434e-01
  -3.24212623e+00  8.79563689e-02 -4.31887880e-02 -5.52329481e-01
   1.86270744e-01  1.25001699e-01 -7.84095973e-02 -7.11010218e-01
  -3.53362300e-02 -1.00684822e-01  8.99964198e-02 -1.21229172e+00
   2.64014542e-01 -2.11719584e+00  2.75333285e-01  1.60854608e-01
   6.31710887e-02 -6.48372412e-01 -4.92714167e+00 -1.12826861e-01
  -3.57110053e-02  2.29008812e-02  5.18030524e-02 -3.28080356e-02
  -5.50724566e-01  5.24721630e-02 -4.15045470e-01 -8.07595968e-01
  -3.63275439e-01  1.98150109e-02 -7.52299875e-02  2.58535910e-02
   5.91865182e-01 -2.47010231e-01 -5.92164136e-02  2.12371931e-03
   2.77260635e-02 -1.25502767e-02  5.21781862e-01  2.02097073e-02
   1.24527896e-02  4.16845381e-02  8.38259794e-03  3.74061018e-02
   1.08066082e-01 -3.49996835e-02  5.99425316e-01  6.26701653e-01
  -2.04380557e-01  3.97697181e-01  1.65136391e-03 -6.08014837e-02
  -1.71474442e-02  2.64601886e-01  4.88988370e-01 -1.53018877e-01]
 [-6.86854661e-01  5.21283209e-01  1.65778354e-01  1.25663042e-01
   2.87814379e-01  2.06270948e-01  5.75787984e-02 -8.62241462e-02
   6.14479482e-01 -1.84350222e-01 -7.62372196e-01 -8.25284660e-01
   8.12599212e-02 -6.14934377e-02 -6.75737977e-01  4.79663946e-02
  -1.25197351e-01 -1.85306937e-01 -5.55142090e-02  2.46909767e-01
  -4.65436541e-02  2.44564801e-01  2.15794906e-01 -3.49295110e-01
  -2.78144336e+00  2.61475354e-01 -1.47550726e+00 -8.07686746e-02
   1.80122018e-01 -1.39903295e+00  2.29970235e-02 -1.64119691e-01
   4.57754880e-02 -7.66701028e-02  6.25625923e-02  1.10551426e-02
   5.79439104e-02  6.28274903e-02 -8.14803839e-01 -9.70749021e-01
   4.08792168e-01 -3.87899250e-01  4.10149872e-01 -3.39733250e-02
   3.30380887e-01  4.92685646e-01  3.19096208e-01 -5.93398362e-02
   4.09298748e-01  5.80443591e-02  3.72963995e-01  7.57025555e-02
  -4.37452316e+00 -1.15660518e-01  1.88840386e-02 -5.10746911e-02
   2.90438294e-01  1.97492868e-01  1.58828527e-01  2.91064810e-02
  -1.41980089e-02 -5.69130713e-03  2.48921320e-01  3.49486977e-01
  -1.94085896e-01  1.41508251e-01 -3.16545308e-01 -1.10548243e-01
  -1.88086104e+00 -5.46808131e-02 -2.54119840e-02 -3.30239773e-01
  -3.00727534e+00  4.15078886e-02 -9.43710133e-02 -3.11416090e-01
   4.63073164e-01  1.24756336e-01  5.35313226e-02 -8.20290744e-01
  -2.20804010e-02 -5.26325330e-02  1.37821555e-01 -1.24078059e+00
   3.74849290e-01 -2.19794631e+00  3.19890469e-01  7.19761699e-02
   3.61292474e-02 -2.73381770e-01 -5.79760122e+00 -1.68367460e-01
  -7.95084462e-02 -4.67177816e-02 -5.10309860e-02  3.21605653e-02
  -5.71974933e-01 -2.73401141e-01 -3.37517142e-01 -8.21156442e-01
  -4.25299734e-01  7.39987940e-02 -3.08130771e-01 -5.69030419e-02
   5.07568657e-01 -3.87910932e-01  6.79226443e-02 -1.29789218e-01
  -1.15413396e-02  1.96871441e-02  3.92185807e-01  1.83361731e-02
   4.81488295e-02  9.79311578e-03  7.54279569e-02  1.84960574e-01
   1.41566634e-01 -1.67742316e-02  8.06465805e-01  5.42578638e-01
  -1.64872706e-01  1.63620025e-01  1.46837384e-02 -1.94822706e-03
  -7.75094628e-02  1.00784868e-01  4.97498393e-01 -1.54251575e-01]
 [-3.56372297e-01  4.94937867e-01  9.32237729e-02  8.99239704e-02
   2.54024744e-01  2.79371202e-01  2.18978837e-01 -1.25486469e-02
   3.32289606e-01 -5.95116615e-01 -8.57178092e-01 -1.09736931e+00
   6.05948120e-02 -1.16380461e-01 -2.68373638e-01  1.91624969e-01
  -9.14761350e-02 -1.03303134e-01 -5.41504063e-02  3.69234681e-01
  -5.45737259e-02  3.09365720e-01  1.89839348e-01 -7.22610772e-01
  -3.05749297e+00  3.12431753e-01 -1.57576430e+00 -4.08675820e-02
   1.12705685e-01 -1.41039407e+00  5.11939563e-02 -2.13255703e-01
   1.69706978e-02 -9.12298039e-02 -2.38585085e-01 -4.41096723e-02
   1.70072734e-01 -6.78316802e-02 -7.71462739e-01 -9.46012065e-02
   3.17971170e-01 -2.40003958e-01  3.31481755e-01  1.35900890e-02
   1.45415097e-01  6.18077874e-01  3.09025854e-01  1.46197490e-02
   1.84171930e-01  4.74874340e-02  7.88286686e-01  1.21742435e-01
  -3.10744238e+00  3.52734402e-02  1.81573644e-01  1.24595620e-01
   1.04298994e-01  1.52447328e-01  1.61530659e-01 -3.51586528e-02
   7.96394888e-03  6.60151150e-03  4.66034189e-02  1.43585792e-02
  -3.33582014e-01  2.56875843e-01 -4.12170142e-01 -1.04517423e-01
  -1.29417562e+00  4.95945029e-02 -4.41682674e-02 -3.35202456e-01
  -2.79822254e+00  5.67129441e-02  9.28532332e-03 -4.86699790e-01
   4.76563960e-01  7.01906234e-02 -3.51754315e-02 -1.08644533e+00
  -7.96828717e-02 -2.64674164e-02  1.64446235e-01 -1.24890697e+00
   3.78488928e-01 -2.80296230e+00  2.11509064e-01  6.11607693e-02
   8.19842294e-02 -1.68273047e-01 -5.58258152e+00 -6.96652383e-02
  -8.20698962e-02 -2.85179797e-03 -2.00649977e-01 -4.17327275e-03
  -1.98853970e-01 -3.39724243e-01 -4.00484353e-01 -9.50596511e-01
  -6.24250650e-01  9.18564424e-02 -3.45198572e-01 -5.82454726e-02
   3.60484838e-01 -2.39650369e-01  5.15543856e-02  4.35962640e-02
  -1.42063876e-03 -5.36867231e-02  1.92722544e-01 -1.33406103e-01
   2.55001476e-03 -1.57296509e-01 -5.92934852e-03  8.29464719e-02
   8.56948867e-02 -4.73945290e-02  7.17106342e-01  3.92496496e-01
  -1.72703221e-01  4.08393919e-01 -3.32615850e-03 -4.18520644e-02
  -4.85136472e-02  1.45484671e-01  4.48987603e-01 -3.67577314e-01]
 [-1.10740811e-01 -7.43859187e-02  5.86380400e-02  1.68664083e-01
   2.60154247e-01  7.63676018e-02  4.62674126e-02 -1.70251317e-02
   3.56921852e-01 -7.68597245e-01 -8.36819530e-01 -1.10457563e+00
   1.34128436e-01  2.26504654e-02 -1.38876125e-01  1.26695588e-01
  -2.93006390e-01  4.77386713e-02 -6.76113293e-02  2.33293012e-01
  -3.84069942e-02  5.02940595e-01  1.41922995e-01 -9.79358792e-01
  -3.38627768e+00  1.63050026e-01 -1.64448512e+00  2.32151500e-03
   9.98471677e-02 -8.59468818e-01 -6.05104165e-03 -1.29345536e-01
  -1.00118443e-02 -1.51813716e-01 -1.55588850e-01 -6.04576617e-02
   1.37799844e-01  3.07646692e-02 -6.51317298e-01 -7.50573218e-01
   3.44510734e-01 -3.16616327e-01  3.71515155e-01 -6.80326894e-02
   1.62575141e-01  7.28549778e-01  4.33236986e-01  3.03755969e-01
   1.70502085e-02 -4.58698487e-03  8.49293113e-01  1.36624742e-02
  -1.63706183e+00 -3.35693136e-02 -2.97867712e-02  2.79835969e-01
  -2.44537983e-02 -7.17931008e-03  1.04775585e-01  5.74422516e-02
  -5.98616190e-02 -1.80502072e-01 -7.87800476e-02  9.15640444e-02
  -5.01173854e-01  6.50566146e-02 -4.44342375e-01 -1.11528218e-01
  -8.23960841e-01 -7.40698427e-02  9.60041769e-03 -2.64041603e-01
  -1.87359571e+00 -3.96856628e-02 -8.14346224e-02 -1.22879252e-01
   7.33157635e-01  1.08066604e-01 -3.46763283e-02 -8.11510742e-01
   6.85732514e-02  1.80198234e-02 -4.80824336e-02 -1.26225984e+00
   3.21745753e-01 -2.77619004e+00  1.94312498e-01  1.16512187e-01
   2.65379008e-02 -9.58824605e-02 -6.18866634e+00  1.47730345e-02
  -6.00263439e-02 -5.44629581e-02 -9.28298011e-02 -4.73305071e-03
  -9.24014822e-02 -1.49674788e-01 -5.75443089e-01 -1.01784265e+00
  -1.05279863e+00  1.58445016e-02 -3.36977780e-01 -2.65191719e-02
   4.94886488e-01 -4.26547796e-01 -8.31589103e-02 -8.28475691e-03
   5.25463074e-02 -1.64701454e-02  1.96998864e-01 -1.17983192e-01
   1.40825135e-03 -8.69110152e-02 -3.91833782e-02  7.70267099e-02
   2.81173196e-02 -1.58711504e-02  8.45493853e-01  3.70017946e-01
  -2.33755484e-01  4.51910585e-01  7.98874907e-03  1.04246370e-03
  -1.53482496e-03  1.40346766e-01  5.43056667e-01 -4.78373706e-01]
 [-1.05967864e-01 -1.40550852e-01  1.60236895e-01  3.60153973e-01
   2.17274904e-01  6.75109699e-02  1.38459012e-01  3.01926732e-02
   1.89105645e-01 -1.17933345e+00 -6.48374021e-01 -1.35342526e+00
   1.90136090e-01 -1.04423046e-01 -5.72327152e-02  7.30653703e-02
  -2.98704565e-01  1.26502484e-01 -6.44985363e-02  3.36021155e-01
  -2.35582981e-02  3.69400173e-01  6.05341941e-02 -7.57272601e-01
  -3.11182189e+00  2.66518801e-01 -1.38590384e+00 -6.45695999e-02
   2.03689829e-01 -6.67475045e-01  3.38307947e-01 -1.28765717e-01
  -1.11048585e-02 -9.31983963e-02 -2.72169203e-01  2.76594199e-02
   9.34504941e-02 -2.26886466e-01 -5.53114235e-01 -2.27460122e+00
   3.47362131e-01 -3.74367744e-01  2.16023639e-01 -9.60051268e-02
   2.07296703e-02  6.57758355e-01  5.57265162e-01 -6.01615235e-02
  -3.73154767e-02  6.88342974e-02  6.85022235e-01 -6.03864267e-02
  -8.86529207e-01 -9.48217604e-03  1.37528077e-01  3.63018841e-01
   4.96970527e-02 -9.08324942e-02  9.06582624e-02 -9.07480624e-03
  -1.56478733e-02 -1.38613865e-01 -4.68177088e-02  2.42627770e-01
  -9.23339307e-01  2.26314500e-01 -3.77229601e-01  2.65458431e-02
  -5.81902027e-01  6.24356000e-03 -1.39378652e-01 -2.84072220e-01
  -1.66411459e+00 -1.77543029e-01 -7.82821327e-03  4.77893427e-02
   8.23513806e-01  2.26814762e-01 -2.02310458e-02 -6.83685243e-01
   1.21713191e-01  1.98101886e-02  1.22198928e-02 -1.20363712e+00
   2.94944346e-01 -2.44362855e+00  7.09927827e-02  5.36396578e-02
  -3.23182791e-02  1.16821483e-01 -5.71270323e+00  2.04153463e-01
  -6.85150921e-02 -2.21776739e-02 -2.41788283e-01  2.64320690e-02
  -5.68226092e-02 -4.17262465e-01 -7.53728151e-01 -9.45051074e-01
  -1.46676874e+00 -1.15433307e-02 -7.62356818e-02 -2.40208767e-02
   4.15633023e-01 -2.83045173e-01 -6.80563599e-02  9.55432374e-03
  -2.40875222e-03 -5.11590429e-02  9.24283359e-03 -8.39116797e-02
   4.86403219e-02  3.72714847e-02 -8.82658735e-02  2.06550900e-02
   2.33340830e-01  4.12914976e-02  4.54283565e-01  2.93223023e-01
  -5.39671369e-02  4.67175454e-01 -3.30381244e-02  6.98275352e-03
  -4.20311913e-02 -1.36465058e-02  4.46267694e-01 -4.85173792e-01]
 [-3.23991984e-01 -2.05345288e-01  1.92947865e-01  2.12150559e-01
   6.30558804e-02  1.22026034e-01  4.41636294e-01  6.35897927e-03
   4.27683070e-02 -5.66588283e-01 -5.34724951e-01 -1.64726400e+00
   1.07851170e-01  8.16073865e-02 -5.57800801e-03 -5.58599122e-02
  -8.69077630e-03  1.94647923e-01 -1.06930517e-01  2.62899607e-01
  -2.36224174e-01  2.59691328e-01 -4.12044860e-03 -2.20456883e-01
  -2.90209579e+00  1.68000489e-01 -9.94767427e-01  3.04399766e-02
   3.09943408e-01 -4.48170274e-01  3.10809016e-01 -1.31679252e-01
  -7.05883875e-02 -1.57880083e-01 -3.00853342e-01  5.91674522e-02
   2.31853038e-01 -1.30036637e-01 -6.78857207e-01 -3.43726349e+00
   4.15986985e-01 -1.43429741e-01  1.71837300e-01  3.29538807e-02
  -8.20406675e-02  8.10867727e-01  6.36237025e-01 -1.76815525e-01
  -6.10331015e-04  1.77285433e-01  9.01238799e-01  5.58666959e-02
  -2.12484404e-01  3.04544717e-03  7.26056546e-02  4.02662128e-01
  -1.12626687e-01 -1.61696598e-02  2.01268420e-01  6.90266415e-02
   4.45105024e-02  1.52543277e-01  4.61691804e-03  5.19361394e-03
  -1.89030528e+00  3.24536189e-02 -2.30875790e-01  1.62449300e-01
  -4.97328281e-01 -1.20485071e-02 -3.95279318e-01 -1.93089828e-01
  -1.38883293e+00 -1.73919097e-01 -1.47189600e-02  4.62337472e-02
   1.17721629e+00  3.84978384e-01 -1.77594915e-01 -2.55152434e-01
   2.05270685e-02  1.55218076e-02 -2.33854219e-01 -1.09954667e+00
   2.28227273e-01 -2.14194298e+00 -1.15782201e-01  1.68990657e-01
  -2.16572378e-02  1.54014528e-01 -4.90047407e+00  3.38694423e-01
   2.84466762e-02  1.01090580e-01 -2.64257997e-01  9.19820089e-03
   1.82324931e-01 -3.04020733e-01 -3.80946130e-01 -7.71425784e-01
  -2.16318679e+00 -7.74678513e-02  4.21614684e-02  5.06342128e-02
   3.28826606e-01 -6.84654340e-02  4.90436442e-02  5.79065830e-02
   2.19968390e-02 -7.13007525e-02  9.36386734e-02 -9.89491865e-02
  -7.66662136e-02  1.02177404e-01 -1.58439875e-01 -1.25262752e-01
  -6.41428232e-02 -5.19642793e-02  1.83439106e-01  1.92382514e-01
  -8.01729411e-02  2.04758719e-01 -1.49313705e-02 -7.23323524e-02
   5.43461330e-02  6.32168278e-02  5.96189201e-01 -4.19480532e-01]
 [-2.21281812e-01 -1.29290372e-01  2.88314730e-01  2.57141501e-01
  -3.17745917e-02  2.32084349e-01  4.62803334e-01  5.17572351e-02
  -5.10189347e-02 -3.11691880e-01 -3.40983003e-01 -1.69535291e+00
   2.93144714e-02  1.08035378e-01 -1.70372590e-01  1.52562568e-02
  -3.23654003e-02  1.78136677e-01  6.15204163e-02  2.07461432e-01
  -2.71514088e-01 -4.09786046e-01 -3.14332284e-02 -1.84755236e-01
  -2.36722398e+00  2.05746461e-02 -1.39483690e+00 -6.17435649e-02
   3.71562481e-01 -2.03919590e-01  4.95320022e-01 -4.55048941e-02
   4.40412425e-02 -3.67463380e-03 -3.13473642e-02 -6.69828728e-02
   4.18127567e-01 -2.40122661e-01 -7.97407389e-01 -4.34522915e+00
   3.78978461e-01  9.46310908e-02  1.31656781e-01  1.03769070e-02
  -6.78619370e-02  6.68795109e-01  2.92779416e-01 -3.78029674e-01
   2.09164340e-03 -2.56608613e-02  7.23544419e-01  2.33233228e-01
  -3.69038656e-02  3.11179180e-02  9.64817107e-02  3.17960262e-01
  -1.34621456e-01  1.35206401e-01  1.59233242e-01  1.04679786e-01
  -3.01865730e-02  7.03164712e-02  8.97697080e-03 -4.73076589e-02
  -2.75041771e+00  5.56168556e-02 -1.08248051e-02  2.86306709e-01
  -2.86517739e-01  4.44781892e-02 -6.73911214e-01  2.41471250e-02
  -6.61704183e-01 -6.89384416e-02  3.28679346e-02 -2.49061584e-02
   1.46639907e+00  7.26727843e-01 -8.66585076e-02 -2.99477428e-01
   7.20386282e-02  1.15242619e-02 -3.02365392e-01 -1.06069171e+00
   2.28480577e-01 -1.84746158e+00 -2.21486390e-01  2.09084392e-01
   5.86485639e-02  2.41202444e-01 -4.75010681e+00  1.95611939e-01
  -4.75445576e-02  1.45316079e-01 -9.02296917e-04 -3.06817740e-02
   4.57470715e-02 -2.14533880e-01 -2.93299764e-01 -1.05962980e+00
  -2.66958976e+00  5.23380116e-02  1.35672733e-01  3.26832533e-02
   2.79947847e-01 -1.87056810e-01  2.74136662e-02 -7.09179863e-02
   6.36088476e-02 -4.24500257e-02  2.91657925e-01 -1.52683780e-02
  -3.34186368e-02  1.02952980e-01 -7.87300318e-02 -1.06751382e-01
  -6.06240451e-01 -1.03752546e-01 -7.79439807e-02  1.31187811e-01
   4.14747931e-02  4.16092098e-01 -1.43311787e-02  1.20687783e-01
  -2.13915836e-02  5.63266268e-03  4.87102926e-01 -3.79710466e-01]
 [-3.59922945e-02 -5.12141660e-02  8.24215412e-02  3.62648815e-01
  -1.48661107e-01  1.74945697e-01  4.86790180e-01 -4.56572585e-02
   7.78451040e-02  3.38779576e-02 -2.51274616e-01 -2.25161266e+00
  -2.21422806e-01  1.57385886e-01 -4.07343835e-01  1.27369672e-01
  -1.70303658e-01  2.01122090e-01 -1.97174549e-02  2.21455246e-02
  -2.63299048e-01 -1.59274757e+00 -1.03928335e-01 -2.16329888e-01
  -2.10430431e+00  1.20500568e-02 -1.46954513e+00 -4.43644114e-02
   1.17522560e-01  3.88315953e-02  3.27985555e-01 -1.91683527e-02
  -6.97981790e-02 -2.37301793e-02  1.16295941e-01 -8.73190537e-03
   4.03863072e-01 -5.56656301e-01 -6.85720444e-01 -4.18185902e+00
   3.13264310e-01  6.32708669e-02  1.18308216e-01 -3.52449156e-02
  -7.16872960e-02  6.20917320e-01 -7.86994994e-02 -5.18757939e-01
  -2.18610149e-02 -1.99260116e-02  8.32825720e-01  2.28849530e-01
  -3.44243646e-01 -5.49562275e-02  1.92353502e-01  2.71004528e-01
  -1.87168475e-02  6.88574687e-02  1.66851237e-01  6.76415190e-02
  -9.85579006e-03 -8.27823281e-02 -6.21126778e-02  1.27098933e-01
  -2.57204008e+00  6.15426805e-03  1.58192337e-01  2.48002365e-01
   1.68607011e-01 -7.56044465e-05 -1.03860641e+00  1.92301884e-01
  -4.58563775e-01 -1.60229445e-01 -4.19015298e-03 -2.69005805e-01
   1.73136902e+00  8.57004464e-01 -7.28562251e-02 -3.48564029e-01
  -2.17064321e-02  1.71490625e-01 -2.47766852e-01 -9.26869929e-01
   2.35229835e-01 -2.29598069e+00 -1.75445631e-01  1.85630485e-01
  -1.32563682e-02  3.03834885e-01 -2.69817686e+00  3.66251945e-01
  -1.06192185e-02  1.36313364e-01 -2.31358469e-01  2.90036369e-02
   2.65371263e-01 -7.23393494e-03 -2.68247485e-01 -1.07410979e+00
  -2.75557780e+00  5.21427095e-02  1.95464283e-01  4.56081852e-02
   1.03312887e-01 -2.29960501e-01  9.29791853e-03  5.91196343e-02
   1.04963072e-02 -3.73667851e-02  1.93639800e-01  2.42449287e-02
   3.08133084e-02  8.45916383e-03 -2.82484412e-01  3.80366668e-02
  -6.95117235e-01 -7.13024288e-02 -4.26455975e-01  2.03751519e-01
  -1.20502323e-01  2.78720200e-01 -9.85092949e-03  2.49333456e-01
  -5.24056777e-02  7.59574845e-02  2.31457666e-01 -2.20599726e-01]
 [-1.49987563e-01 -3.55138741e-02 -4.88676429e-02  3.07122976e-01
  -1.86339259e-01  2.74366528e-01  4.80246007e-01 -6.75433576e-02
  -1.47147514e-02  2.83867836e-01 -1.21784650e-01 -3.24247384e+00
  -2.76730835e-01  2.66840667e-01 -6.54696524e-01 -5.32609373e-02
   1.22255206e-01  3.00007969e-01  7.90948793e-02 -1.35503814e-01
  -3.72401863e-01 -2.13668060e+00 -1.42876714e-01  1.44460469e-01
  -1.88633668e+00  1.18600249e-01 -1.08807111e+00  5.62061518e-02
   1.73496962e-01  2.70942543e-02  3.94444376e-01  7.77718276e-02
  -4.05864194e-02 -4.25633304e-02  7.05842152e-02 -6.86699674e-02
   4.44279015e-01 -1.04875743e+00 -5.28564513e-01 -3.53042555e+00
   4.73275185e-01  5.20541780e-02 -2.55524833e-02 -1.25720084e-01
  -4.05944809e-02  8.85341406e-01 -4.72248018e-01 -5.78770638e-01
  -3.69834318e-03  2.04466820e-01  6.80659473e-01  1.11032054e-01
  -8.38854671e-01 -2.41642222e-02  3.30410540e-01  3.35566044e-01
  -2.40020648e-01  7.66687766e-02 -2.12375280e-02  1.73114270e-01
  -4.42026667e-02 -5.77868670e-02 -9.94870514e-02  1.36587638e-02
  -1.72519624e+00 -2.80790608e-02  1.93210959e-01  2.57258922e-01
   4.71545979e-02  1.23949334e-01 -1.24396920e+00  3.29652935e-01
  -5.34234941e-01 -2.09619924e-01 -1.79998782e-02 -1.09753795e-01
   1.73494303e+00  9.44889903e-01  6.81440383e-02 -1.31940916e-01
  -4.11749445e-02  2.19340205e-01 -1.96077734e-01 -7.27305710e-01
  -1.11055672e-01 -1.54346335e+00 -2.72735864e-01  3.78520578e-01
  -1.01220854e-01  3.40513319e-01 -1.64682233e+00  2.88149297e-01
  -3.04804351e-02  1.48328379e-01 -6.04182556e-02 -5.89637421e-02
   2.01119706e-01  8.72391164e-02 -3.58179547e-02 -9.83697414e-01
  -2.65412617e+00  4.40733228e-03  1.51503369e-01 -6.38630316e-02
   8.67571682e-02 -1.01243816e-02  1.29720224e-02  3.13304476e-02
  -2.16608332e-03  9.04522371e-03  1.74507126e-01 -9.21494588e-02
   2.58942433e-02  1.67539865e-01 -1.86849788e-01  6.33586049e-02
  -1.05914128e+00  1.58849768e-02 -1.19918954e+00  8.93622637e-02
   1.14013232e-01  1.50152013e-01  6.43448904e-02  2.87150115e-01
  -2.13108920e-02  3.82347070e-02  1.37838423e-01 -5.59924804e-02]
 [ 1.04451828e-01 -1.31554306e-01 -2.62871563e-01  3.07083607e-01
  -1.02342360e-01  2.65034109e-01  6.43175900e-01 -1.21018216e-02
   2.17716508e-02  5.04755080e-01 -1.35655284e-01 -4.14715290e+00
  -3.67990911e-01  1.92833319e-01 -4.79445875e-01 -2.11705238e-01
  -6.32992061e-03  4.91126716e-01  9.11041051e-02 -6.22414276e-02
  -3.62321228e-01 -1.42592716e+00  5.08447587e-02  2.85019338e-01
  -1.70792484e+00  1.06419899e-01 -8.56032193e-01  6.40488118e-02
   2.05790132e-01  2.91077644e-01  3.22554082e-01  8.27889219e-02
  -1.65721565e-01  1.78079650e-01  2.38669261e-01  3.81595120e-02
   2.99147546e-01 -1.74247015e+00 -5.18255115e-01 -3.23817325e+00
   4.12272006e-01  1.52545795e-01 -2.68758506e-01 -8.30143243e-02
  -4.82350178e-02  7.90213287e-01 -4.38850820e-01 -6.62078977e-01
  -2.68047333e-01  1.61901429e-01  6.73289657e-01  7.43913502e-02
  -1.06283927e+00 -1.03901036e-01  1.14802316e-01  1.72045290e-01
  -1.29755095e-01  1.65169775e-01  2.04527542e-01  8.05298463e-02
  -1.98706910e-02 -9.30847079e-02 -1.90203875e-01  6.18212335e-02
  -1.16922510e+00 -1.63344573e-03  1.93392023e-01  4.31846172e-01
   1.73074484e-01  2.81189442e-01 -1.30774915e+00  3.89421940e-01
  -4.37023342e-01 -2.09900334e-01 -1.52593702e-02 -1.54661298e-01
   1.49456227e+00  7.66341090e-01 -7.82064348e-02 -2.55620807e-01
  -2.92139202e-01  1.34984795e-02 -2.40658805e-01 -5.20915806e-01
  -1.42899007e-01 -1.79613531e+00 -7.58445337e-02  3.45238030e-01
  -7.80150443e-02  4.54935104e-01 -1.06629014e+00  4.47630554e-01
   8.67116153e-02 -1.47466571e-03  3.04704607e-02 -7.00023621e-02
   2.65689582e-01  9.74226445e-02 -1.46001056e-01 -1.13275635e+00
  -1.96727967e+00  5.46420272e-03 -1.40459359e-01  1.73984393e-02
   1.89148337e-01 -8.88291299e-02  3.43904309e-02 -9.11286846e-02
  -8.04196671e-02 -3.34472731e-02  2.66556650e-01  1.78885330e-02
  -1.50662363e-02  1.79661334e-01 -2.18246400e-01  1.57284126e-01
  -1.56524479e+00 -2.83886190e-03 -2.84106278e+00  5.43100424e-02
   3.89067158e-02 -6.46481712e-05  1.19273169e-02  3.97138029e-01
  -1.52680036e-02  1.07423469e-01  1.57589227e-01 -1.85641989e-01]
 [ 1.59805894e-01  4.36489955e-02 -5.53457141e-01  3.61689746e-01
   9.26901866e-03  1.85776606e-01  6.10707998e-01 -1.33303609e-02
   8.16186741e-02  7.57022619e-01  1.97348855e-02 -3.99372458e+00
  -5.81388474e-01  3.22523326e-01 -4.68307287e-01 -7.32161701e-01
   6.08691201e-02  6.47837937e-01  3.58007103e-02 -2.01072082e-01
  -4.35243368e-01 -1.32383430e+00  1.17652126e-01  2.71610230e-01
  -1.75985885e+00  7.21819177e-02 -8.98706555e-01 -2.59241499e-02
   4.02451217e-01  4.75634933e-01  2.68441677e-01 -1.28008481e-02
  -6.89997226e-02  1.53352886e-01 -1.16120785e-01 -4.88382839e-02
   2.95779347e-01 -1.45512462e+00 -4.42333072e-01 -2.80062771e+00
   4.17030573e-01  1.09750159e-01 -3.37211579e-01 -1.26153678e-01
  -1.42621502e-01  7.65337467e-01 -3.86822462e-01 -9.26395059e-01
  -7.08708405e-01  5.57893477e-02  4.78874207e-01  1.10754117e-01
  -1.27583909e+00 -1.01678921e-02 -1.43081797e-02  1.36513785e-01
  -2.97904313e-01  2.66092122e-01  3.35883766e-01  2.13228077e-01
  -2.61674159e-05 -4.72003222e-02 -3.53420943e-01  1.63331926e-01
  -1.01619530e+00 -3.31528395e-01  1.44164026e-01  6.02592051e-01
   3.92211601e-03  1.31518245e-01 -1.42621350e+00  3.12676698e-01
  -1.35267243e-01 -2.68337309e-01  6.67543486e-02 -1.20417178e-01
   1.21578288e+00  2.40525335e-01 -3.04500073e-01 -2.05965385e-01
  -3.59014332e-01  4.10105400e-02 -3.10608745e-01 -4.53455985e-01
  -2.41711169e-01 -1.77870059e+00 -1.48183964e-02  3.26248497e-01
  -6.02968298e-02  5.58242977e-01 -6.12915337e-01  3.96479189e-01
  -3.09568215e-02  1.05894610e-01 -8.10617432e-02 -5.42109162e-02
   2.61276096e-01  6.06514104e-02  7.14468881e-02 -9.41792071e-01
  -2.01762390e+00 -5.98070361e-02 -1.63927764e-01  7.22998455e-02
   4.09561247e-01 -1.98412359e-01  1.50495498e-02  3.62631306e-02
  -3.38880643e-02  5.23211434e-02  1.26280352e-01  5.28900661e-02
   4.06131484e-02  1.60712212e-01 -3.74161571e-01  1.80995539e-01
  -1.83435309e+00 -5.10946810e-02 -4.82442665e+00  1.98114306e-01
  -3.24619678e-03  7.90436193e-02  4.95844558e-02  3.04733187e-01
   5.58258332e-02 -2.20781658e-02 -2.48456951e-02 -4.28512134e-02]
 [ 3.11032608e-02  1.23213604e-01 -1.01486492e+00  2.40160033e-01
  -1.05001315e-01  7.53157437e-02  4.56471056e-01 -2.54241899e-02
  -1.79616243e-01  5.02686918e-01 -2.05676362e-01 -3.41457629e+00
  -5.74585557e-01  2.14271583e-02 -4.48505461e-01 -1.31188381e+00
   1.54291615e-01  4.44620878e-01  9.32137743e-02 -1.44146532e-01
  -3.22881371e-01 -1.57641447e+00  1.69292167e-01  3.78625453e-01
  -1.95585680e+00  2.23178938e-01 -1.02576077e+00  3.01514305e-02
   3.88937354e-01  2.75203437e-01  2.82977134e-01  2.50422619e-02
   1.72706604e-01  1.26477540e-01 -2.34254211e-01 -2.89065931e-02
   4.41271961e-01 -8.66656244e-01 -3.91040325e-01 -2.46830082e+00
   5.70992827e-01  1.19849637e-01 -2.91281968e-01 -1.26914710e-01
  -3.57499391e-01  5.09927273e-01 -2.10002825e-01 -1.02229023e+00
  -7.78317034e-01 -8.48956779e-02  4.42652106e-01  2.79271901e-01
  -1.20583582e+00  2.19292432e-01 -4.87677231e-02  1.31179735e-01
  -2.23805815e-01  2.15531990e-01  1.38210967e-01  1.00281224e-01
  -2.05439366e-02  2.70863157e-02 -1.96624979e-01  1.27164632e-01
  -1.31808162e+00 -2.39651605e-01  1.22136801e-01  7.46478736e-01
  -1.81100680e-03  2.06527799e-01 -1.79880023e+00  2.22339451e-01
  -5.11210084e-01 -2.70799309e-01  2.22220570e-02 -2.58410871e-01
   1.11195779e+00  8.62926170e-02 -6.12713218e-01 -5.97533397e-02
  -5.34759939e-01 -7.29236146e-03 -2.46014506e-01 -4.23708558e-01
  -2.06457853e-01 -1.68698347e+00 -1.63431376e-01  3.04477870e-01
   3.03024296e-02  4.88926500e-01 -6.57007337e-01  3.38979870e-01
  -4.14643772e-02  1.07954368e-01 -1.05277359e+00 -1.44248074e-02
   3.87681842e-01 -9.23494622e-02 -2.77992934e-02 -8.20002854e-01
  -1.65652215e+00  1.07774891e-01 -8.64406899e-02  9.70417261e-03
   4.80262965e-01 -7.85637125e-02 -2.02436838e-02  2.60854393e-01
  -3.62265445e-02  1.98089313e-02  2.16106877e-01 -1.53555283e-02
  -1.28831435e-02  1.00468419e-01 -3.36572766e-01  1.00708745e-01
  -1.48675120e+00 -1.05290823e-01 -6.47940397e+00  2.34224230e-01
   1.79594725e-01 -1.95172690e-02  3.36102843e-02  4.14955735e-01
  -5.20569049e-02 -1.94993168e-01  2.65907869e-02  4.57601212e-02]
 [-2.09670365e-01  3.32110316e-01 -2.42664814e+00  2.38389909e-01
  -4.86959755e-01  2.20456719e-01  1.98934630e-01  5.07451259e-02
  -5.57329297e-01  3.21923465e-01 -3.02369386e-01 -3.37779999e+00
  -7.18505681e-01 -3.08981538e-01 -1.02636471e-01 -1.96887517e+00
   3.54586393e-01 -1.42459691e+00  1.05191678e-01  1.86618716e-01
  -3.72096062e-01 -1.30807269e+00  4.02384728e-01  5.75480223e-01
  -2.10460997e+00  2.37610415e-01 -7.50143230e-01 -8.10529441e-02
   3.01563799e-01  3.63815963e-01  2.29842946e-01 -5.71786501e-02
   1.01319179e-01  3.48275036e-01 -7.02146292e-02 -9.66759250e-02
   1.15552031e-01 -5.28069317e-01 -4.06450719e-01 -2.05783820e+00
   6.73880935e-01 -3.32695222e-03 -7.42254481e-02 -6.93626925e-02
  -5.50626874e-01 -3.20361629e-02 -3.84106100e-01 -1.36275661e+00
  -8.82515013e-01 -9.16312113e-02  8.99294391e-02  1.75928578e-01
  -9.83696342e-01  2.21821949e-01  7.74901286e-02  2.53783520e-02
   4.59078476e-02  1.19218931e-01  1.07687518e-01  8.09587240e-02
  -2.30889451e-02  2.16241881e-01  6.59286305e-02  2.04681128e-01
  -1.37314212e+00 -2.57854074e-01 -4.62975949e-02  8.65902543e-01
  -1.49363250e-01  3.77460659e-01 -2.44195914e+00  3.61563824e-02
  -1.94213942e-01 -3.29171121e-01 -6.17831349e-02 -3.45485508e-01
   1.48597789e+00 -2.96729505e-01 -1.07764614e+00  1.78774133e-01
  -5.10342419e-01 -2.13357121e-01 -2.32882693e-01 -3.44714522e-01
  -2.35940546e-01 -1.47371459e+00 -3.99955392e-01  3.74800116e-01
  -9.35557112e-02  4.90499467e-01 -6.59960032e-01  4.65033650e-01
  -3.66187803e-02  2.85970509e-01 -1.55423498e+00  4.05943468e-02
   3.04858118e-01 -1.08579189e-01 -7.07407743e-02 -9.72800553e-01
  -2.29186678e+00  2.66336232e-01 -1.19823888e-01 -5.17528281e-02
   5.23612797e-01 -1.89836890e-01 -6.21077046e-02  1.25365674e-01
   4.42114957e-02 -5.33475019e-02  2.60865420e-01  1.72225647e-02
  -9.04272497e-02  1.74502388e-01 -6.05663061e-01  1.03695966e-01
  -9.99474823e-01 -3.18280086e-02 -6.61007833e+00  1.17838629e-01
   3.70742083e-01  2.69701313e-02 -2.35423669e-02  5.57931304e-01
   2.52345074e-02 -6.32764459e-01  2.06989214e-01  2.39422187e-01]
 [-4.81419653e-01  5.16186468e-02 -5.57607841e+00  4.03852969e-01
  -1.06511223e+00  2.12705925e-01  1.66216433e-01 -4.82361987e-02
  -1.29317176e+00  1.81381419e-01 -6.94053829e-01 -4.03907108e+00
  -8.66308570e-01 -5.15566587e-01  2.99929619e-01 -3.36328387e+00
  -1.04744315e-01 -5.22467327e+00  1.59141362e-01  3.20268750e-01
  -2.22304165e-01 -1.54943037e+00  4.72812146e-01  8.33699644e-01
  -2.29477429e+00  2.98777044e-01 -7.86444545e-01  2.79766824e-02
   1.44174770e-01  5.42395711e-01 -1.18145369e-01  8.94326791e-02
   4.88090962e-02  4.12566930e-01 -3.01922381e-01  1.21602993e-02
  -5.80828488e-01 -2.45063812e-01  1.55877829e-01 -1.65368497e+00
   1.31812781e-01 -3.21290791e-01 -2.75937617e-01 -2.71005165e-02
  -6.23989582e-01 -9.89134431e-01 -7.00165689e-01 -1.44731247e+00
  -1.15103328e+00  6.89232171e-01 -3.38477701e-01  1.23758703e-01
  -4.63668942e-01  1.53685480e-01  2.17332557e-01 -2.63787687e-01
   3.22378337e-01 -2.86215365e-01  3.25635165e-01  1.61067992e-01
  -1.07366450e-01  5.04056752e-01 -2.65046865e-01  3.05440187e-01
  -1.74563360e+00 -6.70559287e-01 -3.82024758e-02  7.11491644e-01
  -7.62080476e-02  5.76477766e-01 -3.21832156e+00  3.32604110e-01
   1.62475377e-01 -1.00905351e-01 -5.29804491e-02  5.10180444e-02
   1.95260930e+00 -2.31712389e+00 -9.78265047e-01 -5.17717227e-02
  -6.11831963e-01 -3.11683834e-01  3.28713767e-02 -9.47770476e-01
  -5.62262051e-02 -1.39849854e+00 -3.76362920e-01  2.15867132e-01
  -1.64175201e-02  4.96668071e-01 -1.05404162e+00  1.28211665e+00
  -1.04773700e-01  7.06840932e-01 -1.77927387e+00  2.50494275e-02
   8.13577771e-01  5.58365472e-02 -9.47966129e-02 -1.26358724e+00
  -2.72333837e+00  1.38162896e-01  1.78547144e-01  4.99222204e-02
   4.38556135e-01 -1.22669198e-01 -6.90163597e-02 -1.83520108e-01
   5.38735697e-03 -6.92978501e-02  6.40277088e-01 -3.99976037e-02
  -3.40435654e-02  6.11807644e-01 -1.08809268e+00  5.74969709e-01
  -5.29509723e-01  8.49231333e-03 -5.87901688e+00  2.29454324e-01
   7.68204212e-01 -4.31123734e-01 -5.48465587e-02  6.87924445e-01
   7.75251025e-03 -1.35470974e+00  3.84213150e-01  1.91013411e-01]
 [-2.51559228e-01 -7.90283903e-02 -7.09237635e-01  8.13962445e-02
   4.85552400e-01  1.85865998e-01 -6.30136430e-02  5.56902923e-02
  -5.05932152e-01 -1.60638452e-01 -6.32818416e-02  3.31662685e-01
  -7.11634874e-01  3.08632791e-01  7.32176960e-01 -2.22269344e+00
   6.02179945e-01  3.68809104e-01 -9.38848108e-02 -3.37778240e-01
   4.89427209e-01 -8.25641692e-01  1.79075181e-01  3.37597914e-02
   8.02798569e-01  2.29874790e-01  6.16022110e-01  9.02664289e-03
  -1.67670131e+00 -1.62048921e-01 -4.15402460e+00 -1.15358829e-01
  -3.73331368e-01 -4.17529076e-01 -1.63318634e-01  7.59145617e-03
   4.94611681e-01  7.36221135e-01  6.52414337e-02  3.83076854e-02
  -4.91057724e-01  2.68243343e-01 -1.74675798e+00  1.18615087e-02
  -6.74700320e-01  2.56195188e-01  3.38756382e-01 -1.08677847e-02
   6.60243392e-01 -4.96739388e-01 -8.26608539e-01 -2.71518975e-01
  -8.82177413e-01 -1.94775805e-01 -8.31077278e-01 -1.04601586e+00
   5.52205965e-02 -1.06025331e-01 -1.79380727e+00 -4.97130044e-02
   2.73440443e-02  1.27208933e-01 -5.68096256e+00 -2.70922899e-01
  -9.29478277e-03 -2.30706319e-01 -4.33491208e-02 -4.55807328e-01
  -1.29222929e+00  5.37822545e-01 -6.57568157e-01 -1.07360399e+00
   3.78481974e-03 -1.19645536e-01 -3.69031280e-02  2.41237447e-01
   1.12381601e+00 -4.39848542e-01 -4.78113383e-01 -2.10597873e+00
  -2.56329179e-01  5.55341039e-03 -3.05773526e-01 -9.61160421e-01
  -2.83130312e+00  7.07000256e-01 -3.09657305e-01 -9.63688567e-02
  -7.89246522e-03 -3.13816357e+00 -9.41776931e-01  3.57862294e-01
   1.29856290e-02 -6.73109114e-01 -1.03948429e-01 -9.33521986e-03
   2.15704709e-01 -4.22755675e-03 -5.48971519e-02 -3.70857157e-02
  -1.49748057e-01 -1.57243192e+00  3.21234107e-01  1.10196434e-02
  -2.88088292e-01 -1.38644790e-02 -7.21235573e-02  6.84772953e-02
   1.66264400e-02  4.39653210e-02 -2.20015001e+00 -5.43751270e-02
  -7.23374709e-02 -1.49990693e-01 -3.07885480e+00 -8.88172984e-01
  -4.36527580e-01  2.21683774e-02 -4.11663294e-01 -1.50472486e+00
   3.21417391e-01 -9.12583113e-01  1.25208851e-02  4.70518947e-01
   2.80338712e-02 -6.50346994e-01 -4.24457610e-01 -5.69467127e-01]
 [ 2.71380335e-01  2.09660851e-03 -5.50565422e-01  2.37029549e-02
   1.66057512e-01 -9.02267322e-02 -8.32194164e-02  9.62405875e-02
  -4.92382884e-01 -1.05944518e-02  1.06470086e-01 -5.64068146e-02
  -6.67419493e-01  3.61920208e-01 -1.30019888e-01 -2.38915062e+00
   3.60586017e-01 -1.28394604e-01 -5.52147254e-02 -1.45975485e-01
   8.91787171e-01 -6.21836007e-01  4.84968200e-02 -7.99929649e-02
  -1.40913665e-01  3.09825152e-01  1.44879341e-01 -5.69300354e-02
  -9.37745512e-01 -1.30941287e-01 -1.55366993e+00 -5.78722022e-02
  -2.68103600e-01 -5.78086674e-01 -3.44563335e-01  1.68716144e-02
   4.02347110e-02  4.25073266e-01  1.98277622e-01 -9.42881629e-02
  -1.37578711e-01  1.92646354e-01 -6.47841871e-01 -7.72093311e-02
  -6.08290076e-01 -1.34902537e-01  2.31073629e-02 -2.86175847e-01
   1.82737619e-01 -1.02685548e-01 -3.01620394e-01  3.60687859e-02
  -3.48265022e-01  6.34777769e-02 -5.95483303e-01 -8.13921154e-01
   9.20858532e-02  1.33331463e-01 -1.16616333e+00 -1.50116324e-01
  -9.31358710e-02  8.37584883e-02 -4.51763535e+00 -1.12059034e-01
   5.73142804e-02  1.56102851e-02 -2.69054979e-01  1.34559348e-01
  -1.10479832e+00  3.44295114e-01 -2.22753972e-01 -6.63804650e-01
  -2.82173038e-01  7.32408650e-03 -7.74242654e-02  2.27892205e-01
   4.64891285e-01  2.71966569e-02 -1.74112111e-01 -1.66869748e+00
   9.27208960e-02  1.81969181e-02  3.01381834e-02 -3.63337338e-01
  -2.73495507e+00  3.86384159e-01 -1.90854222e-01  1.24262078e-02
  -3.77992466e-02 -2.75091600e+00 -4.82502550e-01 -3.55011001e-02
   5.51881529e-02  2.54976243e-01 -8.27991664e-02 -8.44414085e-02
  -5.99984378e-02 -3.72412475e-03  3.42778444e-01  5.89362681e-02
  -4.70511317e-01 -5.24658740e-01 -1.61580503e-01 -9.92879868e-02
  -3.39017034e-01 -1.13259196e-01  1.46583347e-02  1.10023201e-01
   7.15830997e-02  5.69989271e-02 -9.17014718e-01 -5.19408993e-02
  -3.11030615e-02  4.54660915e-02 -1.79521096e+00 -5.54569662e-01
  -1.94921374e-01  1.86168998e-02 -3.62363815e-01 -1.67340708e+00
   5.79463020e-02 -8.12918782e-01 -2.47371718e-02  2.56304085e-01
  -4.48205546e-02 -4.01415884e-01 -1.31007969e-01 -3.71453524e-01]
 [ 3.58313054e-01  4.10016626e-02 -3.77195567e-01 -2.01673228e-02
   1.99875161e-01 -1.56747550e-01 -1.28132990e-02 -1.86948646e-02
  -2.50310987e-01  6.09707013e-02  1.43336639e-01 -9.52832848e-02
  -3.68920892e-01  1.62816331e-01 -4.47044492e-01 -2.04064703e+00
   3.30763131e-01 -1.72504485e-01 -1.29322991e-01 -1.69374105e-02
   5.21848023e-01 -5.90353727e-01  8.71955324e-03 -2.80580133e-01
  -1.02261722e-01  1.19369455e-01  4.82231453e-02  4.85031120e-02
  -3.78957242e-01 -4.51605283e-02 -9.40210819e-02 -7.24561661e-02
  -1.64583892e-01 -4.87198383e-01 -1.22028505e-02 -1.80677101e-02
  -8.69980007e-02 -4.05615658e-01  1.43515646e-01 -2.23244712e-01
  -1.60424232e-01  1.51707754e-01 -1.35803342e-01  1.02814427e-02
  -7.33286142e-01 -1.49397766e-02  7.41015896e-02 -2.73365110e-01
   1.01579823e-01 -1.42678663e-01 -9.94305536e-02  8.69899057e-03
  -2.11148366e-01  1.33611768e-01 -2.50246078e-01 -3.52134079e-01
   9.85185653e-02  1.78985178e-01 -6.50962472e-01 -5.81623986e-02
  -4.32503968e-02  1.55651435e-01 -3.43494439e+00  9.95185599e-02
   2.24008113e-01 -2.35451251e-01 -1.85151815e-01  2.07700342e-01
  -1.22667205e+00  2.84560740e-01 -7.83606768e-02 -6.34781778e-01
  -1.19368005e+00  3.51418592e-02 -1.23087885e-02  2.59187788e-01
   2.24111304e-01  4.64957580e-02 -3.18748206e-02 -7.18102992e-01
   1.83321893e-01 -1.11620858e-01  1.23693477e-02 -3.60639960e-01
  -2.79198337e+00  1.20891586e-01 -1.31304681e-01  3.10336407e-02
  -4.68349978e-02 -2.49977446e+00 -4.40557837e-01  3.42870392e-02
   1.02880253e-02  4.25235897e-01  3.79300416e-02 -3.38168629e-02
  -6.50443956e-02  6.97357580e-02  2.07359552e-01  2.79057473e-01
  -1.88355654e-01 -2.49198511e-01 -9.30268094e-02 -5.07831294e-03
  -1.11234814e-01 -3.51196565e-02 -3.69534567e-02 -2.19256934e-02
   8.01919610e-04  4.54841852e-02 -3.65913212e-01  9.05952603e-03
   2.54854020e-02 -1.05873182e-01 -1.37764645e+00 -2.86140263e-01
  -6.19456843e-02 -3.45133655e-02 -2.34959722e-01 -1.40747631e+00
  -1.65292338e-01 -9.57956314e-01  7.33238608e-02 -6.73121661e-02
  -5.99657893e-02 -3.09532285e-01  9.18576047e-02 -4.82182503e-01]
 [ 3.59577149e-01  3.85468267e-02 -2.36388966e-01  7.50800818e-02
   1.49973467e-01 -1.26800509e-02  7.59201199e-02 -7.23481039e-03
   1.33309485e-02  1.39250055e-01  6.04188293e-02  1.29226055e-02
  -2.28748828e-01  2.81714257e-02 -1.13223124e+00 -1.57068586e+00
   3.60074103e-01 -1.61453873e-01 -6.14438355e-02  8.32088217e-02
   5.76131225e-01 -8.20719063e-01 -5.79049140e-02 -1.71332598e-01
  -4.84635010e-02  2.48505995e-01  6.81352764e-02 -3.26816142e-02
  -1.43859893e-01 -4.38897848e-01 -6.24190830e-02 -1.80876166e-01
  -1.65838540e-01 -2.78860092e-01 -1.59918115e-01  5.35818152e-02
   7.49576539e-02 -5.58398008e-01 -1.02564201e-01 -5.96479714e-01
  -1.58687875e-01  2.88283318e-01 -1.27057329e-01 -9.85301733e-02
  -5.57656884e-01  1.12398878e-01 -1.01305433e-02 -1.34591669e-01
  -1.00066196e-02 -6.98965266e-02 -5.14868386e-02 -4.28235307e-02
   1.11363024e-01  5.07506132e-02  1.42394319e-01 -2.83264488e-01
   6.68115914e-02  1.42758802e-01 -3.51616472e-01 -5.89383580e-03
   4.51631844e-02  5.52113503e-02 -3.60852027e+00 -3.80262285e-02
   1.49880856e-01 -1.63355768e-01 -2.77184546e-01 -1.44495070e-01
  -1.29885304e+00  2.39325523e-01 -8.04266632e-02 -7.21831203e-01
  -1.72904909e+00  2.05551665e-02  2.88702250e-02  3.12436074e-01
   3.11344087e-01 -1.39794707e-01 -7.21341139e-03 -6.04166277e-02
   6.90328479e-02 -2.51092445e-02  1.82357252e-01 -3.64830017e-01
  -3.15723634e+00 -5.63083351e-01  1.00908682e-01 -8.68411884e-02
   2.25654338e-02 -2.12681842e+00 -2.54313499e-01  1.33045569e-01
  -1.89459492e-02  5.75192869e-01  6.30797818e-02 -1.47258984e-02
  -7.94385225e-02 -3.92821766e-02  7.18601868e-02  2.64960140e-01
  -3.75101343e-02 -1.23919979e-01 -2.14628607e-01 -7.34635442e-03
  -1.58615291e-01  1.62594598e-02  6.07084744e-02  7.88895860e-02
  -2.63284966e-02 -3.09458394e-02  7.31816441e-02  4.61683348e-02
   5.46810701e-02 -2.12630555e-01 -7.51251101e-01  7.02173682e-03
  -2.03994706e-01 -6.39818981e-02 -1.33345097e-01 -7.83138752e-01
  -7.68753961e-02 -6.08694196e-01  1.07820509e-02  6.38110563e-02
  -1.29494714e-02 -1.72510386e-01  1.93739846e-01 -8.15249383e-01]
 [ 1.77789882e-01  1.53744698e-01  1.92698479e-01  1.11489475e-01
   2.74053186e-01 -7.37496763e-02  4.99598905e-02 -5.92028685e-02
  -1.84771091e-01 -2.29648933e-01  1.69644862e-01 -4.70975861e-02
   4.58065681e-02 -5.93902543e-02 -2.47416186e+00 -3.21795017e-01
   3.99037778e-01 -2.61230618e-01 -1.17413536e-01 -3.87800559e-02
   5.56526601e-01 -1.16536939e+00  7.29438066e-02 -1.42300874e-01
   1.05904259e-01  1.43105164e-01  1.24341860e-01 -2.79334001e-03
  -2.68988088e-02 -1.09522951e+00 -7.76394531e-02 -1.48734480e-01
   3.49967815e-02  2.04054058e-01 -2.67569721e-01  3.08401734e-02
  -6.91029653e-02 -1.00213766e+00 -2.42056623e-01 -2.69287372e+00
  -1.23349577e-01  1.00963138e-01  1.14529952e-01 -1.23970635e-01
   1.95455849e-02  2.05829382e-01  5.73836751e-02 -5.21430001e-02
  -6.18748553e-03 -1.86866056e-03 -4.04881209e-01  6.60257414e-02
   2.48110116e-01  4.04083543e-02  8.91294405e-02 -1.12768635e-01
   1.02804512e-01  1.29171029e-01 -1.82001472e-01  1.26293581e-02
   2.86411121e-02  2.67893001e-02 -3.23965216e+00  2.33815126e-02
   1.29096881e-01  1.83420423e-02 -2.52271920e-01 -2.87951112e-01
  -1.26035905e+00  9.55495536e-02 -2.19171569e-02 -4.25519407e-01
  -1.98344684e+00 -1.09202266e-01 -9.09792781e-02  4.29473072e-01
  -4.31511775e-02 -1.34623721e-01 -3.39264423e-02  5.01546599e-02
   1.55748455e-02  1.01356387e-01  2.01507434e-01 -5.64968288e-01
  -3.71203327e+00 -8.31068456e-01  1.80101007e-01 -2.07161874e-01
   7.83655569e-02 -1.71170640e+00 -1.97427068e-03  3.65363181e-01
  -2.24271286e-02  2.83037961e-01  1.41495198e-01 -4.07026596e-02
  -2.30185226e-01  1.47206075e-02  1.72385201e-01  4.31683600e-01
  -6.81571737e-02 -1.01785719e-01 -2.37196311e-01 -7.41071850e-02
  -1.00761019e-01 -2.15648748e-02  6.97137192e-02  9.54800919e-02
  -7.38840327e-02  4.75286273e-03  2.30166405e-01  5.48717156e-02
   1.66080911e-02 -1.59633249e-01 -2.24204764e-01  5.14583364e-02
  -8.83135870e-02 -4.00502160e-02 -2.55391687e-01 -5.02070069e-01
   8.48280191e-02 -5.92558563e-01 -4.60597463e-02  5.95001094e-02
  -1.30504947e-02 -1.02594696e-01 -4.29203510e-02 -9.95473444e-01]
 [ 2.86471158e-01  1.41463578e-01 -1.83233812e-01  2.85308547e-02
   6.79913163e-02 -7.28844479e-02 -1.76965492e-03 -2.30099354e-03
  -9.65571031e-02  3.32143724e-01  4.93749008e-02  5.44473063e-03
   2.66066641e-01 -1.55319395e-02 -3.86158538e+00 -1.73896387e-01
  -1.80637062e-01  4.08104248e-02  3.99643071e-02  8.48491266e-02
   4.01795924e-01 -1.19904590e+00 -1.02969140e-01 -1.73003022e-02
   9.49289426e-02  1.52053922e-01  1.88938584e-02 -8.02857131e-02
   1.08782902e-01 -2.11439538e+00 -9.25898328e-02 -1.44165739e-01
   6.42100498e-02  1.80568755e-01 -2.71749109e-01 -4.81612161e-02
  -3.61600779e-02 -1.09607053e+00 -2.94210821e-01 -4.40579462e+00
  -1.05156004e-01  7.20112547e-02  2.10037246e-01 -7.54817650e-02
  -1.47819221e-01  1.27880871e-01  2.04850659e-01 -1.12184267e-02
   7.11540654e-02 -1.34245530e-01 -8.94879580e-01  1.05691291e-01
   4.69401836e-01  6.06029071e-02  2.64865048e-02  1.33995384e-01
   4.62509431e-02 -3.19150239e-02  3.00388951e-02 -9.77112949e-02
   4.39253189e-02  3.36427987e-02 -1.82056224e+00 -7.24807456e-02
   1.16264299e-01  2.45450869e-01 -1.85374767e-01 -1.54296651e-01
  -9.88810837e-01  9.45038497e-02 -6.73425719e-02 -1.12713799e-01
  -2.34955645e+00  7.61718452e-02 -6.72182664e-02  3.01937044e-01
  -1.88014939e-01 -6.63698390e-02  1.87357739e-01  4.11481023e-01
  -3.24944295e-02 -1.65288895e-02  1.65897116e-01 -5.15375495e-01
  -3.89815283e+00 -1.31824386e+00  1.92722917e-01 -1.63791671e-01
   2.61603016e-02 -1.54750133e+00  2.75415136e-03  2.51924753e-01
  -8.15310106e-02  2.95029461e-01  6.37552440e-02 -8.46169442e-02
  -2.20228046e-01 -2.53618676e-02 -5.81319928e-02  1.37124404e-01
  -3.31649482e-01 -2.40426436e-01 -2.24676162e-01  8.00759569e-02
  -2.05869943e-01  1.01598278e-01 -2.31126603e-02  8.17525983e-02
  -5.46637475e-02  5.82668409e-02  1.55244723e-01 -9.29477215e-02
   9.35999677e-03 -9.14520677e-03  8.59784707e-02 -1.37310736e-02
  -3.03906705e-02  1.57027058e-02 -2.26989016e-01 -4.27938551e-01
   1.38739690e-01 -4.42988306e-01  3.32590863e-02  3.23730797e-01
   2.08503995e-02  3.27905267e-02 -1.66147083e-01 -1.44765091e+00]
 [ 2.59139359e-01  1.38128802e-01 -1.67260990e-01 -1.85612470e-01
   1.90894559e-01  8.19502026e-02 -1.72530398e-01 -9.60129574e-02
  -7.39039406e-02  2.20998198e-01  6.73565222e-03 -2.68993061e-02
   1.11211903e-01  3.28523852e-02 -4.31593847e+00 -3.46755236e-01
  -1.18982412e-01 -6.35296255e-02 -2.08501145e-02  2.88392365e-01
   4.90633458e-01 -9.99460697e-01 -5.80505170e-02  1.11418098e-01
   1.40334526e-02  1.64996460e-01  2.00364925e-02  2.54706442e-02
   1.63044006e-01 -2.31919169e+00 -8.39118063e-02 -1.42829999e-01
  -7.81469047e-02  7.93266967e-02 -2.66681314e-01 -1.08534679e-01
  -8.67372900e-02 -6.33336663e-01 -2.34805837e-01 -5.04679775e+00
  -7.57178590e-02  8.35824683e-02  3.10880959e-01 -1.27518147e-01
  -9.96111333e-02  1.38497977e-02  1.60362452e-01  2.47130662e-01
   2.83462442e-02 -3.44789885e-02 -1.65151882e+00 -4.55802679e-02
   6.68113410e-01 -3.29514146e-02  1.32811025e-01  2.79372633e-01
   2.03361828e-02  2.01130994e-02 -1.21028028e-01 -1.19218588e-01
  -5.47677502e-02  1.02917634e-01 -6.26199663e-01 -5.39571652e-03
   4.68438640e-02  1.34339437e-01 -8.18168893e-02 -1.63680930e-02
  -6.55662596e-01  8.32889974e-02 -7.42607489e-02 -1.79531723e-01
  -2.36331773e+00  5.95967509e-02  3.78720574e-02 -1.81098074e-01
  -3.53751659e-01 -9.25081223e-02  1.73601896e-01  3.65490794e-01
   8.79005566e-02 -7.50072300e-02  7.92796686e-02 -4.90815669e-01
  -3.52475667e+00 -1.43556416e+00 -7.75371492e-03 -4.16141935e-02
   3.25814895e-02 -2.13649082e+00 -1.29897922e-01  1.06298454e-01
   6.85912222e-02  9.79651660e-02  6.72297627e-02  1.32539673e-02
   1.57683156e-02  1.15176208e-01 -1.68548301e-01 -1.53346937e-02
  -3.73338312e-01 -9.48745534e-02 -1.19124100e-01  4.42980006e-02
  -1.82783697e-05  8.89310986e-02  7.04300124e-03  1.43756360e-01
  -5.93623891e-02  1.23967258e-02  2.77126342e-01 -3.88134867e-02
  -8.36938769e-02 -3.60588655e-02 -1.11501375e-02  1.84008315e-01
  -1.19423896e-01 -3.57468729e-03 -1.19268127e-01  1.31211862e-01
   1.51085809e-01 -4.50044841e-01  4.50026169e-02  2.90402174e-01
  -2.50035077e-02 -1.54411599e-01 -5.41378781e-02 -1.75680161e+00]
 [ 8.39550123e-02 -1.56378120e-01 -4.92165148e-01 -1.28078416e-01
   1.06520168e-01 -4.65732999e-02 -1.46431038e-02 -2.08467804e-02
  -9.99368802e-02  2.66283602e-01  1.37460932e-01  3.95675525e-02
   9.16564539e-02  1.16275623e-01 -4.39284086e+00 -3.65501679e-02
   1.79244757e-01  1.22866742e-01 -7.62047470e-02  1.42395571e-01
   5.14575958e-01 -8.40095952e-02 -1.88055020e-02  9.20957923e-02
   2.85410851e-01  9.23964679e-02 -6.48903940e-03 -3.14498879e-02
  -9.81203690e-02 -2.79877281e+00  3.35303717e-03 -6.64430633e-02
  -1.25311151e-01 -7.04318434e-02  5.74851334e-02 -9.56496596e-02
  -8.66971314e-02 -3.20508808e-01 -1.98173866e-01 -5.93645573e+00
  -1.49088586e-02  2.06651241e-01  2.90110230e-01  2.73022670e-02
   7.29489625e-02  2.43757442e-02  2.05141127e-01  2.22005486e-01
   6.59953579e-02  5.63576296e-02 -2.34960151e+00 -2.39643641e-02
   1.04883182e+00  2.28407547e-01 -3.11969947e-02  4.83706705e-02
  -6.87312856e-02 -8.92091691e-02  7.44066993e-03 -2.78901234e-02
  -3.72390114e-02  1.74256980e-01 -3.24832022e-01  8.46939608e-02
   8.22837800e-02 -9.23847780e-02  2.02789297e-03  5.20867184e-02
  -8.37474167e-01  5.46610765e-02 -2.43530404e-02 -2.12471679e-01
  -2.31575775e+00  1.03533424e-01 -1.29958354e-02 -1.92769244e-01
  -4.45234299e-01 -3.31481770e-02  3.76780182e-02  2.20519558e-01
  -4.33281437e-02  4.19907123e-02 -2.57826913e-02 -4.40503865e-01
  -2.74479318e+00 -1.47023249e+00 -3.18442494e-01  2.31582788e-03
   4.97550257e-02 -3.11983085e+00 -3.51003736e-01  1.18508622e-01
   8.02947283e-02 -9.26415063e-03  2.01864466e-01  6.53965920e-02
   4.52584401e-02 -2.16864273e-01  3.32861207e-02  6.38126612e-01
  -4.36187953e-01 -2.00147238e-02 -1.01429306e-01 -3.55506055e-02
   1.25021055e-01  1.81527644e-01  1.26326038e-02 -7.68468976e-02
  -4.98374924e-02  3.89848463e-02  5.59565723e-01  5.40634757e-03
   2.24414282e-02 -6.50741160e-02 -9.59423408e-02  1.70533612e-01
  -8.34463611e-02 -1.33175580e-02 -2.04496816e-01  1.27801418e-01
   2.29717791e-01 -6.12166524e-01 -4.34044078e-02  3.82126004e-01
   4.03802507e-02 -1.29623428e-01 -6.51874989e-02 -1.38476455e+00]
 [-1.97136462e-01  7.08132908e-02 -3.17130297e-01 -1.00864366e-01
  -2.51368470e-02 -1.26803489e-02  7.69795105e-02 -1.05021492e-01
  -1.85855236e-02  7.89334550e-02  3.34906191e-01 -8.59503169e-03
   3.45602147e-02  1.33337647e-01 -3.65256882e+00 -8.97014886e-02
  -2.97575276e-02  8.97386372e-02 -1.02809556e-01  1.12240493e-01
   3.18976104e-01  1.96918458e-01 -4.91054449e-03  2.57642865e-01
   1.83247730e-01  7.60219172e-02 -3.23077351e-01 -2.62049809e-02
  -1.84701070e-01 -2.46794915e+00 -4.98762690e-02 -4.02169749e-02
  -5.09627946e-02 -3.31379077e-03  1.63219705e-01 -3.80455889e-02
  -1.24406427e-01 -1.12366699e-01 -2.11135477e-01 -5.48883963e+00
  -1.24323413e-01  1.70570970e-01  2.72863925e-01 -6.94474429e-02
   2.05993608e-01  3.20098884e-02  2.16007262e-01  3.44392240e-01
   2.69095693e-02  3.91391553e-02 -2.21766257e+00 -2.52348930e-02
   8.05389047e-01  5.45192957e-02  1.50110990e-01  4.71743084e-02
   1.07215092e-01  7.07737952e-02  8.40869993e-02  3.01413070e-02
   2.39031985e-02  9.10005420e-02 -2.60909379e-01 -7.50973821e-03
  -3.61352414e-02  3.70191820e-02 -7.29108974e-02 -3.69655900e-02
  -1.03797507e+00  1.19381987e-01 -1.76102385e-01 -1.50045738e-01
  -2.28957653e+00  4.70886417e-02  3.29290144e-02 -6.15311325e-01
  -6.42400444e-01 -1.74058527e-01 -7.81581923e-02 -5.34333475e-02
   2.33535189e-03  5.21411151e-02  1.05215788e-01 -2.84170836e-01
  -2.51618242e+00 -1.95675218e+00 -1.30871937e-01 -2.70765219e-02
   4.15427145e-03 -3.45448804e+00 -7.35468388e-01  1.45676389e-01
   5.88062406e-02  7.46907294e-02  1.83533266e-01 -6.22304305e-02
   3.74871939e-02 -4.04007465e-01  2.48197034e-01  7.42305636e-01
  -2.70189315e-01 -1.15392106e-02 -8.20935369e-02  3.46937887e-02
  -3.34001556e-02  6.52963668e-02 -1.75554603e-02  1.10911474e-01
   1.17064146e-02 -5.49400561e-02  5.47818899e-01  4.29307967e-02
  -1.16704386e-02  1.34533241e-01 -2.35755909e-02 -2.52780709e-02
   5.35815470e-02  2.00213380e-02 -1.15293778e-01  1.04112357e-01
   2.30346233e-01 -4.66352552e-01  1.73610859e-02  2.03687489e-01
   3.80292237e-02  7.59767815e-02 -2.11253781e-02 -7.39867568e-01]
 [-4.32033598e-01  9.31908097e-03 -3.27558011e-01 -1.08187802e-01
  -1.98030453e-02 -5.35776988e-02 -5.95207959e-02  3.93161066e-02
   2.79842969e-02 -7.06458017e-02  4.31643605e-01  1.29824474e-01
   4.73766662e-02  3.26810211e-01 -3.77091169e+00 -1.26918003e-01
  -4.36875463e-01  1.06436372e-01 -9.19671878e-02 -1.73630536e-01
   3.37360173e-01  9.52178985e-02 -7.40529597e-02  2.01557428e-01
  -1.39117464e-01  1.01406716e-01 -2.79962331e-01  3.46930027e-02
   6.38552085e-02 -2.07843924e+00 -5.66161126e-02 -1.43330693e-01
   1.39915615e-01 -6.65363148e-02  7.19588920e-02  6.19590282e-02
  -1.54354513e-01 -1.89903244e-01 -1.97767422e-01 -5.23061419e+00
  -1.32677287e-01  1.61097258e-01  1.66085422e-01 -4.62104641e-02
  -3.85601297e-02 -2.21296445e-01  1.99333012e-01  8.38946775e-02
  -2.19834689e-03  5.55718578e-02 -1.98478734e+00 -6.03369698e-02
   4.21294779e-01 -3.43225105e-03  1.49332106e-01 -7.13289529e-02
   7.59548098e-02 -5.50590164e-04 -9.86922830e-02 -6.19752109e-02
  -6.97740763e-02 -1.14419647e-02 -6.78791404e-02 -4.29823734e-02
   5.33543751e-02  4.35540304e-02 -5.48178367e-02 -5.83261810e-02
  -8.97779167e-01  9.51360762e-02 -1.48937255e-01 -2.36215070e-01
  -2.29711962e+00 -3.31880674e-02 -4.87982444e-02 -6.14896119e-01
  -6.84845328e-01 -1.41924649e-01  2.62985565e-03 -2.30910882e-01
  -8.42076913e-03 -4.23615016e-02  9.06753615e-02 -4.49697554e-01
  -1.17193353e+00 -2.07187915e+00 -2.29744270e-01 -1.11703970e-01
   1.76644288e-02 -3.77830315e+00 -1.22728109e+00  2.55990634e-03
   3.13776694e-02  3.06166727e-02 -1.31848454e-01  4.73618880e-02
  -8.43563229e-02 -3.54306757e-01  3.80019486e-01  6.70703411e-01
  -5.24661392e-02  1.05960250e-01 -5.80183379e-02 -1.61472596e-02
  -1.22604191e-01  7.77868703e-02 -8.14713016e-02 -7.79825673e-02
  -6.31650165e-02  5.62987439e-02  5.25741935e-01 -1.08061433e-02
  -5.87862954e-02  8.32472071e-02 -8.02203864e-02 -1.97866862e-03
   3.73018384e-02 -6.27177432e-02 -2.12189350e-02  1.08760670e-01
   1.13491021e-01 -5.35610259e-01  2.51256023e-02  1.94038033e-01
  -8.62746984e-02  1.57398209e-01 -1.95513237e-02 -1.37684554e-01]
 [-5.75765431e-01 -3.88601385e-02 -4.00271982e-01 -1.77170634e-01
   6.92293718e-02  4.91831861e-02 -1.59669086e-01  2.33198665e-02
   4.96354476e-02  1.34971172e-01  2.85073251e-01  1.46720320e-01
   2.06214637e-02  3.59324664e-01 -4.40865517e+00 -1.89793125e-01
  -4.59463388e-01 -5.43967821e-02  6.90585177e-04 -1.24094129e-01
   2.17151433e-01  3.06250006e-01  1.28434105e-02  1.51068106e-01
  -4.04875547e-01  1.20076902e-01 -2.84223676e-01 -3.94044742e-02
   1.30915731e-01 -1.95745575e+00 -1.15751103e-01 -1.39042020e-01
   5.26871644e-02 -5.68941459e-02  8.87400005e-04 -7.41672888e-02
   3.74248310e-04 -5.91555685e-02 -1.95961758e-01 -5.10033035e+00
  -6.30938336e-02  7.51961246e-02  2.96627507e-02  4.16889153e-02
   6.00362532e-02 -1.61594838e-01  2.82343149e-01 -4.29446131e-01
   1.26783982e-01  9.70996618e-02 -1.35386431e+00  8.40502698e-03
  -2.53953058e-02  2.61371266e-02  6.17520735e-02 -7.69307911e-02
   2.03222364e-01  5.15848212e-03 -5.78657202e-02  1.72913428e-02
  -4.98829689e-03 -9.84894782e-02  1.75726190e-02 -7.95752332e-02
   1.36309981e-01  9.44782123e-02 -6.42396808e-01 -3.36281992e-02
  -8.57132852e-01 -6.61966577e-02  2.73453444e-03 -2.39895672e-01
  -2.46234536e+00  1.32344980e-02 -9.05625299e-02 -4.07140255e-01
  -7.09935725e-01 -7.90992305e-02  3.52968574e-02  2.70503964e-02
   8.77054259e-02 -1.33197695e-01  1.79640502e-01 -3.50790352e-01
  -2.61244327e-01 -2.49171066e+00 -2.05659419e-01 -7.24252090e-02
  -3.66492965e-03 -2.63751149e+00 -1.55561864e+00  7.93680772e-02
   3.13886511e-03  1.20558523e-01 -4.62155566e-02  7.88890347e-02
  -2.20941484e-01 -4.37772989e-01  2.53537297e-02  1.34520456e-01
   5.44584244e-02  1.07916526e-01  9.18902904e-02  6.92389384e-02
   2.46188007e-02  1.35984883e-01 -6.55145347e-02 -6.64886236e-02
  -4.34118919e-02  3.08213327e-02  5.22563159e-01 -1.44667979e-02
   3.94601561e-02  1.07052200e-01 -3.29317778e-01 -1.29791841e-01
  -1.09416405e-02 -5.96565939e-03 -1.00685611e-01  1.96485743e-01
   1.11895487e-01 -4.08137649e-01 -8.91375914e-02  1.02428280e-01
  -9.03552305e-03 -6.42037839e-02 -1.08995549e-01  1.42982364e-01]
 [-3.77416581e-01  2.20532976e-02 -1.57384798e-01 -2.34578416e-01
   6.86874613e-03 -9.26076025e-02 -1.67601466e-01 -4.35470939e-02
   1.47515303e-02 -1.27209827e-01  1.42933473e-01  8.65713283e-02
  -9.55805779e-02  3.50183368e-01 -2.67022753e+00 -2.43194640e-01
  -5.32897592e-01 -3.16242933e-01  1.28546223e-01  8.46131593e-02
   6.04247078e-02  3.06045890e-01 -1.54196069e-01  5.53714074e-02
  -3.98153424e-01 -4.63516675e-02 -7.37152278e-01 -2.48014871e-02
  -2.22916856e-01 -2.21985722e+00 -1.85887128e-01 -1.10667236e-01
  -1.53989522e-02 -3.56390985e-04 -9.89805534e-02  3.14183645e-02
  -1.27102599e-01  2.56401956e-01 -3.07275772e-01 -4.58456802e+00
  -4.65977453e-02  6.83297813e-02  9.08841006e-03 -7.62859583e-02
   1.46704048e-01  5.00118136e-02  3.13286602e-01 -5.55009007e-01
   1.46983460e-01  1.07717343e-01 -9.17570233e-01 -9.76135805e-02
  -2.50053972e-01  2.04711586e-01  1.35779619e-01  9.85364988e-02
   1.19886279e-01  2.02794924e-01 -1.97262652e-02  4.24330086e-02
  -5.54229729e-02 -5.93752116e-02  3.91259521e-01  2.19834223e-02
   2.04590619e-01  1.58839360e-01 -5.59926569e-01 -7.69312084e-02
  -8.57323349e-01 -4.46608365e-02 -1.31936586e-02  1.29745811e-01
  -2.37922430e+00 -6.21996187e-02  3.20123397e-02 -4.52959299e-01
  -6.88115060e-01 -3.12233431e-04 -9.27103534e-02  3.10787875e-02
   1.67893484e-01 -1.03365503e-01  9.38443691e-02 -2.90915906e-01
  -3.03366065e-01 -2.87163734e+00 -3.92522424e-01  1.72551181e-02
   4.53574257e-03 -8.82557809e-01 -2.00053358e+00 -4.25286442e-02
   5.26196323e-04  2.80521978e-02  9.72281918e-02 -9.83088650e-03
  -1.50561154e-01 -3.20579112e-01 -9.17513296e-03 -8.28547925e-02
   7.10629746e-02  4.69085649e-02  1.51351854e-01 -7.89344758e-02
   1.77500382e-01  8.93551558e-02  2.54437812e-02  5.19783818e-04
  -6.14171885e-02 -2.71769352e-02  2.04840630e-01 -6.97406903e-02
  -3.46600115e-02  7.99222589e-02 -1.44008040e-01 -1.15167066e-01
   1.43910736e-01 -5.18108308e-02  1.34553209e-01  1.43442359e-02
   8.92179552e-03 -4.14162427e-01  4.16972302e-02  9.58486088e-03
  -6.51691779e-02  1.54966274e-02  4.27025780e-02 -1.78190872e-01]
 [-5.10490000e-01 -5.16826473e-02 -8.16652775e-02 -2.38254428e-01
   5.88013753e-02 -3.02514751e-02 -9.09038559e-02 -7.57023618e-02
   4.16040719e-02 -8.21566507e-02  9.72245112e-02  9.87179484e-03
  -2.64255702e-01  4.31859493e-01 -6.87904060e-01 -1.51060551e-01
  -4.84568596e-01 -3.04313064e-01  2.12767310e-02  3.24217379e-02
  -1.33811086e-01  3.57240409e-01 -1.38217852e-01 -6.41809776e-02
  -7.71228552e-01 -5.04278615e-02 -1.23653245e+00  6.69275075e-02
   7.06620216e-02 -2.15892720e+00 -1.54302984e-01 -7.37535357e-02
   8.09907913e-03  1.45868912e-01 -2.24010542e-01  1.79340448e-02
  -4.06623781e-02  2.15686738e-01 -1.82874382e-01 -2.61551952e+00
   6.38463721e-02  9.29828286e-02  9.12246853e-02 -7.23393308e-03
   1.21010095e-01  1.35291457e-01  2.77174443e-01 -3.83605242e-01
   8.77679512e-02  1.58727869e-01 -8.56825769e-01 -6.32995414e-03
  -5.44780254e-01  8.40207338e-02 -2.13458389e-02 -4.67518903e-03
   3.86500149e-03  9.69256088e-02 -9.38816294e-02  3.60997324e-03
  -5.55282235e-02  6.37428509e-03  3.62302184e-01 -2.24928588e-01
   1.15429364e-01  1.26013711e-01 -5.37057854e-02 -5.89112714e-02
  -8.82207513e-01 -6.18642233e-02 -1.67294107e-02  1.68401510e-01
  -2.36688828e+00  1.62252448e-02 -7.76853338e-02 -5.36083162e-01
  -5.97404361e-01  7.83966035e-02  3.02237030e-02  1.93404153e-01
   1.93160579e-01 -5.54718338e-02  1.08951412e-01 -2.20674232e-01
  -2.25219116e-01 -2.37230515e+00 -1.84151961e-03 -6.71278164e-02
   2.66262926e-02 -2.87579715e-01 -2.35968590e+00 -6.10586372e-04
  -4.86295894e-02 -2.44696304e-01 -2.90739932e-03 -1.31122395e-02
  -1.79711550e-01  1.94982663e-01  1.83482021e-01 -6.02941811e-01
  -1.50681585e-01  4.60231863e-02  2.56872952e-01 -4.18315940e-02
   2.24954829e-01 -1.77457020e-01  5.47783598e-02  7.27376491e-02
   6.07415140e-02 -6.51483610e-02  1.69443712e-01 -2.69268230e-02
  -6.08795434e-02 -5.42420894e-02 -5.76874055e-02 -6.95600137e-02
   3.14192660e-02 -2.48232018e-03  4.11738157e-02  1.76052272e-01
   1.25373885e-01 -1.39101580e-01  3.83563899e-02  3.42618003e-02
  -8.22550133e-02 -5.50114848e-02  9.00230706e-02 -2.40823090e-01]
 [-8.28169823e-01  1.06132135e-01 -2.04425111e-01 -1.00274138e-01
   7.77748972e-02 -2.07168842e-03 -1.34786189e-01 -6.34537339e-02
   5.02724759e-02 -5.72862685e-01  1.74688064e-02 -1.98193237e-01
  -8.44267160e-02  4.04764384e-01 -5.31625211e-01 -2.00023368e-01
  -1.00718521e-01 -1.93579718e-01  6.18558265e-02  1.16432078e-01
   5.72665222e-02 -2.41624583e-02 -5.70342541e-02 -1.44430771e-01
  -1.24528944e+00  1.37472838e-01 -1.59182155e+00 -4.03266260e-03
   8.84755552e-02 -1.52480710e+00 -1.11371323e-01 -1.11994378e-01
   6.17150180e-02 -5.08719869e-02 -1.46784440e-01 -1.01167327e-02
   5.37491143e-02  1.74140185e-01 -2.36473128e-01 -1.64732969e+00
   1.02289744e-01 -6.53734431e-02 -3.95608842e-02  3.88887115e-02
   5.60914166e-02  2.49798432e-01  1.99557245e-01 -3.34820718e-01
   3.77699733e-02  7.77911171e-02 -2.89586365e-01  1.21839657e-01
  -7.72343814e-01  7.27876797e-02  5.69038540e-02  1.24384679e-01
   2.35235289e-01  2.58490562e-01  1.78201720e-02  5.24556823e-03
  -7.08999187e-02 -1.29100233e-01  1.66720688e-01 -1.24078408e-01
   8.04192722e-02 -3.14563178e-02  4.80304062e-01 -4.99966666e-02
  -1.08026445e+00 -2.55474914e-02 -1.23231374e-01  2.14581624e-01
  -2.54376316e+00  1.11998044e-01 -9.35517699e-02 -2.87688822e-01
  -7.42435217e-01 -8.72232951e-04 -1.11692600e-01  1.50393933e-01
   2.24642277e-01 -1.31943166e-01  4.30672690e-02 -1.90172791e-01
  -1.13168038e-01 -2.40551305e+00 -2.75509804e-02 -1.11921243e-01
  -3.64955999e-02 -1.03279799e-01 -2.75608897e+00 -2.47930251e-02
  -2.66642589e-02 -9.96999666e-02 -1.56503730e-02 -2.57594883e-02
  -2.60829479e-01  2.67729968e-01 -2.29205593e-01 -1.03870881e+00
  -1.90556481e-01  9.48009267e-02  7.42141455e-02 -3.72611955e-02
   2.89601326e-01 -2.62313724e-01  3.56969722e-02  3.22986618e-02
  -7.05138147e-02  5.62414229e-02  2.79546887e-01 -1.20901220e-01
  -1.83397178e-02 -7.24942908e-02  1.10887781e-01 -1.87164292e-01
   1.25363201e-01 -3.47409137e-02  1.93103567e-01  1.82684779e-01
  -2.98826471e-02  1.64272964e-01  5.35515249e-02 -6.33401722e-02
  -7.30758905e-02 -1.20113038e-01  8.70604441e-02 -1.16413198e-01]
 [-9.03962374e-01  2.22178027e-01  6.15661107e-02 -3.44051905e-02
   9.99351814e-02 -4.90058074e-03  5.13093993e-02  1.95067488e-02
   1.81770891e-01 -6.03904665e-01 -1.00198157e-01 -1.94253609e-01
   1.10237882e-01  8.45838115e-02 -3.96252215e-01 -8.08486491e-02
   1.54109463e-01 -1.32819325e-01 -1.48261741e-01  4.16936502e-02
   1.16463356e-01  1.38494268e-01  1.30699620e-01 -1.09742880e-01
  -1.49338448e+00 -1.46339267e-01 -1.16524088e+00  2.18570065e-02
  -3.74734662e-02 -8.10842872e-01 -1.19997062e-01 -1.20335728e-01
   2.75050327e-02 -5.79122640e-02 -2.21368939e-01 -6.69184625e-02
  -1.52129099e-01  1.74463198e-01 -3.16364467e-01 -9.29184079e-01
   3.59465694e-03 -2.01875828e-02  1.55786976e-01 -7.39142299e-02
  -1.18344672e-01  3.27171981e-01 -4.27751094e-02 -3.78374338e-01
   5.76468594e-02  1.11739367e-01 -2.35440563e-02  2.61224285e-02
  -9.19632792e-01  8.16685930e-02  1.01438779e-02 -1.69835314e-01
   2.08052114e-01  1.32328302e-01 -3.97853702e-02  1.95485912e-02
   5.68231270e-02 -2.07984731e-01  1.95880979e-03  1.08705647e-01
  -6.10212907e-02 -5.92083558e-02  2.02889353e-01 -1.99348986e-01
  -1.89267159e+00  5.66919595e-02 -3.28202024e-02 -3.80166247e-02
  -2.51017141e+00  1.01691857e-01  3.62558849e-03 -7.81298205e-02
  -7.54299521e-01 -1.94402590e-01  8.16430971e-02  1.67028576e-01
   2.65322570e-02 -1.84360996e-01  1.26495427e-02 -2.29866669e-01
   1.20710731e-02 -2.13466191e+00  1.33863404e-01 -8.63220245e-02
   4.75351848e-02 -1.16125681e-02 -2.24919295e+00 -1.07797034e-01
  -1.57403722e-02  8.12637038e-04 -5.21417242e-03  5.96055910e-02
  -3.04265380e-01  5.50002903e-02 -3.37523282e-01 -9.46253121e-01
  -1.15310043e-01  4.01708372e-02 -3.77538770e-01 -2.16097627e-02
   1.60202608e-01 -1.52270019e-01 -8.44208300e-02  1.26153976e-02
   5.41293770e-02  1.25249522e-02  3.87987256e-01 -6.16462342e-02
  -9.55928788e-02 -6.82674423e-02  1.50398025e-02 -3.23014334e-02
   1.62248425e-02 -6.25430197e-02  3.29388648e-01  2.49500126e-01
  -4.09937911e-02  1.39766738e-01 -1.91285014e-02  3.21556628e-02
  -4.30683680e-02 -1.45267516e-01  1.18162468e-01 -1.02545105e-01]
 [-4.93987709e-01  2.07619414e-01  3.60025689e-02 -6.05648011e-02
   1.64087683e-01  3.65217440e-02 -1.38208002e-01 -8.60286728e-02
   5.56459725e-02 -3.02116364e-01 -2.79553175e-01 -3.71166378e-01
  -9.77240875e-02 -7.95962065e-02 -2.06768483e-01  5.92224821e-02
   1.11836128e-01 -4.12915573e-02 -1.55192867e-01  8.42972323e-02
   1.32368997e-01  5.64112999e-02  1.26511408e-02 -2.05418304e-01
  -1.96277428e+00 -2.63971705e-02 -1.43007910e+00  6.14604875e-02
  -2.44642407e-01 -4.48958516e-01 -2.31592625e-01 -1.92415312e-01
  -7.80726224e-02 -5.44227995e-02  9.71083120e-02 -6.74200356e-02
  -8.74087587e-02  2.06105590e-01 -2.49323919e-01 -8.32233764e-03
   7.51502439e-02 -1.13336466e-01  2.41538230e-02  2.26168614e-02
   6.64903820e-02  3.19535762e-01 -4.26589930e-03 -1.57444566e-01
  -4.50099446e-02  3.13682072e-02  1.96345463e-01  7.41504580e-02
  -1.46610343e+00  1.78504661e-02  1.44711480e-01 -2.11147487e-01
   8.03225115e-02  5.71157783e-02 -1.47050619e-01 -1.32485121e-01
  -9.03989654e-04 -2.50894338e-01  1.66529939e-02 -1.78167783e-02
  -3.18170222e-03 -5.05178943e-02 -7.12902248e-02 -6.86677694e-02
  -1.62622511e+00  1.02784736e-02 -6.80738911e-02 -2.11188450e-01
  -2.29983950e+00  1.85985744e-01  3.73735353e-02 -8.49671662e-02
  -7.72622943e-01 -9.01721045e-02  6.01563714e-02  1.83751564e-02
   1.91822484e-01 -1.57369375e-01  1.53805315e-01 -1.59666315e-01
   6.33014962e-02 -2.24494576e+00  1.18948720e-01 -5.92745915e-02
  -3.14227678e-02  1.98223248e-01 -2.65995312e+00 -1.43037409e-01
   2.61809807e-02 -8.04483145e-02 -6.05499512e-03 -3.31275240e-02
  -2.77075082e-01 -1.57291323e-01 -2.32781619e-01 -7.72842228e-01
  -4.39930677e-01  1.74842170e-03 -4.73178208e-01 -3.56130935e-02
   4.51757014e-02  2.71421596e-02  7.34421462e-02  6.53289258e-02
   6.77918419e-02 -3.90538163e-02  2.75968015e-01  2.87274290e-02
  -4.14350955e-03 -3.50065865e-02  3.64147604e-01  7.04861507e-02
  -2.28717700e-01 -5.63810132e-02  4.85971570e-01  1.99746460e-01
  -1.17247077e-02  4.97793593e-02 -8.73811319e-02  5.75470105e-02
   2.09203921e-02 -2.13265210e-01  9.35154036e-02 -1.89526215e-01]
 [-8.55131000e-02  5.81200235e-02 -2.01941542e-02  9.68495663e-03
   3.34016606e-02  6.15433753e-02 -6.05949797e-02 -4.82177809e-02
  -3.41101736e-02 -3.84512842e-01 -1.73535004e-01 -3.47622275e-01
   2.32491717e-01 -1.81612551e-01  7.05457851e-02  7.86554366e-02
  -8.11937824e-02 -4.51728292e-02 -1.00230671e-01  1.75715297e-01
   6.53768703e-02  1.58755705e-01  2.55560845e-01 -5.44442832e-01
  -2.50808549e+00 -2.47989651e-02 -1.55511320e+00  2.20849924e-02
  -6.02861121e-02 -5.36154032e-01 -1.42719731e-01 -1.77624196e-01
  -1.58748291e-02 -5.89404404e-02  1.35288328e-01 -7.19862618e-03
  -1.09593645e-01  9.65827927e-02 -3.65938008e-01  7.64943123e-01
   7.42642879e-02 -2.33086810e-01  1.02778248e-01  2.59028003e-02
   1.58976868e-01  3.50606114e-01 -8.47338736e-02  2.87235171e-01
  -9.90790501e-02 -2.59619933e-02  2.66444087e-01 -4.86277277e-03
  -1.01230454e+00  3.63455415e-02  1.09635264e-01 -2.62814085e-03
  -9.64962170e-02  1.25920057e-01  3.20974854e-03 -8.14292487e-03
  -4.44428660e-02 -1.12151109e-01 -2.86785569e-02 -2.66012490e-01
   1.01090923e-01 -1.98798645e-02 -1.44233838e-01  1.02463908e-01
  -8.98531556e-01  1.53826848e-02 -1.13308989e-01 -1.94189623e-01
  -1.46923220e+00  1.19682997e-01 -9.30390060e-02 -1.28555655e-01
  -8.54373813e-01 -1.43459961e-01  2.29243897e-02 -1.21428169e-01
   4.49422188e-02 -2.41462842e-01  8.85844901e-02 -2.16048881e-01
   1.30419135e-01 -2.91989303e+00  1.66874439e-01 -1.20660841e-01
   8.43177289e-02  1.44389793e-01 -2.58135581e+00 -1.58436701e-01
  -2.68229507e-02 -5.43445311e-02  1.36443004e-01 -4.20147590e-02
   1.51888775e-02 -2.62113154e-01 -3.48689437e-01 -9.02163386e-01
  -6.42908812e-01 -4.95434999e-02 -5.12578607e-01 -1.12354159e-02
  -7.89985582e-02 -2.34833866e-01 -7.66394883e-02  1.49694279e-01
  -9.05994549e-02 -3.82213481e-02  8.95427689e-02 -1.33730322e-02
  -3.85188386e-02 -1.32412985e-01  3.30503620e-02 -1.70106545e-01
  -1.09387837e-01 -6.81108907e-02  5.03232241e-01  9.03370082e-02
  -3.16476151e-02  1.47981152e-01  6.38296083e-02 -7.64069408e-02
  -4.79390733e-02 -2.46400222e-01  6.61849789e-03 -2.93467253e-01]
 [ 2.98037946e-01 -1.43403143e-01 -1.11977555e-01 -2.61305124e-02
   3.79385501e-02 -7.94928372e-02 -6.12683082e-03  6.86831325e-02
  -5.03922217e-02 -7.50757396e-01 -1.67636201e-01 -2.26041526e-01
   1.85766116e-01 -3.05144370e-01  8.84723216e-02 -3.11775152e-02
  -1.29820779e-03  6.69273734e-02 -1.27389774e-01  5.35995215e-02
   1.40266269e-01  1.65351182e-02  5.48349582e-02 -6.29189551e-01
  -2.95249820e+00  5.70680387e-02 -1.43651474e+00  3.54258763e-03
  -3.17332707e-02 -3.01871359e-01 -1.00840695e-01 -1.45594910e-01
   4.93307747e-02 -2.19768174e-02  9.03827790e-03  4.77029495e-02
  -3.89766842e-02  5.41069992e-02 -2.63057470e-01  6.97455049e-01
   1.31408006e-01 -3.03349704e-01  8.01243410e-02 -8.17303589e-05
   5.04766963e-02  3.00327301e-01  3.10657639e-02  4.59617108e-01
  -2.69953638e-01  1.00185880e-02  3.62653494e-01  6.75675198e-02
  -3.92745644e-01  1.12901941e-01  2.84686927e-02  4.37732525e-02
  -1.15828790e-01  2.88982932e-02 -1.12578712e-01 -2.32677627e-02
  -4.63651344e-02 -1.20388992e-01 -6.83145002e-02 -2.46915385e-01
  -1.02143735e-03  2.72760615e-02 -6.83902204e-02 -5.04877158e-02
  -3.06076080e-01 -1.17704235e-01 -4.27532680e-02 -1.67926207e-01
  -1.08708882e+00  1.44844130e-01 -8.53692368e-03  2.79279035e-02
  -9.58921432e-01 -1.10561959e-01 -7.04459026e-02 -1.50426120e-01
   1.90589298e-02 -8.69292915e-02  3.88662070e-02 -2.96560347e-01
  -2.43279729e-02 -2.96606755e+00  2.80050468e-03 -1.35395210e-02
  -1.90276578e-02  2.39120573e-02 -2.97020960e+00 -1.44536272e-01
   4.59889546e-02 -8.06172714e-02  1.37725174e-01 -1.73066370e-02
  -3.43432054e-02  6.64205523e-03 -3.80257875e-01 -1.06937408e+00
  -1.15128744e+00 -4.55411784e-02 -4.20580089e-01 -8.29304010e-03
   8.87068957e-02 -2.68168420e-01  2.32417900e-02  2.15265438e-01
   4.62696329e-02  5.29814810e-02  1.00583769e-01 -1.42434627e-01
  -4.81688324e-03 -1.54153675e-01  9.40943956e-02 -4.06268053e-02
  -1.74933806e-01  1.31133739e-02  3.62875879e-01 -2.01884508e-02
  -6.32403120e-02  3.50014061e-01  2.55265236e-02 -5.54058813e-02
  -2.81303097e-02 -2.40656435e-02  5.46027832e-02 -5.68665922e-01]
 [ 3.41858596e-01 -2.92497277e-01 -3.79879354e-03  1.53377533e-01
   5.10118194e-02 -6.31397069e-02 -1.99494272e-01 -4.20992337e-02
  -5.91565408e-02 -9.44080234e-01 -1.46131307e-01 -1.86634675e-01
   6.79560676e-02 -2.55301923e-01  2.00783730e-01 -2.95419022e-02
  -9.85819623e-02 -4.73674461e-02 -5.31157628e-02  6.12413734e-02
   1.09035313e-01  1.98201597e-01 -1.17545195e-01 -3.48864883e-01
  -2.81663060e+00  7.29349330e-02 -1.21170986e+00  6.42051473e-02
  -4.10374301e-03 -2.35704228e-01  8.69594223e-04 -1.58123881e-01
   2.75761615e-02 -1.15640059e-01 -1.46069705e-01  3.92891914e-02
  -6.29923046e-02 -2.08831698e-01 -3.98094594e-01 -8.85022953e-02
   1.03608288e-01 -1.76876485e-01  3.38035412e-02 -3.58656347e-02
   9.40221548e-03  2.50826627e-01 -9.05766189e-02  5.70319146e-02
  -2.01090977e-01  1.90972853e-02  2.65247613e-01  1.49821773e-01
   1.87658500e-02  3.35070901e-02  7.59344101e-02  5.23529761e-02
   1.65218338e-02  1.90891311e-01 -1.17296800e-01 -4.54482250e-02
  -3.28983329e-02  1.14571974e-02 -2.47491151e-02 -1.88903332e-01
   2.08337560e-01  7.87527710e-02 -1.67644754e-01 -1.67422947e-02
  -3.77556354e-01 -5.89899495e-02 -5.41026965e-02 -6.71932101e-02
  -8.24657977e-01  1.84145913e-01 -2.08627377e-02 -1.23070003e-02
  -9.26362276e-01 -1.89798530e-02 -7.45893866e-02 -1.75898165e-01
   1.86539531e-01 -4.74062376e-02  7.88397864e-02 -3.36389452e-01
  -3.02578378e-02 -2.43441916e+00 -1.04028091e-01  4.67151813e-02
   2.24056561e-02 -4.96665798e-02 -2.46746898e+00 -1.72053859e-01
   5.16577139e-02 -6.41122162e-02  9.59573388e-02  2.25406904e-02
   1.00235499e-01 -5.78922927e-02 -2.26091102e-01 -1.14975500e+00
  -1.86376810e+00  2.49589514e-02 -2.93477535e-01  6.47365972e-02
   2.49738283e-02 -1.35746777e-01  5.48838824e-02  4.02642637e-02
  -8.21650103e-02  2.32386161e-02 -7.04208761e-02 -1.07444204e-01
   5.56001104e-02 -7.33752847e-02  1.35146290e-01 -1.24825269e-01
  -7.30959326e-02 -3.89083996e-02  1.36407837e-01 -7.88076743e-02
  -1.24288285e-02  2.59145945e-01  1.48934824e-02 -2.38487832e-02
  -3.05092800e-03 -1.63287029e-01  4.24509607e-02 -3.50445777e-01]
 [ 2.83349216e-01 -9.78742540e-02 -5.48007600e-02  2.10672036e-01
   5.66492304e-02  4.44957875e-02  7.01402724e-02 -7.15827867e-02
   4.20713983e-02 -2.52830505e-01  6.30256757e-02 -9.38029811e-02
   1.85218185e-01  1.36693522e-01  1.88088521e-01 -1.70200363e-01
  -1.77028440e-02  4.71413694e-02  9.65698680e-04  1.64131969e-02
  -5.67319132e-02 -1.06640877e-02 -2.44198693e-03 -8.92252102e-02
  -2.59035373e+00  1.46801760e-02 -1.08556056e+00  3.00575439e-02
   1.82855770e-01 -1.13565221e-01 -1.06902435e-01 -2.07719937e-01
   4.01066393e-02  3.13699320e-02 -2.56476343e-01 -7.58384168e-02
