mnist_model/dense/kernel:0
(784, 128)
[[-5.95748648e-02 -6.41182959e-02 -1.24839917e-02  6.44943491e-02
   3.08909789e-02  1.35097951e-02 -6.54611737e-02  3.60955000e-02
  -3.58963534e-02  5.79457656e-02 -1.11877844e-02  2.77266130e-02
   3.03551555e-04  4.98362854e-02 -9.18836147e-03 -7.68020377e-02
  -6.52122498e-02  4.17848676e-02  2.76546180e-02  1.09406784e-02
   7.94124529e-02  5.01289740e-02 -1.81315094e-02  3.82313728e-02
  -7.95410350e-02  4.63433638e-02  5.04189655e-02 -2.75872648e-02
  -8.05529505e-02 -4.69724201e-02 -6.95778653e-02  4.52766493e-02
   4.30412591e-03  1.90428123e-02 -5.47513887e-02  1.43083334e-02
  -3.16927843e-02  5.75865135e-02  4.83570471e-02  7.87780806e-02
   1.42562687e-02  4.14551869e-02  7.21779391e-02 -1.99968852e-02
  -1.32175162e-02 -7.10671097e-02  2.31833756e-02  3.25966552e-02
   5.59920594e-02 -6.36052564e-02  3.97586972e-02 -1.75851882e-02
   6.40997663e-02  4.18670923e-02 -5.16491383e-03 -1.48121491e-02
  -6.86284006e-02  7.12513924e-03 -6.88835457e-02  3.27250287e-02
  -4.61497903e-02 -4.65995409e-02  1.35928690e-02 -5.95380217e-02
   6.87669292e-02 -7.13009685e-02 -2.49871537e-02  9.76390392e-03
   7.70489872e-03  4.06428427e-02  5.39493486e-02 -6.26529977e-02
  -4.55537811e-02  7.61346743e-02 -2.78811306e-02  6.79758415e-02
  -3.95657569e-02 -3.21190208e-02  3.89944240e-02  5.55124804e-02
  -6.11127988e-02  6.29947260e-02 -3.27683426e-02  4.66736630e-02
   2.52288431e-02  4.96533886e-02 -1.35710761e-02  3.46433073e-02
   3.79501358e-02 -3.69543321e-02 -3.94367315e-02 -1.35286897e-02
  -6.07033074e-02 -1.52022392e-03 -1.19708553e-02  7.55447820e-02
   5.18911555e-02 -1.58771276e-02 -3.44255790e-02 -4.40339260e-02
  -4.19414863e-02 -5.68892956e-02 -7.06168413e-02 -8.02400410e-02
  -2.84524783e-02  2.95042470e-02  5.74722216e-02 -1.47324800e-02
   7.59144649e-02  4.60778549e-02 -4.77094427e-02 -8.44952464e-03
   1.64807737e-02 -4.21126857e-02  6.45768419e-02 -1.94662437e-02
  -5.17303199e-02 -3.25029455e-02 -4.96401787e-02 -1.98548064e-02
   4.36121374e-02 -6.03012294e-02 -4.42448705e-02  5.74215576e-02
  -7.68332481e-02 -6.71792254e-02 -6.41671866e-02 -2.80488878e-02]
 [-3.86441313e-02 -6.56865016e-02  2.01610476e-02  7.39636347e-02
  -3.20668258e-02  3.33509892e-02  7.84217790e-02 -7.28818029e-03
  -4.77077030e-02 -1.33873671e-02  2.64828131e-02 -2.96420157e-02
   6.74290285e-02  5.83915338e-02 -9.07094032e-03  3.15344259e-02
  -2.34365314e-02 -7.70805329e-02  1.16499886e-02  6.67394474e-02
  -7.18072057e-02  5.63916638e-02  1.31813735e-02  1.90671012e-02
   5.68745285e-03 -5.25343269e-02  4.21037897e-02 -4.84420545e-02
  -7.38904029e-02 -1.72892138e-02  5.73173836e-02 -7.00663030e-03
  -2.28609890e-03 -1.77130699e-02 -1.49850324e-02  6.92210421e-02
  -9.56286490e-03 -7.72671252e-02 -5.46631962e-03 -7.95659423e-02
   1.38231739e-02 -3.03490460e-02  6.71950355e-02 -4.07213718e-02
   4.11814302e-02 -2.59373412e-02 -7.60745481e-02 -8.13939422e-03
  -7.35636875e-02 -2.28680819e-02  1.84515789e-02 -4.79396470e-02
  -6.99364617e-02 -1.15272701e-02  7.73488507e-02  4.28070873e-02
  -7.66071677e-02  5.90723380e-02  5.26209697e-02  4.23321351e-02
  -3.39132845e-02  7.04546794e-02 -4.95326370e-02  8.09517726e-02
   3.11803818e-02 -5.46742231e-03 -4.90078554e-02 -5.98102286e-02
  -1.69541165e-02 -2.88122110e-02  3.79308164e-02 -4.82305884e-02
   3.73280421e-02 -6.65546358e-02  3.78263518e-02 -1.15186423e-02
   6.65965453e-02 -7.84278288e-02 -7.62917176e-02  6.10858724e-02
   4.82861921e-02 -5.97446114e-02 -1.25987828e-02 -2.49599442e-02
  -3.50739509e-02  4.61586192e-02  4.07756343e-02  4.77483645e-02
  -5.30186370e-02 -4.06602249e-02 -6.78548440e-02 -2.95817852e-03
   6.86389878e-02 -6.53038919e-02  2.88423598e-02 -7.91443884e-02
   2.16585249e-02 -2.19017640e-02 -7.76484385e-02 -8.04611519e-02
   7.54346028e-02  2.67249346e-03  5.47645167e-02 -4.55226861e-02
  -3.32124270e-02 -7.43025616e-02  4.27561477e-02 -6.96402341e-02
  -3.32452357e-03 -6.71595186e-02  2.12299526e-02 -1.63104236e-02
   1.58665925e-02  4.64946702e-02  1.65224895e-02 -5.34362867e-02
   6.89822659e-02 -5.07477783e-02 -3.12860832e-02 -1.08867884e-02
   5.38584664e-02  4.09312546e-03  2.95689180e-02  2.31183395e-02
   6.35206625e-02  4.34434339e-02  2.83004642e-02  3.83803770e-02]
 [ 7.86262825e-02  7.84031972e-02 -3.97483855e-02  1.59281045e-02
  -2.12455578e-02 -2.16084421e-02  4.19554859e-02 -6.35346472e-02
   3.00548524e-02 -5.07202968e-02  3.03783193e-02 -7.64713734e-02
   4.45948169e-02 -1.69408917e-02 -1.35311037e-02 -6.50781915e-02
   4.66785356e-02  3.54831144e-02 -4.26086560e-02  2.06491277e-02
  -7.89457858e-02  3.57139558e-02 -2.36993954e-02  3.38377282e-02
   8.96693766e-03  5.83330467e-02  4.54105511e-02 -3.66717800e-02
  -6.83889315e-02  2.32665241e-03 -3.41772921e-02  5.23704961e-02
  -5.42699024e-02 -3.36776860e-02 -9.53181088e-03  2.64311433e-02
  -6.53352588e-02  4.14448380e-02  3.72127295e-02 -5.88272065e-02
  -2.27800161e-02  5.75590953e-02 -4.80518267e-02 -1.42248720e-03
   4.77876589e-02  1.54610649e-02 -1.12600327e-02 -9.38533992e-03
   5.73978201e-02 -7.05730915e-02 -7.96679333e-02  5.49215600e-02
   7.12246224e-02  2.91540474e-03 -1.51084140e-02 -3.29863243e-02
  -7.38674551e-02  4.21227440e-02 -2.78584249e-02 -3.67029347e-02
  -7.30223879e-02  7.16978833e-02  5.94199374e-02  7.79834613e-02
   7.14515224e-02 -5.16159907e-02 -5.25891520e-02 -2.89350487e-02
  -2.34444216e-02 -7.59135410e-02  5.30126020e-02 -2.19334997e-02
   6.77045435e-03  7.40661398e-02  6.62821457e-02 -3.92199270e-02
  -5.31978831e-02 -3.85314263e-02 -5.19011728e-02  1.15018040e-02
  -5.24942018e-02 -5.61893247e-02 -4.05274481e-02  2.76803747e-02
   2.85199732e-02 -4.55342121e-02 -7.61658847e-02 -5.07734194e-02
   2.99061090e-03  1.50139481e-02  4.20680717e-02 -2.14289837e-02
   6.63057938e-02  4.78053465e-02 -6.44207299e-02  8.04325715e-02
   2.98888311e-02 -1.70128718e-02  3.38350832e-02 -2.13723406e-02
   6.90478012e-02 -2.73970142e-02  9.79403406e-03 -4.22926992e-03
   3.86106744e-02 -1.91835351e-02  5.58547601e-02 -3.82182635e-02
   7.55968615e-02 -4.41847481e-02  5.89504838e-03 -7.49938712e-02
  -2.60462128e-02 -7.47575760e-02  2.63440832e-02  6.43317178e-02
  -5.12463227e-02  1.37777105e-02 -8.10652226e-03  6.63101599e-02
  -4.10052389e-02  7.40683153e-02  7.65312985e-02 -8.05827528e-02
  -1.75907388e-02 -7.66722038e-02 -6.58731908e-02  2.09749416e-02]
 [ 7.58498237e-02  5.10083064e-02 -4.05622981e-02 -1.49876848e-02
   7.24563748e-03 -5.86461015e-02 -6.26088306e-02 -8.08463544e-02
  -3.65235507e-02 -1.83095187e-02  3.16724405e-02  2.96789706e-02
  -2.02052183e-02  6.62833974e-02 -7.07217082e-02 -4.53790240e-02
   3.13213766e-02  2.17661634e-02  6.53839335e-02 -1.94448233e-03
  -5.60182333e-03  1.32443756e-02 -5.58519289e-02 -5.00662029e-02
  -7.17168301e-03  5.07500097e-02  7.78234825e-02  4.19707447e-02
  -6.27950951e-02  7.08461776e-02  3.39116827e-02 -4.42371927e-02
   5.07496968e-02 -2.37587467e-02  5.57387993e-02  7.42972717e-02
   7.96631798e-02  9.46187973e-03 -5.40756509e-02 -3.86823639e-02
  -5.64695746e-02  1.38507858e-02  1.63330510e-02 -5.64673319e-02
   2.73193493e-02 -5.29066473e-02 -7.48503432e-02  8.03261474e-02
   7.58452937e-02 -5.34219183e-02  5.31162396e-02  1.96854398e-02
  -1.78201050e-02  2.42008194e-02  6.80265054e-02 -5.15100732e-02
   6.84898123e-02  6.27832934e-02  6.88725710e-03 -1.21408179e-02
  -2.78731808e-02 -3.86873707e-02 -3.83553505e-02  4.21893075e-02
   5.71502745e-03 -7.61642456e-02 -4.76764701e-02  3.86486351e-02
  -7.64790922e-02 -6.61315918e-02  1.77769810e-02  4.06320691e-02
   1.51444823e-02  3.18165869e-02  4.99993041e-02  7.62213841e-02
   6.25426844e-02 -6.07820377e-02 -7.74869621e-02 -7.24765658e-02
  -6.86431900e-02 -1.74272880e-02 -8.96579772e-03 -4.40573469e-02
  -7.46289566e-02  5.81569150e-02  1.10672340e-02 -2.01657265e-02
  -7.07760900e-02 -2.99730897e-02 -3.88123840e-03 -5.60502261e-02
   7.02488497e-02 -6.10812753e-02  5.97751662e-02  1.63006037e-02
  -3.20288092e-02  7.75339529e-02  4.97357547e-03 -8.67846608e-03
   1.12695098e-02 -5.05406074e-02 -6.86061978e-02  5.80603406e-02
   6.28628954e-02  6.93889186e-02  5.60896322e-02 -3.96248326e-02
  -4.84880805e-03 -3.05766165e-02  6.08625785e-02  6.22512624e-02
   8.10853168e-02  5.11998907e-02  4.78414968e-02 -7.30092153e-02
   7.92936310e-02 -2.89816894e-02 -7.18930662e-02  8.05965438e-02
  -5.06947339e-02  4.33949158e-02 -6.92620873e-03 -5.69222495e-02
   2.08677277e-02 -7.67463669e-02  1.63370743e-02  6.46274313e-02]
 [ 7.09272251e-02  2.64489353e-02 -5.62261045e-03 -3.66411656e-02
   2.87003219e-02  5.13678864e-02  6.44227490e-02  1.01441592e-02
   1.78524256e-02 -5.17674685e-02  3.87822092e-02 -2.47508585e-02
  -2.62995064e-03  6.10950664e-02  8.06769356e-02  3.06839645e-02
  -6.97677881e-02  2.71425769e-02  4.06664163e-02 -1.64143741e-03
  -6.02946132e-02 -3.35253589e-02  6.49160221e-02  4.74479049e-03
  -5.53713925e-02 -4.47733700e-03 -7.30154663e-02 -6.43703341e-02
  -5.75116985e-02  4.36476469e-02  3.42442617e-02  1.94144920e-02
   4.80471030e-02  6.38156608e-02 -4.51025441e-02  3.86983976e-02
  -5.52633889e-02 -2.31329575e-02 -7.87661746e-02 -7.38992840e-02
   6.35760948e-02  2.05243379e-02  7.88164064e-02  2.10231096e-02
   1.38793141e-02  6.18798062e-02  4.29002419e-02 -4.95880619e-02
  -4.58579175e-02 -2.72266641e-02  8.00771937e-02 -3.86764854e-02
  -3.38278897e-02  2.02924758e-03 -3.69700342e-02 -1.15289167e-02
   2.02038437e-02  5.27844504e-02 -5.22784442e-02  7.61936679e-02
  -6.39709979e-02 -6.34000376e-02 -4.04991582e-02  7.83315822e-02
   5.76195791e-02  1.54634044e-02  4.72614169e-03 -1.50691196e-02
  -8.49527866e-03  9.61484760e-03 -6.76869303e-02  6.37794212e-02
  -3.31543759e-02  2.20952854e-02 -7.56805912e-02  6.90289661e-02
  -7.49357194e-02 -3.09744850e-02  2.17035487e-02 -5.20923734e-02
  -7.63598904e-02 -7.59044886e-02 -7.75053948e-02  5.06034121e-02
  -4.11434881e-02 -1.39809325e-02 -6.33812547e-02 -1.42867491e-02
  -2.20702216e-02 -7.98253715e-03 -2.22055316e-02 -6.11966476e-02
  -4.32302095e-02  7.76273236e-02 -6.67042136e-02 -4.76808399e-02
   2.34540701e-02 -3.85064408e-02 -1.30227432e-02  6.27189130e-03
   7.69858137e-02 -4.16420884e-02 -4.91093025e-02  1.98902339e-02
  -7.05275908e-02 -3.99301276e-02  3.55072469e-02  8.90822709e-03
  -4.16122302e-02  2.94048712e-02 -7.95753822e-02 -5.76920286e-02
  -5.57705164e-02  7.81246945e-02  7.92121366e-02  6.75031468e-02
   1.30798072e-02 -5.69353402e-02  6.31968454e-02 -7.72963613e-02
  -6.40656054e-02  3.90343368e-02 -3.05983908e-02 -1.20346695e-02
  -7.58923665e-02 -2.32757628e-03  6.39317110e-02 -6.36397898e-02]
 [-1.71657205e-02  4.91935760e-03 -2.18193643e-02 -7.68631101e-02
   4.58024219e-02 -6.57296255e-02  1.13930255e-02  6.81342408e-02
   6.36229143e-02  4.74667922e-02  4.24310714e-02  5.91106638e-02
   6.04682788e-02 -4.26863171e-02 -7.58925825e-03  9.24503803e-03
   4.37453389e-03 -1.33109167e-02  2.09228694e-03 -1.65740252e-02
   4.48950306e-02 -1.86034217e-02 -3.40064578e-02  4.92767915e-02
  -1.07174218e-02  4.49974462e-02  2.00726315e-02 -2.22431235e-02
   5.39922044e-02  4.93587330e-02 -3.57615203e-03  8.01110342e-02
  -6.41868562e-02 -4.19972762e-02 -1.08443946e-02  5.06889001e-02
   2.27199718e-02 -1.22408122e-02  4.61053476e-02 -6.16405793e-02
   4.34098020e-02  6.21377900e-02  5.72158396e-03  1.00698322e-03
   3.27086449e-02 -4.50494029e-02  5.19728437e-02  2.22589076e-02
   5.73515221e-02  5.98017201e-02 -6.25152886e-02 -6.25339746e-02
  -5.70976287e-02 -4.44557555e-02 -1.09283850e-02  2.91339010e-02
  -7.40313232e-02 -4.62984443e-02  1.22953653e-02 -4.86787409e-03
   3.05303186e-02  1.27967745e-02 -5.32603264e-02  5.84386662e-02
   5.99001721e-02 -5.60787879e-02 -4.17282805e-02  9.89615917e-04
   1.77741051e-02 -3.64692099e-02  4.38744277e-02  4.85423878e-02
   5.90137467e-02  3.11343744e-02  7.83120766e-02  1.19682401e-02
  -7.82809705e-02  4.53685746e-02 -1.09237805e-02  2.22705826e-02
   7.33693615e-02  2.05026567e-02  7.17113838e-02 -4.39755470e-02
  -3.35779786e-02  7.93111846e-02 -4.96800356e-02 -7.97222555e-02
  -5.65928593e-02  3.64219099e-02  6.70515373e-02  6.21693209e-02
   4.92822453e-02 -1.28926337e-02 -4.96304333e-02 -2.63867527e-03
  -5.95796779e-02 -4.01597135e-02  6.63597882e-03 -3.88875604e-04
  -3.65266055e-02  6.46888390e-02  1.67542547e-02  1.03642866e-02
   2.49210894e-02 -6.26890212e-02  1.76244229e-02  2.19249502e-02
   1.67761296e-02  3.80585343e-03 -1.49919614e-02 -2.17159428e-02
  -7.39623234e-02 -4.91522923e-02  3.66709456e-02  1.12649277e-02
   3.19096446e-02 -4.88189980e-02 -7.16644526e-02  1.31724179e-02
   1.29132643e-02 -4.12774459e-02  1.99329704e-02 -2.54761614e-02
   6.41649291e-02  4.85273823e-02  7.75009319e-02 -5.71761802e-02]
 [-3.56343947e-02 -5.74126095e-02 -1.71137601e-02  4.04096767e-02
   9.07182693e-05  2.46070176e-02  3.16360891e-02  3.17060947e-03
   2.05930248e-02 -4.98236604e-02  3.80354747e-02 -3.71864289e-02
   6.27172217e-02  5.29445708e-03 -1.09734014e-02  2.09565461e-02
   6.22056201e-02  2.28039324e-02 -1.99654810e-02  1.92835554e-02
  -5.97599484e-02  6.64274320e-02 -3.63394879e-02  6.63367733e-02
   2.04343572e-02 -4.32386585e-02  4.78130355e-02 -5.99390045e-02
   5.62267080e-02  4.01718393e-02  5.56183234e-02 -6.41658753e-02
  -2.96900161e-02 -3.75510156e-02 -5.27464300e-02  6.31447062e-02
   3.28766406e-02 -6.44673333e-02  6.51275888e-02  1.11745596e-02
   1.21208206e-02  2.01613978e-02 -7.43951946e-02  2.00182125e-02
  -1.15543231e-02 -5.67219220e-02 -1.05319694e-02  6.48219809e-02
  -4.53188606e-02 -5.57297915e-02  2.46821493e-02  5.03079072e-02
  -4.30015512e-02  1.33630186e-02 -1.05783790e-02  3.65951955e-02
  -9.80474800e-03 -7.15137869e-02 -1.36006624e-02 -6.66017607e-02
  -3.72956693e-02 -2.85381302e-02 -1.04226694e-02  4.80224565e-02
   7.22406134e-02 -8.61544162e-03 -1.01336911e-02 -3.38015482e-02
   4.40451577e-02  3.92871350e-03  4.19604182e-02 -5.99697903e-02
  -3.78282666e-02 -5.64789549e-02  8.06347355e-02  1.07664615e-02
  -8.55988264e-03  4.17077243e-02  3.37772965e-02 -7.24175274e-02
   5.31004369e-03  2.66474783e-02 -4.67457585e-02 -1.11253634e-02
  -4.65595685e-02  7.56524280e-02  1.00675374e-02 -6.62570745e-02
   4.06247228e-02 -4.83180955e-02 -1.86496228e-02 -7.61476904e-02
  -2.99106240e-02 -8.16872716e-03 -4.27105315e-02 -5.08284420e-02
   6.98816553e-02 -9.69502330e-03 -9.00641084e-04  4.31013778e-02
   4.25545499e-02  8.04998651e-02 -1.87887251e-03 -7.90299475e-02
   1.29983947e-02 -1.76840052e-02  3.20605934e-03  1.41949877e-02
  -8.02238956e-02 -3.44269127e-02  7.61325434e-02  5.63220754e-02
  -5.83399758e-02  6.07845187e-03 -4.24556695e-02  4.51718196e-02
  -4.25125845e-02 -4.37476635e-02  5.19903824e-02 -5.76751828e-02
  -2.76878625e-02 -7.41945803e-02 -7.00944737e-02  7.43672475e-02
  -3.31845619e-02 -3.02141197e-02 -1.12225786e-02  3.24622914e-02]
 [-2.03558803e-02 -7.93804228e-03 -4.99219745e-02 -5.04150838e-02
   4.48521152e-02  2.77721360e-02  2.32234597e-02  2.85156965e-02
  -6.83860481e-02  4.74275649e-03 -3.12989801e-02  5.37968427e-03
  -4.39313389e-02 -1.26109719e-02 -4.96861450e-02 -1.93397105e-02
  -4.91327979e-02  3.52467224e-02 -2.95978300e-02  6.13940135e-02
   1.40199065e-03 -3.97992134e-03 -5.80867827e-02  7.39685521e-02
   4.65395078e-02  7.12542459e-02  7.22163692e-02 -2.53453366e-02
   2.45799273e-02  7.26557523e-03 -7.81627372e-02  5.81281707e-02
   1.19799003e-02 -7.13715330e-02  1.41308829e-02  4.28437516e-02
  -3.94328833e-02 -3.83039564e-03 -7.38156661e-02 -6.60507381e-03
   1.96810067e-03 -4.21704687e-02  3.50045115e-02 -9.02694464e-03
  -3.53946202e-02  7.39873871e-02  6.65161386e-02 -1.73714384e-02
  -3.91385332e-02 -2.47531012e-02  4.04343382e-02  2.53575966e-02
   5.35109714e-02  2.60870755e-02  2.25875527e-03  2.68961713e-02
  -1.23934299e-02  1.12651959e-02 -1.59130245e-02 -1.50667951e-02
  -6.10523447e-02  6.14351258e-02 -6.41451031e-02 -7.37149268e-03
   2.13132650e-02  1.34849250e-02  5.68281114e-03 -8.06368589e-02
   7.04185292e-02 -2.92396843e-02 -5.33731282e-02  9.25064087e-04
  -3.32844630e-02 -6.46438152e-02  1.92262158e-02  1.37983188e-02
   4.34231758e-03  8.02335069e-02 -4.88688685e-02 -6.33339733e-02
   2.35514939e-02 -2.03454010e-02 -3.85179110e-02 -5.43185174e-02
  -8.07688832e-02 -2.82437801e-02  7.04716220e-02 -6.74383938e-02
  -5.20296395e-04  6.21709749e-02  5.12035936e-03 -1.11861005e-02
  -1.03948414e-02 -5.70218563e-02  7.14651123e-02  3.11403275e-02
  -7.72749782e-02 -7.57475570e-02  6.37281463e-02 -2.01906934e-02
  -6.54660985e-02 -5.66240512e-02 -3.32407765e-02 -3.56902815e-02
  -3.76561284e-03  3.45669985e-02  5.64439669e-02 -7.46714249e-02
   3.96539792e-02 -3.91060859e-03  4.22131717e-02 -5.85730970e-02
   4.52930406e-02  2.37643495e-02 -4.87638228e-02  1.48877501e-03
  -3.32128331e-02 -5.27569503e-02  3.41159329e-02  7.88562670e-02
  -7.44698420e-02 -3.80345881e-02  2.30126381e-02  2.04627812e-02
  -3.32208984e-02 -4.03375924e-03  6.30518124e-02 -1.04976594e-02]
 [-1.75054744e-02  6.02125376e-03  6.12531230e-02 -3.99598330e-02
   6.27436414e-02  5.88632748e-02 -2.04065107e-02  3.84861231e-03
  -4.97543514e-02 -7.98901320e-02 -2.06996985e-02 -6.57780096e-02
  -1.90493092e-02 -7.15468153e-02  5.62869385e-02 -3.93272378e-02
  -6.45826906e-02 -3.21199298e-02 -7.32726827e-02 -6.60769045e-02
   1.17904842e-02  7.78686032e-02 -6.82017207e-03 -6.80736154e-02
  -6.18600473e-02  3.60818207e-03  4.87081334e-02 -7.10952133e-02
   9.71703231e-03  1.78155079e-02 -3.03418487e-02 -5.01524284e-02
   2.72050798e-02 -5.11592589e-02 -4.76471521e-02 -6.38259053e-02
  -4.58913147e-02 -4.73587215e-02  5.99564239e-02  2.88718939e-03
  -2.41398811e-04 -7.86818340e-02  6.03948310e-02 -1.45253241e-02
  -7.93636888e-02  5.07733449e-02 -1.60910934e-02 -1.16812065e-02
  -4.43255305e-02 -5.49335927e-02  1.53097287e-02 -3.73362415e-02
  -7.28164613e-03 -5.78370467e-02  2.20391676e-02 -4.39465009e-02
  -4.71948124e-02 -4.43647467e-02 -4.98183034e-02 -5.34680597e-02
   2.77263820e-02  6.53702542e-02 -1.57646388e-02 -2.83151194e-02
   3.32680643e-02  3.85648981e-02  5.16068712e-02 -7.41546229e-02
   4.10513580e-03 -7.80199096e-02 -5.83183952e-02  5.33481017e-02
  -2.46643201e-02 -5.74652851e-02 -7.79217482e-03  3.42698619e-02
   2.72885039e-02 -2.11566612e-02  2.21335515e-02 -5.67264482e-02
   1.43404528e-02 -3.50512303e-02 -1.18629858e-02  4.76120189e-02
   2.66277045e-03 -1.19395033e-02 -3.78493071e-02 -5.07297739e-02
  -3.98922823e-02  5.57805374e-02 -3.13051306e-02  6.37956932e-02
   4.21721935e-02 -7.77085423e-02  7.63776824e-02 -6.82090074e-02
  -4.42342721e-02  4.32658270e-02  5.63726574e-03  7.07517937e-02
  -4.41712104e-02  6.32673576e-02 -4.23177294e-02 -5.34075685e-02
   3.74011397e-02 -1.73048973e-02  5.86791560e-02  6.17092848e-03
   3.61081213e-03  6.38721064e-02  3.47096920e-02  1.90789327e-02
   2.53700912e-02 -2.62371227e-02 -1.62288398e-02  5.75526133e-02
   5.48645929e-02  2.67338678e-02 -7.00776130e-02 -3.78916785e-02
  -6.76539987e-02  6.06792793e-02 -7.16800541e-02  3.89911011e-02
  -4.75906283e-02 -5.88679314e-03  5.49992695e-02  6.81858733e-02]
 [-7.46861771e-02  4.91917878e-03 -5.29600009e-02  5.09287789e-02
   7.72824660e-02 -8.09362382e-02 -3.24036218e-02  1.80772692e-03
   3.69779840e-02 -7.41289631e-02  7.37672225e-02 -5.20807877e-02
   5.01453206e-02  2.50773653e-02  4.93682846e-02 -6.10148497e-02
  -7.19205886e-02 -1.98074467e-02 -5.62249273e-02  7.87624940e-02
  -3.23537104e-02 -7.90618733e-02  4.78911772e-02 -7.60691389e-02
   4.63093147e-02  5.70011064e-02  3.55231985e-02 -7.48640150e-02
   5.58159277e-02  4.54220548e-02 -1.66842565e-02  4.30170819e-02
   5.40733337e-03 -7.12152049e-02 -6.97660297e-02 -4.33354676e-02
  -1.67989880e-02 -1.12438649e-02  6.66701794e-03  2.21157596e-02
  -2.55582109e-02  2.93684378e-02  4.51852754e-02 -7.63339326e-02
   3.61151099e-02 -5.66470847e-02 -3.46011706e-02 -4.08705324e-03
   7.91782513e-02 -5.82762063e-04 -8.02671164e-02 -2.01321580e-02
  -6.57100752e-02 -5.25889620e-02  2.98966467e-02  2.19946504e-02
   1.79188699e-02  8.68305564e-04  2.68662721e-02  3.69804725e-02
   3.65841389e-02 -1.85532048e-02  1.11523196e-02  4.09157574e-03
  -6.16770685e-02  1.31834447e-02 -4.40251864e-02 -1.59546360e-02
   2.30053812e-02 -1.33153498e-02 -1.06592700e-02  1.83300376e-02
   1.37954578e-02  3.73642445e-02 -3.48214321e-02  3.75023410e-02
  -5.08674234e-02 -1.92542747e-02  2.60481462e-02  6.29551038e-02
  -4.73254807e-02 -2.85987146e-02 -2.65369825e-02 -4.54434194e-02
   4.42435667e-02  9.38023627e-03  1.02628544e-02  5.78025058e-02
   1.74956694e-02  1.19000152e-02  7.28736147e-02 -5.55452853e-02
   7.43132085e-03 -1.01177618e-02 -5.72527573e-02  3.41460407e-02
  -1.33212656e-02 -6.97061196e-02 -2.30519697e-02  5.25981709e-02
  -3.07772532e-02 -3.70560512e-02 -4.27685268e-02 -3.98065373e-02
   6.54714331e-02 -2.32453533e-02  4.80551347e-02 -2.91554853e-02
   6.75904527e-02  7.74146542e-02 -7.34025985e-03 -6.94356859e-03
   4.68127057e-02  2.95865536e-02  7.91748613e-03  3.82679850e-02
  -6.93442971e-02 -7.10543469e-02  4.73082438e-02 -3.65505069e-02
  -2.03227177e-02  4.56850156e-02  1.28180459e-02 -2.09641680e-02
   4.85099927e-02 -9.66638327e-03 -3.34600173e-02  4.32600677e-02]
 [ 3.95857319e-02  7.78558776e-02 -6.20408654e-02  3.79709452e-02
  -6.84063360e-02 -1.56037286e-02  8.04762170e-02  1.20446682e-02
   3.29773873e-02  2.92442292e-02 -4.29981500e-02 -6.17927313e-02
  -1.76443607e-02 -2.88264044e-02  6.26709834e-02 -2.64715999e-02
  -3.10590677e-02 -2.28897966e-02 -7.12401122e-02  7.86700174e-02
  -5.98234162e-02  4.13116738e-02 -2.55435742e-02  2.86107808e-02
   4.80351821e-02 -4.45056856e-02  6.59972206e-02  1.12330392e-02
  -7.51711205e-02  6.14344552e-02  7.40221813e-02 -7.45313540e-02
  -8.01793933e-02  5.22373542e-02 -6.06156103e-02  7.00244829e-02
   2.94764265e-02  3.82149369e-02 -4.21449430e-02 -1.46722570e-02
   3.24549302e-02 -4.87125777e-02  4.61220518e-02 -2.10870057e-02
   7.86516145e-02  5.11843041e-02 -1.55121237e-02  2.13692114e-02
   1.62646919e-02  4.50906679e-02  2.88654864e-03 -2.18047649e-02
   3.72356996e-02 -4.69159931e-02 -1.93040818e-03  4.09431085e-02
   3.00341174e-02 -7.30425939e-02  6.85413703e-02  8.47450644e-03
   6.18412122e-02  6.57541975e-02 -2.31836438e-02  3.23167965e-02
   3.10961232e-02  6.68345168e-02  7.98284039e-02  1.45735145e-02
   4.37559038e-02  4.25285921e-02 -7.59389922e-02  7.61186406e-02
  -5.09801656e-02 -6.72882348e-02  3.81270051e-02  1.85415149e-04
  -7.27511272e-02  2.33953819e-02  3.07781398e-02  5.42520657e-02
   5.47242388e-02 -1.71985552e-02 -7.01178908e-02 -2.64481418e-02
  -3.04529890e-02 -5.41332960e-02  2.63897777e-02 -5.71759455e-02
   8.51508230e-03  2.70920843e-02 -7.69962147e-02  6.88441321e-02
   4.45204005e-02 -4.05539572e-03  5.41880727e-05  4.97369468e-03
  -7.25655407e-02 -7.65082538e-02  5.04608974e-02 -3.01851518e-02
  -4.83519584e-02  2.04037651e-02  3.55171114e-02  4.22472060e-02
  -7.68322870e-02  4.22491208e-02 -2.64237933e-02 -7.55172595e-02
  -7.28907883e-02  5.39934859e-02  3.82841900e-02  5.46383485e-02
   2.89040655e-02  7.37635121e-02  6.34485111e-02  2.80049294e-02
   7.02983811e-02 -2.95797661e-02 -6.61914647e-02  2.52214074e-03
   5.06942347e-02 -7.68744573e-02 -5.24417385e-02 -5.81777692e-02
   7.16111884e-02  3.20971683e-02 -7.42328689e-02  3.72570902e-02]
 [-3.07766907e-02  3.23340073e-02  2.31272504e-02  6.21953234e-02
   5.66681400e-02 -7.43583143e-02 -5.60218766e-02 -5.16323000e-03
  -3.91319208e-02 -5.94720766e-02 -6.56923950e-02  3.19478661e-03
  -8.71793926e-03 -3.73084731e-02  7.27508739e-02  1.31164342e-02
   1.12326443e-03  7.59250149e-02 -6.03688732e-02  3.89269367e-02
   4.59774211e-02 -3.02483290e-02 -6.35470301e-02  7.10348710e-02
   7.06273243e-02 -2.43765637e-02  7.94841126e-02  7.99882039e-02
  -1.22354403e-02  1.69085562e-02 -7.02390820e-02 -7.14581683e-02
   6.27107844e-02  7.19798356e-03  2.96131447e-02  3.88876796e-02
   5.76828197e-02  1.80478543e-02  6.41747490e-02 -3.08713317e-02
  -7.26275966e-02 -5.96338063e-02  1.24752149e-02  6.07972965e-02
   2.60628015e-03 -4.60121594e-02 -6.89023435e-02 -5.27203456e-02
  -1.31566748e-02  4.63456437e-02 -3.49699706e-02 -3.20638306e-02
   6.89604804e-02  4.78761420e-02 -3.20373364e-02  6.03688583e-02
  -7.26342499e-02 -6.05476201e-02 -5.59106395e-02  7.84640089e-02
  -1.05164573e-02  2.87864506e-02 -5.88367879e-03  6.40783980e-02
   7.84522519e-02 -6.75689280e-02  6.10412285e-02 -2.26990432e-02
  -1.13218948e-02 -5.97818010e-02  7.37544224e-02 -1.94519125e-02
  -3.86908911e-02  6.81221560e-02  4.31042612e-02  7.20181242e-02
   6.28345981e-02  5.49395382e-03  6.80838749e-02 -6.73956797e-02
  -1.99989341e-02 -6.88645393e-02 -4.54402678e-02  3.82134318e-03
   6.72045425e-02 -4.24481854e-02 -6.61941692e-02  3.92235443e-02
  -3.52195129e-02 -6.81873709e-02  6.99162707e-02 -1.68456733e-02
  -6.34502023e-02  4.99813184e-02 -6.84894472e-02 -3.72293033e-02
   2.88162157e-02  3.17235515e-02 -9.16991383e-03  7.62098208e-02
  -2.72601359e-02 -5.27626276e-03 -7.74254650e-02  4.55605313e-02
  -5.73714972e-02 -2.48053931e-02 -3.52929384e-02  4.79364023e-02
   5.03326431e-02  3.36405188e-02  2.73567736e-02  5.07352129e-02
   3.25512886e-02  4.88073155e-02 -6.90646321e-02  4.28237543e-02
  -5.82894646e-02  2.46452093e-02 -7.02734888e-02  5.70550635e-02
   1.94175094e-02  1.84459984e-03 -7.38368556e-02  7.34299198e-02
   2.07323954e-02 -2.58056857e-02 -1.91805586e-02 -5.11789471e-02]
 [ 4.11287546e-02  7.88317099e-02 -7.86281750e-02 -7.06146806e-02
  -3.70117910e-02  2.65949816e-02 -2.75742672e-02 -2.08381824e-02
   1.10057807e-02 -1.32112931e-02 -3.53631563e-02 -3.52411158e-02
  -3.31287868e-02 -1.01715803e-01  5.17525263e-02 -7.41328895e-02
  -3.15710418e-02 -1.88814830e-02  3.77981830e-03 -3.04411724e-02
   3.82345095e-02  4.76739034e-02 -7.83861801e-02 -5.81821017e-02
  -4.22128774e-02 -2.95494050e-02  6.30368292e-03  6.21729866e-02
  -3.92101631e-02  1.33143216e-01  1.08648218e-01  5.72251529e-03
  -1.03689656e-02 -4.86507155e-02  2.30921861e-02  2.68481690e-02
   8.50709528e-03  7.69582167e-02 -4.85913008e-02  4.06129099e-02
   5.54934926e-02  7.85951242e-02  2.74357293e-02  5.07680848e-02
  -5.92178106e-03 -3.87884155e-02 -4.40639369e-02 -4.36855247e-03
   3.69054340e-02 -5.27556799e-02 -3.57682928e-02 -5.37556484e-02
   9.23367962e-02 -4.89693210e-02  1.38841178e-02 -5.57577412e-04
   9.25688446e-02  3.02561130e-02  9.68950987e-03  1.65644921e-02
  -3.97598334e-02 -1.07770205e-01 -3.45974602e-02 -5.49940579e-03
  -2.27841903e-02 -1.95950232e-02 -7.34818121e-03  1.26949614e-02
   9.94288176e-02 -2.34178491e-02 -7.08109438e-02  5.07417992e-02
   5.26836142e-02 -3.60599011e-02 -5.44475950e-02 -6.90580532e-02
  -6.05684817e-02  9.55618545e-02 -4.32418883e-02  7.28319883e-02
  -9.01034027e-02  6.45566061e-02 -1.02045305e-01  4.25697751e-02
   5.91671690e-02 -3.92059870e-02  5.37498482e-02  3.26570123e-02
   7.34068006e-02  4.35205959e-02  3.00450474e-02 -7.24360645e-02
   3.55294049e-02 -3.29063684e-02  6.51042908e-02 -2.45351270e-02
   1.16340660e-01  6.80340379e-02 -1.56807923e-03 -6.05461448e-02
   4.58840951e-02 -1.43988375e-02 -1.20247200e-01 -3.15561555e-02
  -1.02889381e-01  1.26588374e-01 -5.99346589e-03  3.14962231e-02
   4.73484173e-02  1.78103410e-02  8.76552612e-03  7.54359588e-02
   9.57390964e-02 -6.54852688e-02  4.10865955e-02  1.37150986e-02
  -1.38072660e-02  1.63111333e-02  1.14173172e-02 -5.45810051e-02
  -3.44926603e-02 -6.96224794e-02  2.76725292e-02  1.39310537e-02
  -3.37911537e-03 -7.75530422e-03  4.68794629e-02 -3.17551242e-03]
 [-5.31221330e-02 -2.65883058e-02 -1.37063488e-02 -2.56164558e-02
   1.18947737e-02  7.49584101e-03  7.40594044e-02  7.20912707e-04
  -3.55456136e-02 -6.47128746e-02  3.62189934e-02 -3.96040827e-02
   1.02784922e-02 -1.11951351e-01  5.54611832e-02  3.57138366e-02
  -9.04726684e-02  4.48424406e-02  3.90752405e-02 -5.24234772e-03
   3.69292386e-02  2.37970483e-02 -9.99591649e-02 -7.70424083e-02
   9.69008580e-02 -1.35531351e-02  7.51234218e-02 -2.16478519e-02
  -3.80060151e-02  1.34018630e-01  1.04933187e-01 -1.35484114e-02
   3.16953957e-02  2.42455676e-02  5.38719669e-02  4.11840528e-02
  -1.94253623e-02  9.75301117e-02 -9.17371958e-02  2.64056074e-03
   1.49128763e-02  7.58619457e-02 -2.97086895e-04  4.39897403e-02
  -2.78799087e-02  4.09057662e-02 -1.12877665e-02 -6.19115345e-02
   7.16814697e-02 -3.45036350e-02  1.32046696e-02 -4.02239449e-02
  -3.57787460e-02 -4.47762664e-03  4.37430292e-02 -4.00821529e-02
   7.54992813e-02  3.67103145e-03 -9.20308307e-02 -5.45617342e-02
   5.81055060e-02 -1.33780807e-01 -5.09402603e-02  8.35397914e-02
   8.43222439e-02  9.92632750e-03 -6.84941188e-02 -8.44229609e-02
   7.00345188e-02 -2.00507883e-03 -2.20351648e-02 -5.30857816e-02
  -4.71550710e-02  2.19918732e-02 -6.26204582e-03 -8.77471454e-03
   2.89378315e-02  1.43086717e-01  9.99717489e-02  2.90689543e-02
   2.96797082e-02 -2.84641199e-02  2.10549962e-02  1.18729174e-01
  -4.54254448e-04  6.01333901e-02  7.68283978e-02  2.85876319e-02
   2.64636129e-02  1.18896939e-01 -7.63837695e-02  1.44647406e-02
   8.53250548e-02  2.86161583e-02 -2.84472127e-02 -2.42593270e-02
   3.62643115e-02  1.63843095e-01  1.98974367e-02  2.82324106e-02
  -3.68856229e-02 -3.16702463e-02 -8.70066136e-02  2.98253726e-03
   1.26200421e-02  7.49781430e-02 -5.30644841e-02  1.26172930e-01
   3.21596861e-02  4.84115295e-02  2.04119980e-02 -5.26049128e-03
   8.08842108e-02  7.08806589e-02 -3.07372073e-03  2.49042623e-02
  -3.22360992e-02  2.69903224e-02 -7.79495090e-02 -1.83644108e-02
   2.40930468e-02 -8.52086488e-03 -1.00206397e-02  3.94676216e-02
  -3.01267020e-02  7.46632218e-02 -4.19171490e-02  2.86794603e-02]
 [-2.12328732e-02  7.17932954e-02  4.71902639e-03  8.68961290e-02
   3.50099728e-02 -2.50442419e-02 -5.32468408e-03  1.67715475e-02
   1.26201659e-03 -7.23206699e-02  4.79181036e-02  2.27698777e-02
   3.57470810e-02 -6.16457872e-02 -7.35497922e-02  6.30613491e-02
   3.77263762e-02  1.49996870e-03 -1.99989229e-03  4.73682061e-02
  -5.95038570e-02  7.46012628e-02 -4.81089875e-02  2.29628966e-03
   3.53813022e-02 -7.99710080e-02  4.58316579e-02  4.00673896e-02
  -5.17083928e-02 -3.43118496e-02  1.97346751e-02 -1.30731910e-02
  -2.10776068e-02  2.33673751e-02 -1.88897476e-02  9.91762355e-02
  -7.49120116e-02  2.73976047e-02 -5.16630337e-02  4.39333133e-02
  -1.20084928e-02  8.43402892e-02 -3.70408110e-02 -2.42226720e-02
  -1.06873848e-01 -1.21428445e-02  4.70956676e-02  5.69408312e-02
  -2.19340790e-02  2.25541219e-02 -7.83841163e-02  7.64917955e-02
  -5.02330512e-02  2.90571842e-02  2.01735161e-02 -3.56221609e-02
  -1.33792730e-02  2.58782208e-02  7.36014172e-02 -8.24449509e-02
   4.64170650e-02  6.72883540e-02  2.36305948e-02 -1.96720380e-02
   1.19581841e-01 -7.23741502e-02  8.12231600e-02  9.12397983e-04
   1.41665265e-02 -1.01478696e-02  3.71749587e-02  7.32295141e-02
  -7.44822323e-02  3.05897985e-02  8.32910612e-02  3.53047326e-02
   3.27796936e-02 -2.34280061e-02  2.61803977e-02  1.10336989e-02
   8.52696449e-02  3.65901515e-02  1.26516968e-02 -2.57269666e-02
  -1.43507794e-02 -6.51105866e-02  9.86814499e-03  1.59735158e-02
   5.51940314e-02 -1.16302082e-02  2.69506499e-02  1.15954550e-02
   6.22670837e-02  6.63769990e-03  3.80970389e-02  2.05085929e-02
   6.51255175e-02  4.93684337e-02  9.63255093e-02 -8.80720466e-03
  -5.76360598e-02  9.96110961e-02 -2.02328470e-02  2.26966608e-02
   2.19317395e-02 -5.83415478e-03  3.77057418e-02 -5.45507148e-02
  -5.57000265e-02  1.18337898e-02  4.84109744e-02  2.15175785e-02
   1.11413896e-02  2.66492628e-02 -9.50830951e-02 -1.23717571e-02
   6.37652352e-02 -8.56204480e-02 -4.45557060e-03  2.44679977e-03
  -6.45764023e-02  3.71904075e-02  4.29430604e-02 -2.96613537e-02
   9.40527171e-02  6.43042549e-02  8.17127600e-02 -4.32756208e-02]
 [-3.71393412e-02 -8.08341354e-02  5.44495136e-03  4.41584364e-02
  -6.74539730e-02  5.78401051e-02 -3.57980952e-02  7.94295818e-02
   8.26950371e-03  2.30512954e-02  5.44621572e-02  6.72520921e-02
   8.10564384e-02  4.78614010e-02 -1.72319543e-02  4.08871770e-02
  -2.15823967e-02  8.03259462e-02  4.78988811e-02  2.17851792e-02
  -6.39952943e-02  2.18221322e-02 -5.33380620e-02 -7.70686492e-02
   1.63056509e-04 -7.30675235e-02  1.40071958e-02  5.29026613e-02
  -4.75672372e-02 -7.97070563e-03  3.99894677e-02 -5.80472499e-02
   2.61475146e-03  2.07328424e-02 -2.95996480e-02  4.82758209e-02
   3.48753631e-02 -6.50026649e-02 -4.71628383e-02  4.77051549e-02
  -5.59378229e-02  3.15670371e-02 -8.61246884e-03 -4.11357172e-02
  -4.14235182e-02  1.03249103e-02 -4.56914455e-02 -6.34036139e-02
   8.47627372e-02  1.56634971e-02 -1.48571879e-02  1.54893501e-02
   7.16979429e-02  7.39818364e-02  1.07367253e-02 -2.23363694e-02
  -1.49370534e-02 -7.78680220e-02  5.32940663e-02 -4.34811786e-02
  -1.33249760e-02 -6.38490766e-02 -6.11257032e-02  6.03582598e-02
  -5.82195120e-03  2.35849693e-02 -2.44544670e-02 -4.93233800e-02
   4.82125208e-02  2.12304331e-02  6.66305721e-02 -5.73035404e-02
  -1.47845522e-02 -4.68277894e-02 -6.79584667e-02  5.56097552e-02
  -5.06995097e-02 -2.80899331e-02  4.50851396e-02  5.82081154e-02
   3.08220442e-02  1.04740709e-02  8.05512443e-02  6.67173788e-02
   6.64621368e-02 -1.52528509e-02 -4.78969030e-02 -5.98851815e-02
  -1.87017489e-02  5.83395548e-02  3.51615325e-02 -5.20677678e-02
   6.19130023e-02 -1.95321515e-02 -3.32317725e-02  1.43068992e-02
   1.44090457e-02 -4.90202308e-02 -2.20834762e-02 -5.72583862e-02
  -7.72259384e-03  6.62484718e-03  1.49510065e-02  1.84884574e-02
  -4.96828854e-02 -7.96112567e-02 -6.55228421e-02  4.66629863e-05
   4.33294922e-02 -4.85573597e-02  3.11157107e-03 -3.81793417e-02
  -7.97959641e-02  6.41418323e-02 -4.52870168e-02 -3.83456866e-03
   2.97917146e-02  7.43570477e-02 -1.05330497e-02  1.93600298e-03
   1.60175860e-02  2.05236021e-02  6.58158809e-02 -6.10717386e-03
   9.69097111e-03  3.61441146e-03 -5.56981117e-02 -4.25434448e-02]
 [ 3.88775840e-02 -7.90501907e-02  6.04138747e-02  4.18804362e-02
  -4.42492999e-02 -7.28309155e-03 -1.51389688e-02 -3.44430208e-02
  -7.45986328e-02 -5.97245768e-02 -6.16336539e-02 -2.82818377e-02
  -4.54329774e-02 -6.73105493e-02  5.37062809e-02 -5.26405871e-03
  -3.60448696e-02 -3.66694964e-02 -7.39640296e-02  2.15966851e-02
  -1.16098821e-02  4.34797108e-02  7.34499022e-02 -6.08860776e-02
  -5.77320009e-02 -7.71285072e-02  1.79819092e-02  4.92172614e-02
   1.46885961e-03 -4.76736277e-02 -6.22463897e-02 -6.60728589e-02
   6.85825199e-03  6.56671450e-02  4.95708361e-02  5.37206605e-02
   3.60040069e-02  6.81960657e-02 -6.61349520e-02 -3.05272639e-03
   5.20174280e-02  6.01162538e-02  7.96797499e-02 -6.86417595e-02
  -4.90165390e-02  6.97514936e-02  5.14216796e-02 -6.71349391e-02
   8.08136687e-02 -4.11560014e-02 -6.07669130e-02  4.00490984e-02
  -1.21031478e-02 -3.51025537e-02 -8.39371234e-03 -5.78453243e-02
   2.99120396e-02 -5.33298701e-02  2.48605609e-02 -3.82610969e-02
  -4.26703840e-02  2.79283151e-02  7.01100454e-02  5.16954586e-02
   8.03365782e-02  5.48745021e-02  5.19750491e-02 -1.37848035e-02
  -6.63723126e-02 -4.59851325e-03  7.00413063e-02  3.54914069e-02
  -4.04477380e-02  1.59855187e-02  6.30799308e-02  1.02643445e-02
   4.78630587e-02  5.93444481e-02  1.19707957e-02 -1.30284652e-02
  -4.88380827e-02 -3.58181074e-02 -4.77183759e-02  6.04319498e-02
  -3.19161639e-02 -2.06234641e-02  4.80613485e-02  3.29408795e-02
   4.35990840e-02 -5.96362427e-02  1.47794709e-02  3.06147113e-02
   7.26279691e-02  1.27129182e-02  5.13101593e-02  2.72490755e-02
   6.62210360e-02 -5.33644632e-02  3.08595747e-02 -7.40210190e-02
  -6.94513768e-02  6.04872629e-02  4.49757650e-02  3.71548533e-03
   1.26716122e-02  1.25766024e-02 -1.11604407e-02  2.02725902e-02
   2.02084631e-02  8.03696886e-02  4.52155992e-02  5.21394387e-02
   1.03827715e-02  3.81517783e-02 -2.47360021e-03 -4.88516204e-02
  -7.15317875e-02 -6.72747195e-02 -1.83149576e-02  2.44905651e-02
   4.06772047e-02 -8.61097872e-03 -7.18216300e-02 -2.36447863e-02
   7.70568922e-02  1.89484432e-02 -3.01040486e-02  3.86990309e-02]
 [ 3.16523463e-02 -2.04805173e-02 -4.24227193e-02  4.51639071e-02
  -5.71321845e-02 -5.82909919e-02  1.84059218e-02 -3.55617590e-02
   1.41766146e-02  2.25543156e-02 -3.23264822e-02 -7.83222616e-02
  -3.49974483e-02  5.49063906e-02  6.57496974e-02  3.65440845e-02
  -4.65314090e-03  2.97167599e-02  7.70069882e-02  6.92799166e-02
  -2.39932537e-03  2.14274973e-02  5.16820773e-02 -8.96020979e-03
   1.74376369e-02 -6.94429427e-02 -3.63086425e-02 -1.08508542e-02
  -5.57639822e-02  1.91899166e-02 -1.39490440e-02  4.35275510e-02
   7.73897544e-02 -7.56795257e-02  6.69929013e-02  5.83786890e-02
  -6.47998601e-02 -6.87319785e-03 -7.44985044e-03 -7.28539079e-02
   2.40074173e-02 -6.84061423e-02  2.90538445e-02  5.32313511e-02
   3.03264409e-02  2.79215649e-02  5.24759218e-02  5.26554063e-02
   6.57878295e-02 -6.24307618e-02  3.57856601e-02  3.53047997e-03
  -3.95408869e-02  3.08385938e-02 -5.85329905e-02  1.09755471e-02
  -6.82091266e-02  4.02864367e-02  3.45024839e-02  4.46438715e-02
   5.79771772e-02 -6.41755015e-03  7.11898282e-02  7.22111985e-02
   6.34963065e-03  7.51039162e-02  6.41178712e-02  5.55753335e-02
   4.58408222e-02 -1.52963847e-02  8.09264556e-02  4.97893319e-02
  -3.40934433e-02  1.22168735e-02 -7.75372237e-02  3.55497301e-02
   3.57136130e-04  4.13006321e-02  1.51702613e-02  1.83498040e-02
  -2.28147656e-02  6.89254925e-02  4.76025790e-03 -7.04966486e-03
  -3.91579866e-02 -2.42854618e-02  6.46528825e-02 -3.09968404e-02
  -5.83305806e-02 -6.54827729e-02  3.47355902e-02 -1.16650164e-02
  -2.53143907e-03 -5.28113320e-02  5.70502654e-02 -7.94168264e-02
  -2.24718601e-02 -3.40405703e-02  2.09039450e-02  5.94153628e-02
   4.09052968e-02  5.00975624e-02  7.28702173e-02 -1.20599568e-03
  -5.50181419e-02 -7.62711018e-02  5.38414046e-02 -5.60650006e-02
   5.17469645e-03  5.79777434e-02 -5.94668016e-02  7.32143745e-02
   5.68775162e-02  1.43935755e-02 -1.63059607e-02  2.69306302e-02
  -4.87306006e-02  6.28923401e-02 -4.37259078e-02 -2.05993652e-04
   5.57861477e-03  2.05876529e-02  2.47586742e-02 -5.72935641e-02
  -6.30017817e-02  7.51300231e-02 -1.10251307e-02  6.94290176e-02]
 [-3.65434699e-02  7.91243538e-02  5.24852648e-02  4.30514291e-02
  -3.22878249e-02  1.73322633e-02  4.29475605e-02 -2.76762247e-03
   4.11528349e-03  5.52645996e-02 -5.58921546e-02  4.33027074e-02
  -3.40782218e-02  7.72678852e-03  2.87422836e-02  1.29181370e-02
   6.71470091e-02  2.43863091e-02  4.26961631e-02  9.26354527e-03
  -2.36509331e-02  7.36383870e-02  5.22702709e-02 -6.91084489e-02
   6.86426088e-02  7.58159533e-02 -4.01477404e-02 -6.16977811e-02
   1.53833851e-02 -3.86406481e-02  1.44541413e-02  7.39462897e-02
  -5.25347516e-02  2.37530768e-02 -6.90268725e-03  5.18660620e-02
  -7.62915611e-03  1.59935057e-02 -3.98803130e-02  3.88316512e-02
   2.88073793e-02  6.53591231e-02 -7.10878968e-02 -6.72187135e-02
  -6.66277334e-02 -5.42619377e-02 -2.50423811e-02  4.60063443e-02
  -1.12142190e-02  4.22072336e-02 -3.23533267e-03  4.88130823e-02
   5.32919094e-02 -6.98344260e-02  3.13055962e-02 -7.12999031e-02
  -4.40431722e-02  5.85788861e-02  1.55011714e-02 -2.42518894e-02
  -3.44106480e-02  1.36701465e-02  2.31241584e-02 -2.08143145e-02
   4.17687967e-02  3.40205953e-02  5.91571108e-02 -5.23050129e-02
  -4.39487807e-02 -2.52792574e-02 -1.25188231e-02  7.15141669e-02
   7.80553147e-02  6.34826496e-02  5.64384386e-02 -5.67980781e-02
   7.20445290e-02  1.74354315e-02  7.57544115e-02 -5.49704581e-03
  -7.49975070e-02 -4.15009782e-02 -3.65325809e-02  4.58634421e-02
   4.76314947e-02 -3.35129835e-02  3.80615070e-02 -2.07277946e-02
   2.70174965e-02  6.62327036e-02  7.16844723e-02  6.17131218e-02
   1.08916387e-02 -6.27619922e-02  3.27472836e-02 -6.89746886e-02
   1.79741755e-02  5.86177930e-02  4.68958393e-02 -8.00136253e-02
  -7.89027363e-02  4.69779745e-02  7.35627785e-02 -8.59721005e-03
   7.80392662e-02  9.94750857e-03  4.34182137e-02 -6.56543002e-02
  -1.17006153e-03 -7.71068484e-02  2.98981741e-02  2.39475816e-02
   6.48202226e-02 -4.80398163e-02  1.46854296e-02  2.96861827e-02
   3.60044092e-03 -2.52055973e-02 -4.48700562e-02  4.65104505e-02
  -4.79617119e-02  7.05032051e-03  7.39557669e-02  7.47563168e-02
   3.22947502e-02 -1.46398097e-02  6.80078641e-02 -4.72291559e-03]
 [ 1.74289346e-02 -2.76300013e-02  3.94267142e-02 -3.48214693e-02
  -4.52702269e-02  6.22459128e-02  7.95241371e-02  5.29406965e-03
   5.65484390e-02  2.40050405e-02  1.60661638e-02  4.94758859e-02
   1.91615894e-02 -3.38455625e-02  4.89229187e-02  1.80026442e-02
   2.98184603e-02  2.69333795e-02 -6.43430129e-02 -3.65261808e-02
  -7.04647824e-02  3.35709006e-02 -9.97972488e-03  3.05816084e-02
  -7.27133006e-02  4.44981977e-02 -6.47251904e-02  7.11004660e-02
  -4.01199348e-02  7.43938014e-02 -2.01764032e-02  1.03286281e-02
  -7.87930936e-02  5.39989695e-02  3.53072509e-02 -6.79056346e-03
   3.68695930e-02  1.08133182e-02  2.25578547e-02  2.87689120e-02
  -4.12702560e-03 -6.63033351e-02  9.64068621e-03 -5.55143207e-02
   6.82383105e-02 -5.53373769e-02  6.37639090e-02 -3.78142484e-02
  -2.63671726e-02 -2.00185925e-03 -6.09831959e-02  7.94912204e-02
  -3.57431918e-02  2.44148001e-02 -5.53247109e-02  4.60760072e-02
  -5.73519245e-02  5.21992967e-02 -7.66397864e-02 -2.03574076e-02
  -5.48775494e-02  3.12717110e-02  6.81750104e-02  3.11511755e-02
   2.84407586e-02  2.83824578e-02 -3.09534036e-02  2.96627507e-02
   4.96489927e-02  6.06287792e-02 -7.69803151e-02 -3.71985547e-02
   1.55939609e-02 -7.34524429e-03 -7.31722564e-02 -4.04305272e-02
   5.48688546e-02 -1.18845105e-02 -1.38055906e-02  2.70517096e-02
  -3.90513986e-03 -1.77817196e-02 -6.34347871e-02 -5.35578281e-03
  -8.22676718e-03 -6.12360984e-03 -2.55853459e-02 -5.71273491e-02
  -1.55362934e-02  4.21632007e-02 -3.86053585e-02 -2.98649073e-03
  -1.44985020e-02  2.78537273e-02  4.69939187e-02  6.06340840e-02
  -5.15222549e-03  2.15753913e-02  2.02254802e-02 -3.79986167e-02
  -7.34500885e-02 -6.28674030e-02 -3.94365564e-02  2.28482187e-02
  -2.63977647e-02  3.63732353e-02  6.36426285e-02 -6.21586889e-02
  -3.42943855e-02 -5.33305854e-02 -6.19357228e-02  2.03633830e-02
  -4.68533933e-02  7.63326809e-02  3.03842798e-02  5.47612682e-02
  -5.04411310e-02 -3.64877731e-02  7.90121928e-02 -2.44150274e-02
   7.23038092e-02  5.39003089e-02 -1.86023042e-02 -5.81408516e-02
   1.16930380e-02  6.55355304e-03 -4.95356731e-02 -7.67547339e-02]
 [-6.47678748e-02  7.57886991e-02  7.81568065e-02 -7.71362409e-02
   6.63500950e-02  7.51922354e-02  6.37430772e-02  2.90995017e-02
   3.23521271e-02 -3.10370810e-02 -7.56346658e-02  6.19129166e-02
   7.45775476e-02  1.13323033e-02 -5.88680878e-02  6.28796741e-02
   3.76727134e-02  5.62201440e-03 -3.45058329e-02 -5.77543527e-02
   7.85429701e-02 -3.48766446e-02  2.43970603e-02 -3.53495628e-02
   4.94929031e-02 -4.50319387e-02 -5.20932600e-02  3.75783592e-02
  -4.20473628e-02  1.22359768e-02  5.91118410e-02 -1.33324787e-02
   3.58303115e-02  9.60842520e-03 -1.13490075e-02  4.33525220e-02
  -1.96873359e-02 -3.54480892e-02  1.40859187e-02  3.62604856e-03
   5.34857884e-02  2.10458487e-02  6.67938516e-02  5.10290191e-02
   6.06774017e-02 -3.75241712e-02 -2.94881016e-02 -7.16774836e-02
  -7.19352812e-02  1.90856829e-02  1.38875842e-02 -4.41165790e-02
  -3.25053036e-02  4.68032435e-02  3.05693299e-02 -1.51982233e-02
   2.54908577e-02 -4.04294580e-03  6.26768544e-02  7.46039376e-02
   7.88997114e-03 -2.59311534e-02  3.99457887e-02  2.43554115e-02
  -3.79755087e-02  7.79433474e-02 -6.29560500e-02  2.42693722e-02
   5.11352941e-02 -4.91043925e-02 -3.20137814e-02 -1.63855702e-02
  -2.35484205e-02  1.60333812e-02  2.08614022e-02  5.02865091e-02
  -6.70984238e-02  2.41761655e-03 -1.39983371e-02 -2.14402974e-02
   4.45359200e-03  4.65550274e-03 -7.70313144e-02  3.63476276e-02
  -2.64956355e-02 -6.77971020e-02 -7.49829412e-02 -4.21030745e-02
   3.44035104e-02  5.86743653e-03 -6.64615408e-02  7.01713562e-03
  -4.27885354e-03  6.23122826e-02  7.06305131e-02 -1.06189921e-02
   6.13919124e-02 -1.36078969e-02  2.49316096e-02 -4.39218059e-02
  -4.83348444e-02  7.36454651e-02 -6.35766685e-02  5.32888845e-02
   1.71915367e-02  8.84006172e-03 -4.41776887e-02  4.17168140e-02
   8.51194561e-03 -1.81739032e-02  3.55293080e-02 -1.90699100e-03
  -5.58074713e-02  1.05565861e-02 -1.49469823e-03 -4.32571098e-02
  -1.35121346e-02 -7.80182034e-02  1.58892721e-02  2.57479623e-02
  -2.74387002e-03  7.68098235e-03  4.12376896e-02  4.56720963e-02
  -6.23069555e-02  3.61851305e-02 -2.81141959e-02  5.65352365e-02]
 [ 2.36344188e-02  2.70316750e-03 -1.22490525e-02  2.02701539e-02
   3.00017893e-02 -6.23270310e-02  9.82894003e-03  7.59174451e-02
   6.17860481e-02  4.20958623e-02  7.41352811e-02 -4.82577011e-02
  -3.79412398e-02  4.35589626e-02  7.41446242e-02  4.17709574e-02
  -3.35176066e-02 -4.46087867e-03 -4.82824184e-02  7.78911486e-02
  -4.85289618e-02 -7.41418451e-02 -2.87674218e-02  2.31392011e-02
  -2.25701183e-03 -3.88140380e-02  3.81763279e-03  3.35483178e-02
  -4.26827036e-02 -7.47910887e-03  2.46810466e-02 -1.82939768e-02
  -7.41754547e-02  1.27197057e-02  8.00011531e-02  7.85705820e-02
   6.31024763e-02  6.46404400e-02 -5.71763143e-02  2.61496007e-02
  -6.98518902e-02 -2.54001431e-02  1.44584477e-03 -1.54722854e-02
   5.98516688e-02 -6.52373880e-02  2.13475525e-03  4.00886685e-03
   2.75656804e-02 -5.80456667e-02 -2.57757120e-02  2.88523734e-02
   4.65559289e-02  2.08182186e-02  7.37107322e-02 -8.10635388e-02
  -2.47174986e-02  2.73329690e-02  7.19650462e-02  7.66974762e-02
   5.80566153e-02 -3.79246883e-02 -5.80721982e-02  7.38578290e-03
   4.18672636e-02  6.46527335e-02  2.68975049e-02  1.66661143e-02
  -1.49963647e-02 -7.45665133e-02 -1.23751983e-02 -3.54656577e-03
   2.20729709e-02  7.53437057e-02 -1.34623796e-02 -3.43168750e-02
  -6.29418492e-02 -6.02091588e-02  7.26840571e-02 -1.01038963e-02
   1.54087394e-02  7.37498775e-02 -2.52548717e-02  3.91191021e-02
   4.68953624e-02 -6.11927062e-02  2.61819288e-02  2.72557288e-02
   4.31844965e-02 -6.64724261e-02 -5.56958318e-02  3.18418443e-03
   1.89770833e-02 -2.04918869e-02  7.29094446e-03  2.30563208e-02
   6.89792261e-02  6.79432824e-02 -4.79489267e-02  7.62800202e-02
   4.73185405e-02 -8.02762061e-03 -3.73621359e-02 -4.51278389e-02
  -2.46552303e-02 -3.43560949e-02 -7.21648484e-02  1.25427619e-02
  -1.12937391e-03  6.60685077e-02  5.98084852e-02 -1.78626329e-02
  -3.99956666e-02 -6.49047866e-02 -5.28378822e-02  3.27946991e-03
  -4.00808118e-02 -1.48585439e-02  3.31419185e-02  3.22208181e-02
  -4.17811424e-03 -2.52550840e-02  7.10466281e-02  5.07806018e-02
  -4.23798449e-02 -2.31037959e-02  6.20484427e-02  2.03684345e-02]
 [-3.15786526e-02  7.91597888e-02 -5.92395365e-02 -2.26505063e-02
   5.09247258e-02  4.18611765e-02  4.26095426e-02 -7.33353421e-02
   3.13642249e-02 -6.84471428e-03 -4.39950004e-02 -3.51413079e-02
   7.59745464e-02 -2.26220973e-02 -1.49681717e-02 -6.37069196e-02
  -2.96774246e-02 -1.31409168e-02  2.33742446e-02 -5.47905080e-02
  -4.31541316e-02 -7.19490945e-02 -2.07606107e-02 -7.01720789e-02
  -1.43761858e-02 -3.70837003e-03  4.89633903e-02  1.24860853e-02
   1.61652118e-02 -4.86089438e-02 -7.04650506e-02 -4.96722981e-02
  -1.11508295e-02  5.24686202e-02 -3.15788649e-02 -8.43408704e-03
  -4.32028249e-02 -7.78054222e-02 -2.56196521e-02 -3.91809605e-02
  -7.13095814e-03 -7.44603798e-02 -3.26780900e-02  6.35277405e-02
   4.07180488e-02 -3.90869975e-02 -4.01227176e-03  5.91569766e-02
   7.00373277e-02  7.38873109e-02  3.06547061e-02  4.17202711e-03
   7.58518353e-02  6.88968524e-02  3.28030959e-02 -9.25755501e-03
   3.12588364e-02  5.41719720e-02  6.95956573e-02  4.81171831e-02
   8.74021649e-03 -8.02383795e-02 -4.04976495e-02  1.55105963e-02
  -3.70390117e-02 -6.20820150e-02 -9.18060541e-03  3.49218920e-02
   7.62983337e-02  2.79446542e-02 -7.87225068e-02  2.14913711e-02
   7.93605670e-02  4.78881225e-02 -1.26840100e-02  5.11040315e-02
   3.24694887e-02 -1.58678889e-02 -6.57372624e-02  7.73422793e-02
   3.40002030e-03  5.53310886e-02 -7.92100430e-02 -2.86899358e-02
  -5.89395389e-02 -3.27690206e-02  7.32941702e-02  7.39472285e-02
  -1.96167119e-02  6.34418428e-03 -2.22800598e-02  4.46578041e-02
   6.96715787e-02  6.56264275e-03  7.95605704e-02 -5.51573187e-02
  -6.04548305e-03 -7.14780912e-02  8.01530555e-02  6.10450879e-02
   7.67703354e-03 -4.84289415e-02 -7.48234391e-02  6.10309914e-02
  -3.99811789e-02  3.73454317e-02  5.13930246e-02 -3.69753726e-02
   4.66648862e-02  5.10787889e-02 -2.30643451e-02 -3.43573131e-02
   3.04391608e-02  5.36210090e-03  3.57453600e-02 -5.67518547e-02
   6.05683699e-02 -7.01986253e-02 -6.62001967e-03  6.97883889e-02
  -5.06730564e-02  3.83656174e-02 -5.56750037e-02  7.32542351e-02
   5.82376048e-02 -5.97307831e-03 -1.19880438e-02 -3.38137895e-03]
 [-6.99193850e-02 -4.34591547e-02  1.32500380e-03 -8.37147236e-03
   1.25215501e-02 -7.51350001e-02 -8.04397687e-02  4.24061641e-02
   9.29928571e-03 -5.96789420e-02 -5.56562245e-02  4.08724621e-02
  -2.30179913e-02 -4.86566722e-02 -3.37328203e-02 -2.24262215e-02
   6.53250888e-02  6.81763068e-02 -2.13527307e-02 -2.05758549e-02
   5.46332374e-02 -8.66390765e-03  7.06037208e-02 -6.75575733e-02
   1.70240253e-02  3.96309271e-02  2.69574523e-02  7.75875673e-02
   6.54756948e-02  1.59964859e-02  4.78358492e-02  8.04260299e-02
   5.53798303e-02  4.20706272e-02 -2.94830948e-02  7.39425048e-02
  -6.79892078e-02 -3.86565477e-02  3.14537659e-02  1.03064626e-02
  -3.75855900e-02  4.25411463e-02 -7.65775964e-02  7.54039511e-02
  -5.54214790e-02 -2.52638273e-02  1.88832134e-02  5.19649312e-02
  -2.87429243e-03  6.80006519e-02 -6.57707006e-02 -6.75416216e-02
  -4.61937636e-02  4.46958020e-02  4.13546860e-02 -4.40737046e-02
  -5.92692196e-02 -1.35809183e-02  1.54361799e-02 -2.34485008e-02
  -5.80998138e-02 -6.41126707e-02 -1.95663162e-02 -3.54834385e-02
  -3.89033034e-02  7.76619390e-02  4.20576334e-02 -6.11350387e-02
  -1.62713975e-02  6.16637990e-02 -3.66992205e-02  6.51632175e-02
   6.80037066e-02 -6.35079220e-02 -7.37659484e-02 -2.63161212e-03
  -6.54041395e-02 -1.27955377e-02 -5.76169752e-02 -5.66406995e-02
  -3.96103114e-02  4.98715416e-02  6.20726570e-02 -3.08062993e-02
  -4.14089076e-02  1.96584463e-02 -1.65776834e-02 -4.02335450e-02
  -3.39980461e-02 -2.82726921e-02 -6.74190968e-02 -3.73505540e-02
   3.86348069e-02 -3.66674848e-02  2.54196525e-02  2.86462158e-03
   1.97854564e-02 -7.72343427e-02 -3.95706482e-02  4.82360795e-02
   6.11113757e-03 -7.14990348e-02  6.86709061e-02 -8.01902860e-02
   9.49110091e-03 -1.81062743e-02 -1.98070779e-02  2.44317576e-02
  -4.03212644e-02  6.00185469e-02  7.09868148e-02 -1.33887753e-02
  -1.72031596e-02 -4.96743098e-02  6.54653534e-02  2.88371369e-02
   6.17648736e-02  4.78614047e-02  3.67362127e-02 -3.68090421e-02
   6.99128211e-03  7.85892829e-02 -1.58792585e-02  5.43812886e-02
  -5.11399209e-02  4.40508872e-03  6.52982220e-02 -2.12292969e-02]
 [-2.70764418e-02  4.94003817e-02 -5.02708182e-02 -1.72156543e-02
  -6.65035844e-02 -8.18818063e-03 -3.62723283e-02 -7.66614527e-02
   7.05612972e-02 -9.84805077e-03 -2.67525651e-02  6.31756112e-02
  -4.25824933e-02  7.83022419e-02  8.04539546e-02 -3.15819681e-03
  -5.24075851e-02 -3.86644751e-02 -6.16871640e-02  9.91815329e-03
   4.68404368e-02  2.22454071e-02 -4.83957566e-02 -5.52167222e-02
   5.54682538e-02 -4.55089174e-02 -3.41509916e-02 -5.94558343e-02
  -4.67148535e-02  1.81555077e-02  5.64471856e-02 -5.24917096e-02
  -7.64368325e-02 -5.09181097e-02  2.00770795e-02  5.63410893e-02
  -1.71120390e-02  2.08978951e-02  8.05997923e-02 -7.12082386e-02
  -3.93863544e-02  4.01666313e-02  2.30717734e-02 -5.85608557e-02
   5.43634072e-02  3.04259509e-02 -3.62104177e-03 -5.90355359e-02
   4.07151431e-02 -3.11816558e-02  6.14119843e-02  3.30845267e-02
  -4.16340828e-02 -4.62647937e-02  7.46853426e-02 -7.57602677e-02
   4.78511676e-02 -6.28931224e-02 -1.53110623e-02 -7.11332113e-02
   4.31090742e-02  4.41052839e-02 -2.71171108e-02  7.09748343e-02
   4.89946976e-02 -4.56302650e-02 -6.44602403e-02  4.50466499e-02
   5.64478561e-02  2.34667212e-02 -5.73976338e-03 -6.85211644e-02
   4.69983742e-02  6.85456023e-02  3.57100815e-02  7.22148269e-03
   5.20190224e-02 -1.59098506e-02  1.13249719e-02 -6.38868809e-02
   5.63672930e-03  1.30744502e-02  2.57474780e-02 -3.67330238e-02
   4.44645360e-02  6.68969825e-02  3.65185067e-02  6.69304505e-02
  -7.60740116e-02 -3.27868685e-02  6.07085451e-02 -5.20397909e-02
   1.37250274e-02  1.78077891e-02  3.73602659e-03  5.97439334e-02
  -6.77138567e-03  1.21044964e-02  4.09363955e-02 -6.52046651e-02
  -5.15859202e-02  2.45471448e-02  6.14461377e-02 -4.14055809e-02
  -8.08980241e-02  2.03115791e-02  3.33300009e-02 -1.50265545e-02
  -3.32845412e-02  7.85011575e-02 -6.73504248e-02  3.54422629e-03
  -7.35698566e-02  2.24019885e-02 -6.31780177e-03  5.73736653e-02
   7.78636411e-02 -1.45725682e-02 -6.78940639e-02  2.20553279e-02
  -5.84772378e-02 -1.40439793e-02  4.31493968e-02 -1.57517940e-03
   4.17647511e-02 -2.61471421e-03  4.94171306e-02  2.25557089e-02]
 [ 5.27491793e-02 -2.77300775e-02  3.24817672e-02 -5.79420142e-02
   5.37893996e-02 -1.37227699e-02  4.47350964e-02  1.16067156e-02
  -2.87261941e-02  2.56053582e-02 -4.15180549e-02  7.59587660e-02
  -8.03254172e-02  3.94263491e-02 -1.89582631e-02  3.46051306e-02
   1.58341601e-02 -5.00189364e-02  1.57854706e-02 -3.90252098e-02
  -6.40257299e-02  9.83474404e-03 -7.53447041e-02  3.16871777e-02
   3.66526693e-02 -2.00245790e-02  6.02863729e-03  6.69664145e-03
  -3.76529656e-02  6.71073571e-02 -3.18324454e-02 -4.64848429e-02
  -3.01560275e-02  9.47286934e-03  4.94152084e-02  7.62182400e-02
   5.84951267e-02  7.07985237e-02 -5.92406392e-02  7.69414827e-02
  -5.44785410e-02  1.83841065e-02  2.56494880e-02 -1.60929114e-02
  -4.93078120e-02 -4.50558811e-02  1.00715458e-03 -5.12573794e-02
   3.93472165e-02  3.51816490e-02 -1.95282809e-02 -4.36454788e-02
   7.46875182e-02  3.63653600e-02  5.65927550e-02 -7.74892643e-02
  -3.31388265e-02  6.16208538e-02 -6.19674176e-02  4.10328135e-02
  -6.88774958e-02 -3.59174311e-02 -6.38999715e-02  3.17031518e-02
   1.22635365e-02 -7.82485306e-03  3.98502797e-02 -4.81939055e-02
  -6.63442537e-02  3.18123922e-02  1.58082694e-03  2.47627869e-02
   5.62337264e-02 -6.79043904e-02 -1.45059898e-02  2.18607262e-02
   8.04576203e-02  4.41264734e-02 -4.47118133e-02  3.87816653e-02
  -7.91652575e-02  2.56649405e-02 -2.22465470e-02  3.37224975e-02
   6.45216331e-02  5.05899563e-02  7.99024329e-02  1.19799003e-02
  -1.06352940e-02  7.62099698e-02  2.77724862e-02  6.30965009e-02
   7.13166967e-02  3.53176370e-02  1.34307221e-02  3.09266970e-02
   5.68190739e-02  2.54540369e-02  5.54187596e-03 -7.18693584e-02
   3.74167413e-03  1.36902183e-02 -8.01109597e-02 -7.00545758e-02
  -5.22936657e-02  1.40500516e-02 -1.81149989e-02  1.66473016e-02
  -4.16236408e-02  4.29049581e-02  4.09219339e-02 -3.04202661e-02
  -2.81555019e-02  3.11770514e-02 -7.26628676e-02  4.05972973e-02
  -4.03986759e-02  5.79609722e-03  5.33850715e-02  5.90804592e-02
   3.05285975e-02 -7.17408806e-02  6.48165494e-03 -8.10511261e-02
   4.13324609e-02  4.66135889e-03  2.63490528e-02  4.81887236e-02]
 [ 6.61369488e-02  7.77196810e-02 -3.17688249e-02 -4.92939651e-02
  -7.11638629e-02 -1.83409303e-02 -1.31412074e-02  3.75412405e-04
   1.29381716e-02  2.23547220e-03 -2.20547877e-02  3.81789878e-02
  -1.36212185e-02  1.84336752e-02  7.81542137e-02  1.31696910e-02
   7.85284415e-02  1.27265900e-02  7.39734992e-02 -7.30966255e-02
   3.97351980e-02  6.25408441e-03  2.69373804e-02 -9.13026929e-03
  -1.22060850e-02 -7.37506449e-02  6.36290088e-02  1.51881054e-02
   7.62243494e-02 -2.44940072e-02  5.97028360e-02 -6.05308339e-02
   1.81687996e-02  1.09563023e-03  6.42091557e-02  4.69361991e-03
   1.35929510e-02  7.62108788e-02 -7.11674020e-02 -1.75699890e-02
  -1.90655142e-02  7.51542076e-02  1.76704079e-02  1.14438459e-02
  -5.06243631e-02 -4.45863083e-02  8.40117782e-03  1.91984847e-02
   3.95721793e-02  5.51439747e-02  7.55414739e-02  1.54950470e-02
  -3.36614251e-03 -1.86857469e-02 -4.61043641e-02  3.50991488e-02
  -2.07853466e-02  4.57066074e-02  5.97791001e-02 -1.20284408e-02
  -6.31355271e-02  3.71400565e-02  4.18491662e-02  2.34140754e-02
  -7.63736367e-02  1.75245851e-03  6.63843974e-02  5.56325987e-02
  -6.90824389e-02  6.78525493e-02  3.72672826e-02  3.78570035e-02
   3.39638144e-02  6.71317056e-02 -2.85456516e-02 -4.37678322e-02
  -5.15599884e-02  3.68554890e-02 -5.81100583e-03 -4.25852574e-02
  -7.49111027e-02 -6.99288398e-03 -6.56123161e-02 -7.70222023e-02
   1.00161210e-02 -1.39389336e-02 -6.84825853e-02  1.01886764e-02
   7.54681453e-02 -5.84914535e-02 -8.21597129e-03  7.65647367e-02
  -2.17093118e-02  2.29451060e-02 -5.50412685e-02 -7.57844374e-02
  -5.11691794e-02  1.24149770e-02 -5.84976003e-02  5.39693609e-02
   1.66250393e-02  4.41304669e-02 -1.38099417e-02 -7.81861171e-02
  -5.06854318e-02  1.99812427e-02 -7.26033002e-03 -1.49627179e-02
   6.42049313e-03  1.56330466e-02 -5.95349893e-02 -6.71506822e-02
   1.94866806e-02  4.34868634e-02  6.38679489e-02 -3.30141187e-03
  -3.57049033e-02 -4.22525220e-02 -6.12171292e-02  7.30890110e-02
  -5.96314669e-02  9.99850035e-03 -7.79897422e-02 -2.08437480e-02
   2.60433108e-02 -5.23861572e-02 -6.34181350e-02  5.44273481e-02]
 [-6.00877404e-03 -6.14325702e-03 -3.83401513e-02 -4.26605791e-02
   5.13136014e-02  4.49004397e-02 -7.98813552e-02  8.41819495e-03
  -7.26833493e-02 -1.29848197e-02 -2.83565223e-02 -3.85806225e-02
   7.08629116e-02 -9.46047157e-03 -8.01376626e-02 -4.43749875e-03
  -2.24618204e-02  5.13636842e-02  7.70559832e-02  5.48714027e-02
   1.07857659e-02  2.14464068e-02 -4.22048904e-02 -1.99690387e-02
  -3.69860455e-02 -7.82406554e-02  5.01486436e-02  6.50190338e-02
  -6.08159937e-02 -5.62408790e-02 -3.41533870e-03 -6.36235476e-02
  -2.87514105e-02  2.28381082e-02  1.39411539e-02 -5.70130572e-02
  -6.99118003e-02 -3.37443873e-02 -5.62829040e-02 -5.87220639e-02
  -4.74700518e-02  5.28650358e-02 -1.73621997e-02  1.88436061e-02
   7.37019405e-02  7.11313859e-02  3.64848226e-03 -7.71793127e-02
   3.05236727e-02 -3.34397107e-02 -1.38788670e-02 -3.27364169e-02
   2.55404636e-02 -2.31691785e-02  1.40196308e-02 -6.75128847e-02
  -1.23680383e-02  5.29118851e-02  2.36909613e-02  6.43721148e-02
  -7.00058416e-02  4.09772769e-02  5.22759482e-02 -6.49264827e-02
   5.78363165e-02 -6.08830228e-02  3.52155864e-02  4.39010188e-02
  -7.17315525e-02 -4.49772105e-02  3.58925983e-02  5.10716364e-02
  -7.14461207e-02 -5.54693788e-02  2.87828520e-02  5.84447458e-02
   6.20155707e-02 -1.37809590e-02 -1.61689073e-02 -6.18649237e-02
   4.20259386e-02  2.09776685e-02  6.28284141e-02  1.23701245e-03
  -6.61981925e-02 -6.96580410e-02 -4.20435928e-02  5.37544489e-04
   1.82007998e-02  7.33541027e-02  5.10080084e-02 -3.17715704e-02
  -2.82771401e-02  1.86744183e-02 -1.81950554e-02  4.33797538e-02
  -4.31700796e-03  7.36567751e-02 -3.83876450e-02  7.14031532e-02
   5.40915802e-02  7.08768293e-02 -4.06144895e-02 -8.66822153e-03
  -7.36189336e-02  7.49028400e-02  2.52363086e-03  2.63484493e-02
   4.26914468e-02  5.53833023e-02 -5.49054369e-02 -3.07407416e-02
   4.83232215e-02 -6.96410984e-03  6.07544258e-02 -2.06198283e-02
  -4.65774536e-03 -7.37890527e-02  9.83782113e-03 -4.25140932e-02
  -7.43352249e-02  8.31206888e-03  4.25930917e-02 -6.55475706e-02
   6.35938272e-02  7.63969198e-02 -9.92219150e-03 -2.45194547e-02]
 [-4.09991890e-02  2.99994498e-02 -5.42044230e-02 -3.41557488e-02
  -7.31727406e-02 -5.58654293e-02  3.24793682e-02  3.76922414e-02
   7.23001435e-02  3.80671173e-02 -1.46767646e-02 -4.63504642e-02
  -6.25071079e-02 -8.02684575e-03 -2.81474739e-03 -7.16529042e-02
   6.00530580e-02 -3.30114253e-02 -8.00127387e-02  3.23088095e-02
  -4.86532599e-03 -4.06869724e-02  4.63516638e-02  2.44080126e-02
   1.17307305e-02  4.37456742e-02  2.70641223e-02  6.32906929e-02
  -4.79906201e-02 -1.25937983e-02  7.46612325e-02  1.14370883e-03
  -2.90476345e-02 -5.05810454e-02 -2.26727836e-02  4.33519259e-02
  -7.95217007e-02  7.00281039e-02 -5.83103523e-02  6.53550550e-02
  -6.93662092e-02 -7.35957697e-02  7.74045065e-02  1.54022947e-02
  -9.58756357e-03  3.67647931e-02 -3.54892015e-02  2.14272812e-02
   2.20971778e-02 -3.08489017e-02  6.49015829e-02  7.10665956e-02
  -8.08589458e-02 -5.75157180e-02  7.68046156e-02 -2.63124257e-02
   1.13925785e-02  1.25298277e-02 -5.28006181e-02 -9.87143070e-03
   4.63582203e-02 -3.14737968e-02 -2.53277384e-02 -2.99076661e-02
  -7.75742158e-02 -7.99537152e-02  6.91869184e-02 -6.46054000e-03
   4.32743579e-02 -2.37205140e-02 -1.14130229e-02  2.81022266e-02
  -1.03522763e-02  2.93803290e-02 -4.25744653e-02  2.35341489e-02
  -7.75860250e-03 -5.65263145e-02 -2.03796849e-02 -4.95033003e-02
  -1.33267194e-02  3.03038284e-02  4.37174588e-02  1.45559981e-02
   9.00766253e-03  5.81662580e-02 -1.87643617e-03  6.37958720e-02
  -7.84243867e-02 -6.96975738e-03  2.41156146e-02  4.39785942e-02
  -5.68779036e-02 -4.83971685e-02 -1.91164501e-02 -1.34009942e-02
  -5.64596169e-02  3.44469100e-02  1.73734725e-02 -7.20979795e-02
  -2.84414776e-02 -4.30552363e-02  3.31544727e-02  5.26385233e-02
   2.45998800e-03  6.66080043e-02  4.13093567e-02 -2.87171453e-03
   7.02136979e-02  5.39050326e-02 -6.71084076e-02 -4.61138785e-02
  -5.06954715e-02  6.25999346e-02  7.69803673e-03 -2.69226469e-02
  -7.91240484e-02  4.48736176e-02  6.73461780e-02  4.38139513e-02
   2.21548080e-02  1.07134730e-02 -5.09719476e-02  4.30650562e-02
  -4.45292592e-02 -2.46902891e-02 -5.80170006e-03  5.55721447e-02]
 [ 5.81559464e-02 -3.01286839e-02 -4.89854030e-02 -2.92100944e-02
  -5.54025173e-03 -8.08921307e-02 -7.15056062e-02 -8.06504190e-02
  -6.92264736e-02 -1.06215626e-02  5.24743274e-02 -6.11434877e-02
   4.96509746e-02 -8.00006092e-04  1.03250667e-02 -8.00707489e-02
  -1.27750561e-02 -2.38031447e-02  6.85430542e-02  3.49032134e-02
  -2.49016397e-02  3.51493061e-03  1.46227330e-02  5.63840643e-02
  -7.35443458e-02 -6.23169355e-02  2.36331671e-03  1.34256333e-02
  -2.00625397e-02 -3.98490019e-02  7.19121918e-02  1.86236501e-02
   3.90417650e-02 -7.26613402e-02  1.48177370e-02  6.34205565e-02
  -9.98834521e-03 -4.90333624e-02 -1.61662176e-02  1.01346970e-02
   6.38525560e-02  4.60800305e-02  7.29165897e-02 -4.51850966e-02
  -4.77614254e-02  2.76999846e-02 -4.89515215e-02  5.35143539e-02
  -2.72328891e-02  3.04274261e-03  1.53391063e-03 -7.05911219e-02
  -1.76312923e-02  5.68198934e-02 -6.38963133e-02  5.16597554e-02
   3.81625518e-02 -3.36446390e-02 -5.00722975e-03  6.27321675e-02
  -5.23324534e-02  7.97401443e-02 -5.09053469e-03 -2.06057914e-02
   3.63508239e-02  6.67356029e-02 -5.08378968e-02 -7.56072626e-02
  -7.21333697e-02 -3.48148383e-02  5.14361188e-02  5.92843816e-02
  -3.35123464e-02 -3.71627770e-02 -2.32460685e-02 -6.68828040e-02
   5.88078424e-02 -3.85565683e-02 -5.15167080e-02  4.19331491e-02
  -7.84720555e-02  7.68694505e-02  4.14676741e-02 -5.12425117e-02
   4.43322435e-02  5.87879643e-02 -3.62121090e-02  7.32448176e-02
   5.33752888e-03  3.30546498e-02  3.04919332e-02 -7.67877251e-02
   7.91493058e-03  4.32228297e-03 -3.32385153e-02  3.36773694e-04
   1.94285810e-03 -5.68815768e-02  4.17781174e-02  3.19711789e-02
   3.00431103e-02 -2.59894952e-02  7.41214380e-02  3.53126451e-02
  -5.30287921e-02 -1.65946186e-02  5.99659011e-02  4.43447456e-02
  -2.65990570e-02  6.72096387e-02  2.95313075e-02 -6.11050799e-02
   5.75252995e-02 -5.55858910e-02  6.84948638e-02 -1.97533183e-02
   4.91396114e-02  4.45488840e-03 -7.51335099e-02  5.48475906e-02
  -3.39147188e-02  5.51292971e-02  6.04671910e-02 -6.63634762e-02
   3.65391970e-02  5.79835474e-03  4.45695966e-03 -3.14304419e-02]
 [-7.85256028e-02 -7.19298497e-02  7.06677809e-02  4.55464348e-02
  -6.54782057e-02 -6.88551366e-02  2.01310739e-02 -1.75253153e-02
  -7.88128376e-02 -4.72265631e-02  1.89920068e-02 -4.55380231e-03
   1.05787665e-02 -6.02860861e-02 -1.65962279e-02 -3.59767787e-02
  -4.38046902e-02  1.95650607e-02 -1.90436244e-02 -6.78768307e-02
  -3.40839066e-02  5.04539907e-03  7.29887187e-03  4.73296568e-02
  -5.21789119e-02  6.42355606e-02  6.34736940e-02 -6.77434355e-03
  -3.74723263e-02 -3.16877365e-02  3.49563733e-02  2.40721628e-02
   1.81520879e-02 -3.41521949e-03  1.47118270e-02  7.86142126e-02
   1.95767805e-02  2.78340951e-02  4.05262709e-02  6.42622486e-02
  -1.87798664e-02 -5.16373590e-02  1.01510584e-02 -6.77886158e-02
   4.61728871e-03  4.41429392e-02 -3.13407332e-02  2.02518255e-02
   2.44403780e-02  3.62016037e-02 -2.70216204e-02 -4.81017381e-02
  -2.84609497e-02 -4.78113182e-02  2.76669562e-02 -5.35302125e-02
   2.33823434e-02  5.38638905e-02  1.60321072e-02 -9.69434530e-03
   6.42274842e-02  3.74157429e-02  5.34210876e-02  4.08169627e-03
   7.85600767e-02  5.31621650e-02  4.57259342e-02 -1.43214613e-02
   3.15357000e-02 -7.85133243e-02 -2.43848823e-02  9.33221728e-03
  -2.42248178e-04  1.20844841e-02  7.57703409e-02 -2.24910416e-02
  -4.20590490e-03  4.32568192e-02 -6.31637424e-02  7.98928738e-03
  -2.75045335e-02  3.90158147e-02 -5.36332279e-03  3.34225744e-02
  -2.03026049e-02  8.07570741e-02 -1.95340812e-02 -7.29837492e-02
  -3.76732498e-02 -5.15967682e-02  6.09584823e-02 -3.01910713e-02
  -3.20632495e-02 -1.13341957e-03  5.68249002e-02  7.28538558e-02
  -4.85861637e-02  2.17732638e-02  4.68264148e-02  7.92324767e-02
   4.48983535e-02 -4.41232324e-03 -2.95715854e-02 -2.62401253e-03
  -4.44537997e-02  1.26040876e-02  3.18065733e-02 -2.17107423e-02
  -7.74340332e-02  5.20690456e-02 -1.56561509e-02 -6.90957233e-02
   3.18311900e-02  7.41174743e-02  7.12433532e-02  7.13165849e-03
   6.89468533e-03  1.35687366e-02  8.46531987e-03  7.75450543e-02
   5.62130585e-02  4.98168170e-03 -1.32102817e-02  7.49521777e-02
   5.75482845e-05  3.27917635e-02  5.29341027e-02 -7.17352480e-02]
 [ 7.02251270e-02 -6.72955215e-02 -1.31072700e-02 -3.66443172e-02
  -5.21285161e-02  6.77277520e-02  3.39766964e-02  5.67501113e-02
  -2.85829157e-02 -2.73042880e-02 -6.85422868e-03 -3.32695916e-02
  -6.08281791e-02 -3.10657807e-02 -1.16398558e-02  8.04918036e-02
   2.98620462e-02  6.05988875e-02 -4.80767339e-02  7.53161386e-02
  -2.77336538e-02  4.63927016e-02  2.35776603e-02  2.20150501e-02
   3.24405730e-03 -5.19455522e-02 -3.14946845e-02  1.03775412e-03
   5.26311249e-03  2.40029693e-02 -4.08884957e-02 -5.42208403e-02
  -2.44592950e-02 -6.76200390e-02 -8.26629251e-03 -6.08249865e-02
  -7.41988420e-04  7.98377618e-02  5.72053716e-02  4.79230285e-03
   3.74046788e-02 -1.81863382e-02  6.91384822e-03 -2.34512463e-02
  -5.57618514e-02 -4.84171063e-02  1.23288408e-02  3.76038849e-02
  -2.87700146e-02  3.46367881e-02  2.31473818e-02  3.55098769e-02
   4.52036187e-02 -2.31919400e-02 -4.90440950e-02 -8.91741365e-03
  -7.57608861e-02 -7.90022314e-02  8.17689300e-03 -4.61300053e-02
  -4.38665561e-02  2.22692117e-02  7.14573786e-02 -2.93311141e-02
  -1.61444992e-02 -5.33821769e-02  2.37572789e-02 -4.46523875e-02
  -7.24923834e-02 -3.54890302e-02  6.84060231e-02 -7.71142542e-02
  -5.61195165e-02 -6.00706562e-02 -4.39170860e-02  5.34436926e-02
  -2.98857577e-02  4.05181944e-03 -1.10424608e-02 -9.69523937e-03
   1.12070665e-02  3.28888968e-02  6.89344779e-02  5.54659888e-02
  -6.01275340e-02 -4.75716554e-02 -7.59968683e-02 -5.55081144e-02
   3.28219682e-02 -5.56798950e-02  5.54256812e-02  8.70712847e-03
   2.72679701e-02 -3.57818864e-02 -4.85756062e-02 -2.40170211e-03
  -2.97590718e-02  1.41324103e-02 -2.54403278e-02 -3.11049782e-02
  -6.61616400e-02 -6.27506152e-02  7.10217282e-02  2.49485746e-02
  -6.17410801e-02 -7.94123784e-02  6.16975501e-02  5.05635217e-02
  -8.57711583e-03 -4.18382585e-02 -4.11785133e-02 -4.86297533e-02
   3.54867429e-03  3.87151390e-02 -4.36510891e-02  4.40173224e-02
   2.17589140e-02 -6.17715381e-02 -6.42752126e-02  6.19767830e-02
   6.02865890e-02  7.02475980e-02  6.93463758e-02  6.58844411e-03
   7.03208819e-02 -6.00193515e-02 -8.44193995e-03 -9.75820422e-03]
 [ 8.06085765e-03  1.40620396e-02  6.06098473e-02 -6.04070351e-02
   7.67477602e-02  5.82285002e-02  3.63465399e-03 -8.49545076e-02
  -8.20553675e-02 -7.99456984e-02  1.03804320e-02  3.83136384e-02
  -6.85484707e-02 -1.10486895e-02 -5.31004034e-02 -6.01808466e-02
   3.74988317e-02  9.35009792e-02  5.69052026e-02 -5.25750443e-02
   2.36866772e-02 -8.20182823e-03  5.09456405e-03  4.51514870e-02
  -3.99517044e-02 -4.75966334e-02 -5.70768118e-03 -6.36709854e-02
   3.80976275e-02 -5.36280572e-02  1.16959037e-02 -7.99659416e-02
  -1.81057081e-02  6.60602376e-02  2.18321923e-02  1.79822352e-02
  -7.65945166e-02  8.57935920e-02 -4.57586721e-02  2.14925855e-02
  -4.67717461e-02  2.44173817e-02 -1.24710258e-02 -5.91558516e-02
   3.01514119e-02  4.24904972e-02 -8.44844580e-02  1.95603147e-02
  -8.28464553e-02  1.90192536e-02 -3.90945710e-02  5.76695055e-03
  -3.85010545e-03  4.93638963e-03  8.61889720e-02  6.03494607e-02
   4.26780023e-02 -9.18672085e-02 -2.48156395e-02 -3.91687788e-02
  -2.44409125e-02 -1.76040758e-03 -4.55940552e-02 -3.60726155e-02
  -2.68991999e-02  2.18107384e-02 -8.95576179e-03 -1.96978990e-02
  -8.27253237e-03  2.92585157e-02  3.82531225e-03 -5.51849604e-02
  -1.22138858e-03 -8.13755020e-02 -7.56807931e-05  1.52801955e-02
   2.82770395e-03  2.10511461e-02 -1.77563110e-03  9.06035975e-02
  -1.75642222e-03 -2.79598255e-02  6.17310479e-02  5.87013103e-02
   4.08454686e-02  4.04101461e-02 -4.26328108e-02  5.57724386e-02
  -3.94188147e-03 -5.49558178e-03  7.67658725e-02  1.48773761e-02
   3.00067081e-03  3.53136025e-02  2.64427345e-02  3.74868698e-02
   6.72528520e-02  1.92983076e-02 -2.96422858e-02 -7.53522068e-02
  -8.25773254e-02  6.63257390e-02 -7.59480372e-02 -1.01025300e-02
   4.54201922e-03 -2.08452567e-02  9.49379057e-02 -4.63032126e-02
  -2.27625892e-02 -2.97764633e-02 -1.45070478e-02 -1.70453414e-02
   8.00893754e-02 -4.39364463e-02  4.47844937e-02  4.00725231e-02
   7.23316520e-03 -5.30213192e-02  5.25751337e-02 -9.21073556e-03
   7.76644126e-02  4.21904102e-02 -1.79035962e-03 -7.06983134e-02
   2.45517492e-03  6.64497912e-02 -4.04354781e-02  5.81539832e-02]
 [ 1.57689527e-02  2.05998346e-02 -2.29744706e-02 -7.95663074e-02
  -6.09987602e-03 -1.01568431e-01 -1.07443333e-03 -7.96662457e-03
   5.80810681e-02 -7.18117803e-02 -1.33672878e-02 -8.09807554e-02
   4.80858535e-02 -2.55341940e-02  3.08294538e-02 -8.59631747e-02
   1.96974054e-02 -9.53468680e-03  5.72669879e-02 -5.56233414e-02
   1.47871133e-02  1.16396606e-01  3.53675559e-02 -6.95440173e-03
   1.77268460e-02  6.10153936e-02  4.05408293e-02  8.00839588e-02
   3.53869796e-02  4.04829904e-02 -3.64195295e-02  4.77678701e-02
   6.58210069e-02 -4.35524248e-02  6.58226609e-02  2.60440242e-02
  -6.65975288e-02  1.66435800e-02  3.80309410e-02  9.17007029e-03
   6.29157126e-02  4.13824618e-02 -4.74905893e-02 -3.74723636e-02
   6.39992431e-02  1.23416437e-02 -8.35656524e-02  4.63241264e-02
  -8.73481259e-02  1.52693858e-04  7.05514625e-02 -4.32924964e-02
  -4.43595238e-02 -6.99621439e-02  1.06855944e-01 -4.73797135e-02
   9.89592820e-03  2.10195836e-02  2.58899964e-02 -3.55429165e-02
  -6.27313042e-03 -7.40849599e-02  5.75631261e-02 -2.63170194e-04
  -1.49456505e-02 -5.45279495e-02 -4.40837629e-02 -6.97708726e-02
   9.49590001e-03  5.39441686e-03  4.28141421e-03 -4.03322056e-02
   1.34356916e-02 -1.08718977e-03 -9.68683586e-02 -2.35827882e-02
  -3.49531658e-02  5.96273914e-02 -3.36115249e-02 -2.97144018e-02
  -3.94756980e-02 -7.98505172e-02 -8.47869366e-02  6.06846176e-02
  -3.00377607e-03 -2.61257924e-02 -3.83390300e-02 -4.45739999e-02
  -5.02451956e-02  4.41782214e-02 -7.42355362e-02  3.02563552e-02
  -3.53304856e-02 -6.90462952e-03  8.64239335e-02  1.35492152e-02
   1.71851758e-02  6.72996864e-02  3.13595459e-02 -3.05384621e-02
  -8.14212263e-02  1.58784334e-02 -7.72492215e-02  5.86591028e-02
  -6.36455268e-02 -4.34858203e-02  3.89210992e-02  7.94689283e-02
   5.60474023e-02 -1.81328449e-02  5.35991043e-02  7.54727423e-03
  -2.88136546e-02 -7.21709952e-02 -1.93408504e-02 -6.69199303e-02
   4.91718613e-02 -8.24348480e-02 -4.44783606e-02  3.23996022e-02
   7.15526417e-02 -8.75422731e-02 -6.02175519e-02  2.36039050e-02
   1.32392749e-01  9.99461785e-02 -8.31563249e-02  1.88060720e-02]
 [ 5.01478687e-02 -2.81359889e-02 -1.87716722e-01 -8.09248090e-02
  -1.76154152e-01 -6.69403523e-02  6.66763857e-02 -5.35586616e-03
  -3.97070013e-02 -1.52710661e-01  1.67593062e-02 -1.02025457e-01
  -2.40677521e-02 -5.31413555e-02  5.48433978e-03 -7.25305378e-02
  -1.24776289e-01  5.54228127e-02 -4.85686883e-02  4.41526808e-02
   8.70025083e-02  1.32342562e-01 -1.30674437e-01 -1.35902822e-01
   9.71379876e-02  3.45831811e-02  7.93655217e-03 -6.45341128e-02
  -8.98244977e-02  1.81759186e-02 -1.71631172e-01 -5.48147187e-02
  -1.06649548e-02 -1.75577998e-02 -7.87386596e-02 -2.64539639e-03
   4.10595983e-02  1.24315254e-01 -7.75491819e-02 -1.47481095e-02
  -4.72486019e-02 -9.25220475e-02  8.17100033e-02  9.85790789e-03
  -1.62299171e-01 -7.47232139e-02 -1.20562300e-01 -1.13898344e-01
   7.29190409e-02 -1.52069986e-01  8.54599923e-02  1.81508288e-02
   8.23384225e-02  2.89720967e-02  1.78955466e-01 -1.07120477e-01
   6.39509708e-02 -1.30220026e-01 -1.50202826e-01 -1.78281382e-01
  -2.78367903e-02 -1.33635029e-01 -3.52614187e-02 -1.81026962e-02
   1.44627124e-01  1.44383729e-01  6.00021333e-02 -1.15233846e-01
   2.25692093e-02 -1.39626920e-01  7.78775709e-03 -4.02955636e-02
   2.68425830e-02 -3.02767083e-02 -2.87740156e-02  1.28764778e-01
   3.65787675e-03  1.14262342e-01  8.38048384e-03  9.53410268e-02
  -1.50079038e-02  4.56728563e-02  1.04705207e-02  1.60965785e-01
   4.78448644e-02  2.45121624e-02  7.28190765e-02  4.12448458e-02
   4.93048839e-02  1.02366358e-01  3.31322700e-02 -8.66914392e-02
   3.95630486e-02  1.57637224e-01  1.58248335e-01 -2.61200666e-02
   9.52300504e-02  1.15298405e-01 -1.23109899e-01 -1.45174712e-02
   3.10117994e-02  2.91851629e-02 -1.53504893e-01  8.07977021e-02
   8.44720677e-02  6.58001900e-02  7.97774345e-02  3.77069600e-02
  -4.11064588e-02  1.41067326e-01 -2.70632766e-02  1.43957883e-03
   5.71816564e-02 -8.12282488e-02  6.99361116e-02 -4.40849327e-02
   1.26417711e-01 -3.93717326e-02 -3.57836112e-02  3.53287905e-02
  -7.86896572e-02 -1.35219052e-01 -6.98909014e-02  7.60108680e-02
   1.29007980e-01  5.94692528e-02  2.83772536e-02 -5.66147119e-02]
 [-3.49351205e-02  4.84314635e-02 -1.55424893e-01 -1.62005693e-01
  -1.72754183e-01 -1.40380487e-01  5.08068129e-02 -8.62401649e-02
  -5.11547597e-03 -1.42682105e-01 -8.07631016e-02 -1.27286315e-01
   5.77901714e-02 -1.49049107e-02  6.69793338e-02 -7.63816759e-02
  -1.22192852e-01  8.98560062e-02 -8.00995976e-02  3.66483480e-02
  -1.96822872e-03  3.43749039e-02 -3.73597629e-02 -4.88155112e-02
   7.50852227e-02 -6.82146549e-02 -4.10907939e-02 -5.11771403e-02
   2.26672385e-02  5.49915694e-02 -9.03354883e-02 -2.63465010e-02
  -1.09993070e-02 -1.19615588e-02 -1.20205030e-01  6.72504818e-03
   3.24726966e-03  1.73345089e-01 -1.72910571e-01 -2.52300911e-02
  -8.71485695e-02 -6.88730255e-02  8.67984071e-03 -2.14773752e-02
  -6.31749034e-02 -3.93521078e-02 -9.66068804e-02 -2.76678591e-03
   5.59767969e-02 -1.67844281e-01  2.30165944e-02  1.01869680e-01
   1.62723795e-01  4.95434664e-02  1.69904470e-01 -4.20034677e-02
   1.22798374e-02 -9.05457810e-02 -4.13887314e-02 -1.51832849e-01
   6.17963076e-02 -9.81577858e-02 -8.77738073e-02 -3.50795314e-02
   5.81995845e-02  1.08913802e-01  6.47720993e-02 -7.40227774e-02
   1.11943401e-01 -4.88235056e-02  4.19802219e-02  5.70210963e-02
   5.71280196e-02  1.20192543e-02 -5.59156463e-02  1.61738425e-01
  -3.56859006e-02  3.27864811e-02 -8.56994744e-03  1.19283661e-01
  -1.21663883e-01  2.54343394e-02 -1.61379520e-02  1.61628932e-01
   3.06075551e-02  1.01309054e-01  7.88600594e-02 -1.86094679e-02
   1.22176178e-01  1.51556954e-01 -4.32176180e-02 -4.65421304e-02
   9.76918172e-03  1.71925381e-01  1.53420433e-01 -5.01174703e-02
   7.29276836e-02  1.39557272e-01 -1.01386830e-01  5.78834414e-02
  -4.45199944e-02  9.82548520e-02 -4.88944538e-02  1.50047317e-01
  -3.52698448e-03 -4.13640328e-02  7.99969509e-02  2.64423173e-02
  -2.53810994e-02  7.22586885e-02  6.14009053e-02 -7.96468090e-03
   6.13030680e-02 -4.26882803e-02  7.08431602e-02 -1.02174506e-01
   2.98469756e-02 -8.36791620e-02 -4.93482593e-03 -3.07724886e-02
  -2.06336770e-02  1.02033336e-02 -4.05272171e-02  8.81042928e-02
   1.58719212e-01  1.31643295e-01  3.16751413e-02  9.19257402e-02]
 [-4.34179939e-02 -5.24875484e-02 -1.39080048e-01 -3.11095249e-02
  -9.07398164e-02 -4.29652482e-02 -2.81722918e-02 -2.67828032e-02
  -4.80063781e-02 -3.07552405e-02 -4.73903976e-02 -8.38974491e-03
  -7.46935159e-02 -7.15449601e-02  4.75240201e-02 -1.14919938e-01
   2.29220353e-02  1.68874592e-01 -6.84391633e-02  5.37457354e-02
   5.02990521e-02  4.70267422e-02 -5.62342331e-02  3.33963074e-02
   3.22974548e-02  3.73810530e-02  2.06102952e-02 -1.01735473e-01
  -8.22620094e-02  7.43070170e-02 -3.95907573e-02 -1.34397522e-02
   6.07360005e-02 -4.32469994e-02 -6.89910129e-02  6.49809539e-02
  -2.19907076e-03  1.41837582e-01 -1.77670747e-01 -6.16927594e-02
  -2.52420194e-02 -2.97641894e-03  1.05647743e-01  6.46730214e-02
  -2.92152911e-02 -4.36339574e-03 -1.63473904e-01 -2.51613632e-02
   6.74255490e-02 -3.74639444e-02  4.86391969e-02  1.44839659e-01
   6.07451275e-02  7.96852261e-02  7.10471794e-02 -6.80065975e-02
   1.17169611e-01 -1.83144752e-02 -2.80974414e-02 -1.47699311e-01
  -4.33374718e-02 -1.34316474e-01 -4.78504673e-02  1.53589696e-02
   9.97442007e-02  1.07096672e-01  8.01559538e-02 -4.57753288e-03
   8.66791829e-02 -4.53933217e-02  1.97504200e-02 -5.54785766e-02
  -2.96892766e-02  2.27467474e-02 -5.78676388e-02 -1.05704425e-03
   6.30294979e-02  1.06441356e-01 -4.46244329e-02  7.06949532e-02
  -5.85932378e-03  1.12632066e-01 -1.05508409e-01  1.06228776e-01
   5.11942580e-02  7.45508075e-03  3.22569050e-02  4.49553765e-02
   1.21165588e-01  3.09193712e-02  2.91524082e-02  2.92485915e-02
   1.51701421e-01  7.46351331e-02  1.18147865e-01 -8.06831047e-02
   1.33305028e-01  1.73149049e-01  8.55458677e-02  3.58976498e-02
   1.60256568e-02  1.31123021e-01 -8.19660723e-02  1.62011191e-01
  -2.55475696e-02  6.32816330e-02  1.69133767e-01  8.91583711e-02
   4.07184437e-02  4.11782600e-02 -6.83789849e-02 -9.02126916e-03
   1.33372977e-01  6.41623214e-02  5.74279018e-02  3.13414894e-02
  -6.22234829e-02 -8.36481228e-02  1.83846839e-02  8.82778540e-02
  -4.12899144e-02 -1.03071243e-01 -3.22283581e-02 -3.04443762e-02
   2.35976409e-02  2.03411803e-02  6.30994514e-02  8.59849900e-02]
 [ 3.50409783e-02  6.85587749e-02 -1.74508125e-01 -7.79388025e-02
   1.30874524e-03 -1.11656658e-01  1.36290163e-01 -1.12756118e-02
   4.49218340e-02 -1.71416342e-01 -2.70543876e-03 -8.05035010e-02
  -3.87143381e-02 -6.87505081e-02  1.08919710e-01 -1.54125944e-01
  -5.87146059e-02  7.19014555e-02 -5.19892871e-02  2.98535749e-02
   1.51574075e-01  4.84281257e-02 -4.98921517e-03  1.00067882e-02
   3.05016469e-02 -7.66149983e-02  5.20322053e-03 -1.07094564e-01
  -8.71208906e-02  2.29784544e-03  3.95401679e-02  6.95146844e-02
   2.47431099e-02  1.62436534e-02 -3.61161381e-02 -9.92015898e-02
  -1.17164792e-03  3.36146541e-02 -1.21370316e-01 -4.49684560e-02
   1.86016019e-02 -7.93354660e-02  6.63519953e-04 -2.31026504e-02
  -3.49229202e-02 -2.66428217e-02 -1.28768459e-01 -8.67994316e-03
  -6.24985062e-02 -6.76029455e-03  1.62607450e-02  7.63293058e-02
   1.36040553e-01 -6.55519962e-02  1.28854796e-01  2.89339921e-03
   2.79603302e-02 -9.59532186e-02 -1.18832275e-01 -1.07864648e-01
  -9.99099296e-03 -1.07797481e-01  3.33416536e-02 -1.21302810e-02
   1.52849376e-01  1.69949889e-01  1.31051391e-01 -9.84225348e-02
   4.46349606e-02 -8.60152692e-02 -7.24107085e-05  1.24043589e-02
  -4.26775031e-02  2.00769380e-02 -1.73206534e-02 -1.97426174e-02
   5.43872006e-02  3.89558785e-02 -5.46218827e-02  2.84601711e-02
  -4.92035188e-02  9.65698659e-02 -8.98103975e-03  7.95119926e-02
  -1.64612215e-02  6.06770813e-02  1.56131908e-01  7.67533109e-02
   1.07575111e-01  3.12839225e-02  9.84046608e-03  6.24201372e-02
   6.06449284e-02  5.08177578e-02  4.76898365e-02 -2.82911807e-02
   6.63442016e-02  2.31263116e-01  9.23961475e-02 -7.61090517e-02
  -5.30379675e-02  4.25195396e-02 -6.89467117e-02  1.52997836e-01
  -7.98107833e-02  3.42234671e-02  1.30247548e-01  4.32720892e-02
  -5.92670739e-02  8.40882510e-02 -1.20506324e-01  1.27474451e-02
   1.58749968e-01  6.91370890e-02  7.77019188e-02 -3.17868404e-02
  -5.40729463e-02 -5.41670062e-02  4.69053611e-02  1.92064624e-02
   2.21106317e-02 -8.40232819e-02 -4.99369688e-02  1.02226399e-01
   2.90297437e-02  4.54775244e-02  5.14665730e-02  2.42125764e-02]
 [ 9.52937305e-02  4.76270095e-02 -3.38996053e-01 -8.90623108e-02
   2.11703718e-01 -9.49760154e-02  1.73641518e-01  4.75389883e-02
   3.92716099e-03 -1.75324723e-01  4.43741307e-02  2.92695612e-02
  -1.03764705e-01 -1.41769826e-01  9.28149223e-02 -6.96899667e-02
  -1.19231634e-01  1.11779124e-01  6.72351662e-03  3.15347947e-02
   1.29521325e-01  6.65388480e-02 -1.64745495e-01 -3.75676347e-04
   4.48690802e-02 -8.90317280e-03 -8.91304761e-02  7.86804967e-03
  -2.49888375e-02  7.93074518e-02  1.86602727e-01  4.52131554e-02
  -3.32982466e-02  2.36964348e-04 -8.38417485e-02 -1.22455284e-01
  -2.70256791e-02  7.82728344e-02 -1.98267341e-01 -6.35123402e-02
  -1.41328499e-01  1.53243886e-02  1.90144569e-01 -4.73880805e-02
   1.24637820e-01 -8.60215575e-02 -1.01148993e-01  2.35679056e-02
  -4.71851937e-02 -8.81115943e-02  5.48018143e-03  5.43983430e-02
   1.92523703e-01  1.93397198e-02  9.47888121e-02 -1.34241417e-01
   3.57437357e-02 -1.12029918e-01 -1.27722874e-01 -1.35582492e-01
   1.35802865e-01 -7.74182156e-02 -1.19361788e-01 -2.70079616e-02
   5.96945770e-02  2.05959454e-01  4.75529954e-02  4.95576225e-02
   1.95111230e-01 -9.76584032e-02 -1.55105209e-03 -4.57986891e-02
   5.39675495e-03  1.28009226e-02 -1.15703203e-01  9.33081750e-03
   3.80992927e-02  1.39596075e-01  1.13998771e-01  5.88607267e-02
  -1.14133105e-01 -5.03824987e-02 -7.70224854e-02  1.78923726e-01
  -1.54750660e-01  6.02076463e-02  1.05669685e-01  2.92629469e-03
   4.31010239e-02  6.56487644e-02  5.87183908e-02  5.86926425e-03
   5.69795594e-02 -6.70397189e-03  8.64798017e-03 -9.05246660e-02
   2.89491117e-01  1.83900207e-01  1.15343876e-01  7.31644034e-02
  -5.71976230e-02  4.71752323e-02 -1.03807040e-01  2.17917755e-01
  -8.43029022e-02 -8.16838145e-02  2.12269306e-01  8.38517323e-02
  -1.18394248e-01 -2.38206796e-02 -5.90844154e-02  7.19856694e-02
   2.81113327e-01  9.28825289e-02  2.03170910e-01 -6.23684339e-02
  -1.36435524e-01 -6.36975840e-02 -4.30649035e-02 -2.36758143e-02
  -9.23807174e-02 -5.70135154e-02 -7.74783865e-02  3.29135917e-02
   1.90112814e-01  2.20802650e-01  1.43563319e-02 -4.86605726e-02]
 [-4.97357100e-02 -4.61944975e-02 -3.29895943e-01 -1.94681615e-01
   1.03463933e-01 -5.31628802e-02  1.00295343e-01  3.50868590e-02
  -8.40854496e-02 -8.98477882e-02 -7.68903196e-02 -2.32303720e-02
  -1.97351761e-02 -5.33708110e-02  4.63219695e-02 -1.16659470e-01
  -2.55346764e-03  1.60144404e-01 -5.18829599e-02 -6.18658960e-02
  -1.94959398e-02  1.43074006e-01 -2.06212834e-01  6.27627894e-02
   2.39871219e-01 -4.74822298e-02 -1.21996656e-01  5.00423741e-03
  -2.69068833e-02  1.79903768e-02  6.97249398e-02 -5.93972020e-02
  -4.41109426e-02 -7.06977546e-02 -2.93505993e-02  3.37997638e-03
  -1.04285240e-01  1.32839754e-01 -1.86932348e-02  2.40975004e-02
  -9.48508549e-03  6.87314197e-03 -2.19100732e-02 -1.04881348e-02
  -5.72686866e-02 -6.02997653e-02  3.75986211e-02 -4.82641384e-02
   1.11544497e-01 -3.25278454e-02  5.21529205e-02  8.66431594e-02
   8.81526694e-02 -8.46175775e-02  1.21055663e-01 -8.46004635e-02
   9.14206132e-02 -6.28184900e-02 -1.24411471e-01 -1.78288162e-01
   1.61431119e-01 -1.12506293e-01 -3.51752974e-02  3.81086124e-06
   6.13931194e-02  1.63025379e-01  1.01984926e-01  8.37950874e-03
   1.62834361e-01 -1.08695924e-01  3.86842340e-02 -1.01007099e-04
  -2.16558669e-02  5.39700016e-02  1.82751119e-02  4.60900776e-02
  -9.06172767e-02  3.34174037e-02  3.13801207e-02  1.99836716e-01
  -1.08844124e-01 -8.30168575e-02 -1.18500277e-01  1.56549335e-01
  -5.09390198e-02  2.63287332e-02  1.38826877e-01  5.27005717e-02
   9.18836147e-02  1.33603916e-01 -5.27039059e-02 -3.49110138e-04
  -2.37650685e-02 -6.08799756e-02  6.55127466e-02  1.56705026e-02
   3.43724877e-01  1.74538553e-01 -1.21509220e-04 -1.16583280e-01
   6.06738031e-02  1.24998331e-01 -9.48022678e-02  6.50822297e-02
  -1.32527035e-02  1.54656009e-03  2.22633585e-01  1.75747350e-01
  -2.30349749e-02 -7.36532062e-02 -4.29255031e-02 -1.14353113e-02
   2.29666308e-01 -5.16516306e-02  3.46774697e-01 -2.25461368e-02
  -1.94349945e-01 -3.06132007e-02  9.23443362e-02  1.00327186e-01
   7.70633901e-03 -8.86104703e-02  2.75499038e-02 -4.82595488e-02
   4.48378325e-02  1.25409722e-01  5.37752993e-02 -1.29452059e-02]
 [ 1.16823602e-03 -2.09518299e-02 -2.73464382e-01 -1.66714594e-01
   6.50741234e-02 -7.88766369e-02  1.29895568e-01  1.38699591e-01
  -6.80481121e-02 -1.48337007e-01 -2.73342486e-02  3.61025706e-02
   3.50222806e-03 -1.33945271e-01  1.08510308e-01 -8.79220888e-02
  -1.56410277e-01  1.32574469e-01 -6.20441884e-02  2.41799336e-02
   1.88003704e-01  1.93697542e-01 -2.57517159e-01  1.26842475e-02
   1.78360879e-01  3.66804264e-02 -1.24338515e-01 -7.86291882e-02
  -7.11495280e-02  4.31531146e-02  2.48525605e-01  3.65910865e-02
  -5.06772324e-02 -7.76797591e-04 -1.98161975e-01 -9.74638015e-02
  -9.78358313e-02  1.08682945e-01 -2.30587572e-02  5.04656732e-02
  -1.34907439e-01 -9.45202354e-03  7.50435218e-02 -5.58690494e-03
  -9.25535616e-03 -1.67578802e-01 -9.17411000e-02 -1.32393941e-01
   1.91205759e-02 -7.42913038e-02  5.16756400e-02 -5.06118983e-02
   2.55982801e-02 -1.84588715e-01  1.42635465e-01 -1.27478153e-01
   5.49133234e-02 -8.47372785e-02 -1.61824033e-01 -2.07128078e-01
   1.85800016e-01 -1.54843420e-01  3.50944549e-02 -9.75124910e-02
   4.77724010e-03  2.35771701e-01  1.38892874e-01  1.49120942e-01
   1.68390140e-01 -1.92645177e-01 -1.39743924e-01 -2.01202184e-02
   5.99687733e-02 -9.94856954e-02  7.25223497e-03 -7.90546685e-02
  -2.84655043e-03  1.85038760e-01  1.09483302e-01  1.92982152e-01
  -1.61616668e-01 -8.98916572e-02 -4.26938310e-02  1.87504888e-01
  -2.05181856e-02  8.79817903e-02  1.88960880e-01 -8.23940411e-02
   1.25693269e-02  1.59120068e-01  7.39657655e-02  5.57757467e-02
   1.31772667e-01 -8.31017792e-02 -1.89119559e-02 -5.63939549e-02
   4.17936116e-01  3.00127983e-01  5.81257045e-02 -1.08585276e-01
   2.42101960e-02  9.53404903e-02 -1.82069123e-01  1.42059520e-01
  -6.24420792e-02  9.04040113e-02  2.65946031e-01  2.46338934e-01
  -1.72481775e-01  7.56384730e-02  3.86203229e-02  2.36207135e-02
   2.77377337e-01  1.60003807e-02  2.77045190e-01 -6.06462024e-02
  -2.36514166e-01 -9.47660580e-02  1.03809975e-01  3.73169826e-03
   6.50965646e-02 -7.36120902e-03 -3.86919938e-02  1.07583553e-01
   1.92005366e-01  2.40659267e-01  6.14205562e-02 -2.33361591e-02]
 [-7.07435161e-02 -4.59365472e-02 -2.26432949e-01 -3.16025734e-01
   1.16846457e-01 -2.15700045e-01  2.84970611e-01  4.30286266e-02
  -1.17515981e-01 -1.09638862e-01 -1.22179516e-01  3.42543982e-02
  -1.16212741e-02 -9.90548208e-02  1.17598243e-01 -2.00850055e-01
  -7.66776055e-02  3.06626439e-01 -4.96624634e-02 -2.97811069e-02
   2.60918677e-01  2.38094956e-01 -2.59505987e-01  2.93582454e-02
   1.98486164e-01  1.39341444e-01 -1.12858273e-01 -4.80790697e-02
  -3.83487493e-02  6.16976395e-02  2.06495717e-01 -8.01190361e-02
   2.01726351e-02  5.47580793e-03 -1.47591501e-01 -1.25046611e-01
  -1.30409628e-01  1.43872157e-01 -2.51522124e-01  1.06140800e-01
  -9.57562774e-03 -1.28612652e-01  2.13403732e-01  9.97814238e-02
  -4.58432408e-03 -1.20879114e-01 -1.44922554e-01 -4.77014296e-02
   3.66944075e-02 -2.28314511e-02  5.15629873e-02  1.65569279e-02
   3.91698256e-02 -1.03647850e-01  1.02623053e-01 -3.80215123e-02
   8.99364799e-02  8.46725609e-03 -2.24561572e-01 -1.25313684e-01
   1.08276553e-01 -1.39649183e-01  6.30174354e-02 -6.49856403e-02
   2.21483912e-02  2.07888916e-01  1.86286986e-01  6.19246736e-02
   1.83227748e-01 -1.73463970e-01  6.70200959e-02 -3.48483510e-02
   2.35944409e-02 -5.95726930e-02 -9.21953693e-02  9.78285298e-02
  -4.46310081e-02  1.17293663e-01  6.18140660e-02  2.15199471e-01
  -2.33590081e-01 -8.06188956e-02 -8.14787596e-02  1.43704653e-01
  -2.37511937e-02  1.86879914e-02  7.45794773e-02 -1.62326545e-02
   9.95896459e-02  1.54159263e-01 -5.43697923e-03  6.53526559e-02
  -4.94072353e-03 -4.80450280e-02 -2.94513535e-03 -1.56227246e-01
   2.63339788e-01  1.42175674e-01  4.13945839e-02 -8.34550560e-02
   2.74179433e-03  1.26140714e-01 -1.19160302e-01  2.14400083e-01
   2.03949008e-02  3.38774294e-01  3.45859021e-01  1.15232788e-01
  -5.64682186e-02  5.19059785e-02 -7.94185847e-02  6.89978153e-02
   2.33105794e-01  2.75054201e-02  1.82212368e-01  2.80997399e-02
  -2.00159088e-01 -9.98644456e-02  4.61350083e-02 -5.11559993e-02
   7.04947188e-02 -1.34621486e-01 -2.89729461e-02 -1.16197737e-02
   2.04081133e-01  2.32670009e-01 -1.49340164e-02 -3.97477578e-03]
 [-1.50464386e-01 -2.69370340e-02  5.37976762e-03 -7.72481486e-02
   6.79215491e-02 -1.04648918e-01  1.56401679e-01  3.96675952e-02
   8.41789469e-02  1.49143422e-02  8.05937946e-02  1.89524621e-01
   6.07630312e-02  9.07033980e-02 -1.24972731e-01  1.25728279e-01
  -3.04322205e-02 -3.14070322e-02 -3.89566608e-02 -9.60379839e-02
  -9.40660238e-02 -2.79012080e-02 -8.01194310e-02 -4.34157662e-02
   5.12277149e-02  1.37553766e-01  2.03869808e-02 -4.18609269e-02
  -8.45280290e-03  6.57975897e-02  1.17358275e-01 -5.92027232e-02
   5.82152084e-02 -8.62696618e-02 -1.13081075e-01 -1.06101729e-01
   5.52819930e-02 -2.78869038e-03 -3.09234381e-01 -1.47791300e-02
  -8.74447301e-02  9.79172215e-02  7.22693801e-02 -9.74828750e-02
   7.75359422e-02  9.01601277e-03  4.42914385e-03  6.57034889e-02
   3.21804034e-03 -9.00578797e-02 -1.05316355e-03  5.34806261e-03
   9.85327810e-02  3.73566747e-02  5.40189855e-02  1.55425787e-01
  -8.79594684e-02 -1.10307103e-02  4.20106947e-02  3.93621586e-02
  -4.58021089e-02  8.12249258e-04 -2.29288042e-02  8.23560804e-02
   4.24083956e-02  5.61692938e-02  1.02318205e-01  3.47867720e-02
  -8.86895135e-03 -7.96928555e-02  1.22276314e-01 -1.95601396e-02
  -1.11666091e-01  1.38676623e-02  2.99590314e-03  7.62933493e-02
  -6.32347353e-03 -1.92454815e-01  1.11195020e-01  5.83390072e-02
  -3.14445584e-03  1.76972792e-01 -1.23382479e-01 -1.04068168e-01
  -4.69074696e-02  5.30120768e-02  3.33770439e-02  1.21288158e-01
  -1.07459582e-01 -6.79768920e-02 -5.03159761e-02 -4.38334644e-02
   3.70560884e-02 -1.44177154e-01 -5.08311652e-02 -6.09385632e-02
   1.83814038e-02  6.72863424e-02  6.76687583e-02 -2.95938067e-02
  -9.80048999e-03  8.59389827e-02 -1.19190201e-01 -9.61533412e-02
   5.10335946e-03  3.86527359e-01  1.49943829e-01  9.00837928e-02
  -1.23670343e-02  6.83568493e-02 -1.01303495e-01  1.20926872e-01
   1.35510325e-01 -3.02713737e-03  2.23449338e-02 -6.16914295e-02
  -8.52637887e-02  4.42741886e-02  5.01150675e-02 -5.32094128e-02
  -9.97003317e-02 -1.00661650e-01 -1.27006888e-01 -1.40164397e-03
   3.44947837e-02 -2.90928083e-03 -1.02133468e-01 -8.62257630e-02]
 [ 5.61071858e-02  7.16199204e-02 -1.73448071e-01 -1.47238016e-01
  -1.45042852e-01 -7.02980757e-02  2.18412459e-01  2.42825914e-02
   1.14045337e-01 -1.54875934e-01  7.02643096e-02  2.72946134e-02
   7.25642592e-02 -7.53488839e-02 -1.67014346e-01  5.63835502e-02
  -1.49350181e-01  1.26203954e-01 -1.15647078e-01 -2.26324022e-01
  -5.86380763e-03  1.21761218e-01 -7.16051981e-02 -3.43796536e-02
   2.63856828e-01  7.11594597e-02 -7.55572021e-02 -9.20130685e-02
   2.41472945e-02  3.58237652e-03 -1.18766194e-02 -5.15091680e-02
  -3.44486274e-02 -2.34165657e-02 -1.13878794e-01  8.79750103e-02
   5.79071790e-02  1.88940100e-03 -1.33678138e-01 -2.05186792e-02
  -1.11412771e-01  5.74915633e-02 -1.54822677e-01 -9.23257470e-02
   5.17300405e-02 -1.60248294e-01 -9.81091708e-02 -7.97179714e-03
   9.40379053e-02 -2.91171856e-02  1.80978421e-02 -3.58157977e-02
   4.53662761e-02  7.61626987e-03  2.04582617e-01  4.84846644e-02
  -7.54764304e-02 -1.36467919e-01 -1.18085429e-01 -1.21875525e-01
   2.42484305e-02 -5.55550121e-02 -1.30084515e-01  3.71828042e-02
   2.64555782e-01  1.01125811e-03  1.09472848e-01 -3.77249904e-02
   9.26293433e-02 -9.93984118e-02  3.08468100e-02 -8.64710435e-02
  -6.47086203e-02  1.34798169e-01 -1.56045204e-03  2.32028544e-01
  -1.01379983e-01  2.89554410e-02  1.13175198e-01 -1.46257160e-02
  -4.61808182e-02 -1.13974875e-02 -1.19130671e-01  3.79523113e-02
  -1.03728278e-02  1.81073055e-01 -6.90979883e-02  1.17986053e-01
   1.32809728e-01  1.99584849e-02 -5.17940968e-02 -4.47603613e-02
   7.86758363e-02 -1.45554736e-01 -7.92233869e-02 -1.08690217e-01
   2.10986480e-01 -1.16545647e-01 -8.95525664e-02 -1.52718574e-01
  -4.17933650e-02  1.36546791e-01 -1.98062956e-01  1.08319469e-01
   3.85427624e-02  3.55411083e-01  9.85670611e-02 -4.38758135e-02
  -2.24693060e-01  1.18004166e-01  1.88182779e-02  1.08570807e-01
   3.81740890e-02 -1.31871626e-01  1.10388122e-01 -1.54709011e-01
   1.01780400e-01 -1.77526221e-01  8.91395286e-02 -5.32362573e-02
  -1.00341208e-01 -1.17052346e-02 -8.02238807e-02  6.36795834e-02
   1.79430172e-01  9.01760757e-02 -7.02102706e-02 -4.89512421e-02]
 [ 8.90040770e-02  4.42634001e-02 -1.23983219e-01 -3.89640070e-02
  -1.09048478e-01 -3.51865515e-02  2.84918934e-01  1.09237269e-01
   7.71371871e-02 -4.32515927e-02 -3.38490121e-02 -3.18680815e-02
   7.05006868e-02 -1.37619242e-01  6.17491454e-02  2.01502651e-01
  -8.85680914e-02  1.02854431e-01 -2.61805709e-02 -1.73153535e-01
   5.18236384e-02  8.91460404e-02  5.52800559e-02  3.37039307e-02
   1.73094869e-01  1.19068213e-01 -1.29822949e-02  6.39811307e-02
  -8.81080050e-03 -1.88986674e-01 -4.99289483e-02 -1.84917629e-01
   2.36048996e-02 -9.49774981e-02  2.03725044e-02 -6.39488399e-02
  -1.00513361e-01 -7.58543387e-02 -1.05777003e-01 -1.67431813e-02
  -2.16833547e-01 -4.32031043e-02 -1.23893723e-01 -1.05346046e-01
  -3.91434208e-02 -1.13988966e-01 -1.80066571e-01  5.28334081e-03
   1.92672342e-01 -1.39125273e-01 -5.43201081e-02  8.08794573e-02
   2.04111785e-01  1.26673639e-01  1.26733512e-01 -1.82545796e-01
  -5.19111287e-03 -2.86587756e-02 -1.94744736e-01 -1.15788385e-01
   6.65781870e-02 -1.98699776e-02 -1.31771356e-01  7.19485506e-02
   2.79212713e-01 -6.44706488e-02  2.62933105e-01 -2.38676220e-02
   6.40143529e-02 -5.72280847e-02 -6.04170896e-02 -5.44005744e-02
  -1.80281743e-01  6.08941726e-02  1.16493627e-01  1.85865685e-01
  -3.95555124e-02  5.30498475e-02 -4.63304184e-02  1.17058769e-01
  -4.87131439e-02 -6.33432418e-02  2.83194017e-02  3.33449513e-01
  -7.00225262e-03  1.44893020e-01 -6.04187399e-02  2.78528798e-02
   1.27665639e-01  1.84085771e-01  8.30560923e-03  3.92856225e-02
   4.86930832e-02  2.63832193e-02 -9.59563442e-03 -1.40579179e-01
   2.78986305e-01 -2.44468212e-01 -9.16416198e-02 -2.16776431e-01
  -6.14572018e-02  1.59786880e-01 -2.64242232e-01  3.25615883e-01
   6.51537254e-02  3.07442427e-01  2.05759659e-01 -1.17942877e-02
  -1.51387244e-01  9.69290268e-03 -4.44060937e-02  2.00170189e-01
   2.70908862e-01 -1.12271480e-01 -2.78393249e-03 -1.26149412e-02
   7.31020197e-02  6.01025857e-03  2.22688243e-02  1.14227705e-01
  -1.78688422e-01 -1.08352453e-01 -8.72228742e-02  8.74654651e-02
   1.47753268e-01  2.10350052e-01  7.75056481e-02  1.45938337e-01]
 [ 5.17671071e-02 -2.77827941e-02 -2.19100818e-01 -1.42854616e-01
  -1.31461220e-02 -1.34157166e-01  1.47351742e-01  1.31660014e-01
  -9.83034726e-03 -1.34093583e-01 -2.92532928e-02 -7.60524049e-02
  -2.23542261e-03 -1.25759140e-01  1.28968328e-01  6.04481958e-02
  -1.07196823e-01  1.61492288e-01 -1.14435777e-02  6.61651045e-03
   1.34000182e-01  1.71274289e-01  1.85103510e-02  1.94362611e-01
   2.01962575e-01  2.07037386e-03  4.43224274e-02  2.59341411e-02
  -2.12945882e-02 -7.97815025e-02  1.72283143e-01 -1.16524316e-01
  -7.98932984e-02 -3.56720500e-02  4.01697829e-02 -4.43472341e-02
  -1.35228381e-01  1.24163665e-02 -4.38128933e-02 -6.26590922e-02
  -9.57796276e-02  2.05896329e-02 -8.38050842e-02  1.09384067e-01
   1.21590726e-01 -1.14662252e-01 -1.43090904e-01 -2.55300961e-02
   2.50159632e-02 -1.29967272e-01  8.78637061e-02  4.98613380e-02
   1.97233677e-01 -1.67700090e-02  1.28480315e-01 -1.70769289e-01
  -2.94924248e-02 -5.58667853e-02 -2.06241488e-01 -2.29431406e-01
   2.62724489e-01 -2.16295108e-01  6.21882491e-02 -8.37150663e-02
   2.15737313e-01 -1.28089534e-02  1.98567212e-01  4.60550264e-02
   2.09200844e-01 -1.45819366e-01 -7.56085217e-02  1.08414432e-02
  -3.06893140e-02 -7.25878552e-02  1.39359906e-02  3.14985663e-02
  -2.05912981e-02  2.14133024e-01  2.75794826e-02  2.22064242e-01
   4.82980423e-02 -4.68659140e-02 -2.34182123e-02  2.49255985e-01
   4.14287634e-02  1.23817280e-01  5.02287857e-02  5.02099395e-02
   9.84940678e-02  2.69138753e-01  7.74529651e-02  9.60336775e-02
  -4.93829255e-04 -8.83472059e-03 -8.35608132e-03 -1.80609792e-01
   2.76018083e-01 -1.60207883e-01  7.00569153e-02 -8.92038792e-02
  -1.79360434e-01  1.09706268e-01 -1.70645431e-01  3.10882688e-01
   8.32979754e-02  1.47443414e-01  2.04157814e-01  1.29318371e-01
  -1.37407467e-01  5.02080508e-02  3.25974636e-02  2.27138370e-01
   2.34741881e-01 -4.06876951e-02  1.12329409e-01 -6.53272942e-02
  -3.46292481e-02  9.52495076e-03 -3.25048007e-02  1.31335735e-01
  -6.86172545e-02 -2.07604398e-03 -6.75655678e-02  3.69376270e-03
   1.94172770e-01  2.68111140e-01 -7.11986944e-02  3.22640210e-01]
 [-5.47190309e-02 -4.79518883e-02 -1.18854679e-01 -1.12429604e-01
   9.84130055e-02 -2.02303380e-01  1.35037983e-02 -8.84947404e-02
   5.02231484e-03 -1.27934664e-01  2.44017094e-02  9.14943516e-02
  -1.45523190e-01 -1.96120948e-01  1.37975022e-01  3.90831791e-02
  -6.54703230e-02  1.26001447e-01 -2.45890319e-02  9.25694965e-03
   8.49858224e-02  8.90739039e-02 -1.51615947e-01 -1.26982957e-01
   1.56598106e-01 -9.97134671e-03  3.91425565e-02 -3.06826029e-02
  -7.35634416e-02  1.01031035e-01  1.61592454e-01 -1.18508123e-01
  -1.17075235e-01  6.60487786e-02 -3.57923955e-02 -1.60116285e-01
  -1.61200259e-02  2.16476232e-01 -1.39504045e-01 -1.67543858e-01
   1.73714068e-02  8.72839056e-03  2.33982474e-01  4.51736860e-02
   1.20142773e-02 -9.70802456e-02 -5.67754582e-02 -6.99093491e-02
  -1.39364824e-01 -6.73947781e-02  1.94640979e-01 -1.41510412e-01
   6.41025081e-02 -1.14051871e-01  8.11749101e-02  5.81659600e-02
  -4.60778624e-02  5.39355795e-04 -1.64460048e-01 -1.66204631e-01
   5.94405681e-02 -1.40632138e-01 -8.94217789e-02 -3.51216495e-02
   1.44231081e-01  3.12543735e-02  2.00720295e-01  7.14882314e-02
   1.34310529e-01 -1.71782643e-01 -9.29039493e-02 -1.92943737e-02
  -5.95501103e-02 -1.10628687e-01 -4.31103557e-02 -1.24642722e-01
  -9.23433378e-02  2.37448111e-01  1.70454457e-01  1.70112059e-01
  -8.61777961e-02 -1.03214599e-01 -1.51059121e-01  1.64967075e-01
   8.42180625e-02  1.16671197e-01  6.44565970e-02  4.78523225e-03
  -3.76236290e-02  6.78868070e-02 -1.38544589e-02  1.54572818e-02
   1.24020427e-02  4.16065045e-02  3.96388844e-02 -3.61233354e-02
   1.36303961e-01 -6.55242205e-02  2.20510170e-01 -9.84393060e-02
   3.91583182e-02 -2.84728594e-02 -9.58079398e-02  7.42686093e-02
  -1.25761330e-01  8.57372880e-02  1.42989486e-01  8.90754610e-02
  -8.20049122e-02  1.06789358e-01 -5.43390214e-02  1.30783895e-03
   4.48271744e-02  6.91639185e-02  1.80092707e-01  2.51780841e-02
  -1.41650006e-01 -1.63695753e-01  8.16779286e-02 -3.37107331e-02
  -5.81765454e-03 -3.52804251e-02 -2.38735080e-02 -1.47800893e-01
   1.22643247e-01  1.62515879e-01 -1.31349683e-01  9.88241658e-02]
 [ 1.16285950e-01  1.71053410e-03 -7.48430490e-02 -6.14306107e-02
  -4.60092090e-02 -2.12379202e-01  7.40992129e-02 -2.76014600e-02
  -9.72209796e-02 -1.38082668e-01 -3.72132882e-02 -2.04651970e-02
  -6.45028288e-03 -1.08685523e-01  1.45634577e-01 -1.55911148e-01
  -8.60633329e-02  9.06517506e-02 -3.02266516e-02  1.21209770e-01
   1.83015391e-01  1.67751357e-01 -1.68735310e-01 -1.45074591e-01
   1.21781126e-01 -6.44092560e-02  1.49629191e-01 -1.17694490e-01
  -9.12264585e-02  2.34780371e-01  3.30049209e-02 -1.69014379e-01
  -9.30613801e-02 -4.41060364e-02  7.26536848e-03 -5.28866202e-02
